<?xml version="1.0"?>
<opencv_storage>
<stage6>
  <maxWeakCount>100</maxWeakCount>
  <stageThreshold>-8.5110938549041748e-01</stageThreshold>
  <weakClassifiers>
    <_>
      <internalNodes>
        0 -1 63 -1 -1 -1 -1 -1 -1 -1 2013265919</internalNodes>
      <leafValues>
        6.3577584922313690e-02 8.1102818250656128e-01</leafValues></_>
    <_>
      <internalNodes>
        0 -1 3842 -1 -1 -1 -1 -1 -1 -1 -50987017</internalNodes>
      <leafValues>
        -1.1026848852634430e-01 3.8998451828956604e-01</leafValues></_>
    <_>
      <internalNodes>
        0 -1 3034 -1 2147483647 -1 -1 2147450879 2147483647 -1
        1073709055</internalNodes>
      <leafValues>
        -1.4596118032932281e-01 2.3542322218418121e-01</leafValues></_>
    <_>
      <internalNodes>
        0 -1 63 -1 -1 -1 -1 -1 -1 -1 2013265919</internalNodes>
      <leafValues>
        9.1548494994640350e-02 -2.8103280067443848e-01</leafValues></_>
    <_>
      <internalNodes>
        0 -1 319 -1 -1 -1 -1 -1 2147483647 -1 2012741623</internalNodes>
      <leafValues>
        -1.0261841863393784e-01 2.7936869859695435e-01</leafValues></_>
    <_>
      <internalNodes>
        0 -1 712 -1 -268435457 -1 -285278209 -32897 -1 -139 2129985396</internalNodes>
      <leafValues>
        -2.0792570710182190e-01 8.8242925703525543e-02</leafValues></_>
    <_>
      <internalNodes>
        0 -1 5448 -65538 -268500993 -1 -65537 -1 -1 -3 217874430</internalNodes>
      <leafValues>
        -1.5161173045635223e-01 1.0602854192256927e-01</leafValues></_>
    <_>
      <internalNodes>
        0 -1 5652 2147483646 1073676287 -1 -65537 -1 -1 -1 1073709055</internalNodes>
      <leafValues>
        -7.0572920143604279e-02 1.9805218279361725e-01</leafValues></_>
    <_>
      <internalNodes>
        0 -1 541 -1 -1 -1 -1 -129 -1 -9 2147483647</internalNodes>
      <leafValues>
        6.3222527503967285e-02 -2.1974149346351624e-01</leafValues></_>
    <_>
      <internalNodes>
        0 -1 2661 -32898 -268435457 -1 -285278209 -32907 -1 -140
        2130509684</internalNodes>
      <leafValues>
        -1.4745482802391052e-01 1.0252194106578827e-01</leafValues></_>
    <_>
      <internalNodes>
        0 -1 59 -2 -1 -1 -1 -1 -1 -1 2012741623</internalNodes>
      <leafValues>
        -8.5940539836883545e-02 1.8362806737422943e-01</leafValues></_>
    <_>
      <internalNodes>
        0 -1 3421 -1 -1 -1 -1 -1 -1 -1 -16777225</internalNodes>
      <leafValues>
        -4.8637859523296356e-02 3.4352606534957886e-01</leafValues></_>
    <_>
      <internalNodes>
        0 -1 474 -2 -1 -1 -1 -1 -1 -3 2147483511</internalNodes>
      <leafValues>
        -6.0856759548187256e-02 2.0988407731056213e-01</leafValues></_>
    <_>
      <internalNodes>
        0 -1 8462 -1073774724 -1359020033 -2 -285278210 -32905 -1 -140
        1156906868</internalNodes>
      <leafValues>
        -1.7530930042266846e-01 7.4474617838859558e-02</leafValues></_>
    <_>
      <internalNodes>
        0 -1 542 -1 -1 -1 -1 -129 -1 -9 2147483647</internalNodes>
      <leafValues>
        5.8064363896846771e-02 -2.1917462348937988e-01</leafValues></_>
    <_>
      <internalNodes>
        0 -1 4515 -1 -1 -1 -1 -1 -1 -1 2147418109</internalNodes>
      <leafValues>
        7.5888730585575104e-02 -1.7346310615539551e-01</leafValues></_>
    <_>
      <internalNodes>
        0 -1 5420 -1 -1 -1 -1 -1 -1 -1 -65539</internalNodes>
      <leafValues>
        -6.6280022263526917e-02 1.9938878715038300e-01</leafValues></_>
    <_>
      <internalNodes>
        0 -1 7104 -1 -1 -1 -1 -1 -1 -1 -65539</internalNodes>
      <leafValues>
        5.7482898235321045e-02 -2.4842303991317749e-01</leafValues></_>
    <_>
      <internalNodes>
        0 -1 5629 721169924 783056876 -2 754483120 2147243348 2147254143
        2138861152 3153264</internalNodes>
      <leafValues>
        -4.4033256173133850e-01 3.1594187021255493e-02</leafValues></_>
    <_>
      <internalNodes>
        0 -1 5964 1861103136 2649774 -1392841696 2139810 1155483200
        1145326660 1156862976 29760</internalNodes>
      <leafValues>
        -1.6889191865921021e+00 1.1454990133643150e-02</leafValues></_>
    <_>
      <internalNodes>
        0 -1 671 -18 -1 -2 -1 2147450740 2147483647 -140 2004352887</internalNodes>
      <leafValues>
        -1.3036492466926575e-01 8.9226186275482178e-02</leafValues></_>
    <_>
      <internalNodes>
        0 -1 6701 -1 -268435457 -1 -16777217 -1 -1 -1 2147483647</internalNodes>
      <leafValues>
        5.8974716812372208e-02 -1.9781349599361420e-01</leafValues></_>
    <_>
      <internalNodes>
        0 -1 5320 -65537 -1 -1 -1 -1 -1 -1 -196612</internalNodes>
      <leafValues>
        -8.8639512658119202e-02 1.3337428867816925e-01</leafValues></_>
    <_>
      <internalNodes>
        0 -1 81 -1 -1 -1 -1 -1 -1 -1 -3</internalNodes>
      <leafValues>
        3.8501519709825516e-02 -3.6074197292327881e-01</leafValues></_>
    <_>
      <internalNodes>
        0 -1 3818 -1342378244 16318460 -65538 682164088 2147274708
        1425866748 2096424212 2097152</internalNodes>
      <leafValues>
        -5.5766212940216064e-01 2.2448053583502769e-02</leafValues></_>
    <_>
      <internalNodes>
        0 -1 4344 -1 -1 -1 -1 -1 -1 -1 -65539</internalNodes>
      <leafValues>
        6.9550022482872009e-02 -1.9456607103347778e-01</leafValues></_>
    <_>
      <internalNodes>
        0 -1 5446 -1 -1 -1 -268435457 -1 -1 -1 1828585471</internalNodes>
      <leafValues>
        -6.8216644227504730e-02 1.6542448103427887e-01</leafValues></_>
    <_>
      <internalNodes>
        0 -1 183 -1 -268435457 -2 -16842753 -129 -1 -9 -1</internalNodes>
      <leafValues>
        -6.1949372291564941e-02 1.8990837037563324e-01</leafValues></_>
    <_>
      <internalNodes>
        0 -1 7699 682364156 1056751612 -1073741825 783859452 1072988156
        -1073807363 1072987900 2100272</internalNodes>
      <leafValues>
        -6.3589197397232056e-01 2.0786274224519730e-02</leafValues></_>
    <_>
      <internalNodes>
        0 -1 7428 69207040 236731936 -4321292 70528052 754715716
        1064861688 246697084 0</internalNodes>
      <leafValues>
        -1.5484695434570312e+00 1.2493519112467766e-02</leafValues></_>
    <_>
      <internalNodes>
        0 -1 6311 -1 -268435457 -1 -16777217 -1 -1 -1 2130706429</internalNodes>
      <leafValues>
        6.8903267383575439e-02 -1.7042589187622070e-01</leafValues></_>
    <_>
      <internalNodes>
        0 -1 3104 -1426166270 581496806 -1090606560 10550944 1736398656
        6584164 377435200 4224372</internalNodes>
      <leafValues>
        -9.6148008108139038e-01 1.6819445416331291e-02</leafValues></_>
    <_>
      <internalNodes>
        0 -1 6994 77856768 145501776 2126409440 11840 1985244420
        74776436 74716240 16</internalNodes>
      <leafValues>
        -9.6075743436813354e-01 1.4473632909357548e-02</leafValues></_>
    <_>
      <internalNodes>
        0 -1 8185 -1 -1 -1 -1 -1 -1 -9 -1</internalNodes>
      <leafValues>
        -2.1404208615422249e-02 5.2289158105850220e-01</leafValues></_>
    <_>
      <internalNodes>
        0 -1 4282 552076800 574406524 511622768 103825252 208929792
        107380596 1460950288 2105120</internalNodes>
      <leafValues>
        -6.4953356981277466e-01 1.8257386982440948e-02</leafValues></_>
    <_>
      <internalNodes>
        0 -1 21 713035264 94383872 2129452848 234929664 351800576
        1065889616 741870848 0</internalNodes>
      <leafValues>
        -1.8540741205215454e+00 1.1323502287268639e-02</leafValues></_>
    <_>
      <internalNodes>
        0 -1 1961 250227744 753696636 1056931552 182484988 1869887300
        2012512116 385107220 2104336</internalNodes>
      <leafValues>
        -4.7560277581214905e-01 2.4003081023693085e-02</leafValues></_>
    <_>
      <internalNodes>
        0 -1 5278 -2 -1 -1 -1 -1 -1 -1 -50331649</internalNodes>
      <leafValues>
        -4.1591037064790726e-02 2.4206084012985229e-01</leafValues></_>
    <_>
      <internalNodes>
        0 -1 6283 3408896 620506228 1073512444 137899928 131349616
        1073643516 112463352 3088</internalNodes>
      <leafValues>
        -1.3236336708068848e+00 9.4141364097595215e-03</leafValues></_>
    <_>
      <internalNodes>
        0 -1 5727 -1 -1 -1 -1 -1 -1 -1 1073676285</internalNodes>
      <leafValues>
        8.4805585443973541e-02 -1.1779577285051346e-01</leafValues></_>
    <_>
      <internalNodes>
        0 -1 6367 -2 -1073807361 -1 -65537 -1 -1 -1 2147483647</internalNodes>
      <leafValues>
        -5.3582802414894104e-02 2.0511233806610107e-01</leafValues></_>
    <_>
      <internalNodes>
        0 -1 6411 -1 -268435457 -1 -16777217 -1 -1 -1 2147483647</internalNodes>
      <leafValues>
        5.6657720357179642e-02 -2.0357035100460052e-01</leafValues></_>
    <_>
      <internalNodes>
        0 -1 663 -1 -1 -1 -1 -1 2147483647 -1 2147483647</internalNodes>
      <leafValues>
        -6.6622845828533173e-02 1.7828837037086487e-01</leafValues></_>
    <_>
      <internalNodes>
        0 -1 4171 134218768 788283252 -1140955148 243019036 1009784148
        1064336764 204997636 1040</internalNodes>
      <leafValues>
        -1.3458602428436279e+00 9.2582646757364273e-03</leafValues></_>
    <_>
      <internalNodes>
        0 -1 7621 69731328 2375220 2138996720 203697696 888947824
        788070268 75240500 1296</internalNodes>
      <leafValues>
        -6.6301923990249634e-01 1.7591450363397598e-02</leafValues></_>
    <_>
      <internalNodes>
        0 -1 300 -1 -1 -1 -1 -1 -1 -1 -524297</internalNodes>
      <leafValues>
        -3.2597132027149200e-02 3.0366504192352295e-01</leafValues></_>
    <_>
      <internalNodes>
        0 -1 671 -1 -1 -1 -1 -129 -1 -9 2147483647</internalNodes>
      <leafValues>
        5.4256778210401535e-02 -1.8755453824996948e-01</leafValues></_>
    <_>
      <internalNodes>
        0 -1 640 -1342177282 -268435457 -2 -285278210 -129 -1 -139
        2129985396</internalNodes>
      <leafValues>
        -1.2200511246919632e-01 8.8047377765178680e-02</leafValues></_>
    <_>
      <internalNodes>
        0 -1 5079 -1360097792 539275014 -287643104 547417728 1157583876
        5259092 1953788992 4214848</internalNodes>
      <leafValues>
        -1.0043538808822632e+00 1.2650367803871632e-02</leafValues></_>
    <_>
      <internalNodes>
        0 -1 3208 205785088 784088942 -1496387916 39858164 208933888
        377257844 1148458752 9236</internalNodes>
      <leafValues>
        -6.8166726827621460e-01 1.7775889486074448e-02</leafValues></_>
    <_>
      <internalNodes>
        0 -1 7075 0 2108544 805059588 11360 70255728 117194596 82051120
        4112</internalNodes>
      <leafValues>
        -1.4916881322860718e+00 1.1098368093371391e-02</leafValues></_>
    <_>
      <internalNodes>
        0 -1 3149 203426816 644120372 2130636340 171077492 91489280
        234192764 343147840 4112</internalNodes>
      <leafValues>
        -8.9751690626144409e-01 1.5221822075545788e-02</leafValues></_>
    <_>
      <internalNodes>
        0 -1 5245 783826420 -1073807364 -1 -1073938436 -98443 -1 -98444
        208936308</internalNodes>
      <leafValues>
        -2.5878888368606567e-01 3.9320405572652817e-02</leafValues></_>
    <_>
      <internalNodes>
        0 -1 10 -1 -1 -1 -1 -1 -1 -1 -65539</internalNodes>
      <leafValues>
        4.1468277573585510e-02 -2.3500783741474152e-01</leafValues></_>
    <_>
      <internalNodes>
        0 -1 7440 778972672 573341674 -1359040992 14741058 1149191168
        1076131684 1425294336 4470020</internalNodes>
      <leafValues>
        -7.6096552610397339e-01 1.4730039983987808e-02</leafValues></_>
    <_>
      <internalNodes>
        0 -1 5219 69206528 208437242 -1359708300 179322616 745831440
        1870430076 1291081588 29780</internalNodes>
      <leafValues>
        -5.2214187383651733e-01 1.9610412418842316e-02</leafValues></_>
    <_>
      <internalNodes>
        0 -1 4287 788426340 788463615 -2 788463614 2147450740 2147483647
        2147450740 74743668</internalNodes>
      <leafValues>
        2.3382703959941864e-01 -3.9079062640666962e-02</leafValues></_>
    <_>
      <internalNodes>
        0 -1 5614 649593856 238845924 -16843216 149978996 267671060
        251035510 1182028800 9216</internalNodes>
      <leafValues>
        -6.0514813661575317e-01 1.6998536884784698e-02</leafValues></_>
    <_>
      <internalNodes>
        0 -1 3839 -1 -1 -1 -1 -1 -1 -1 2147418109</internalNodes>
      <leafValues>
        6.8700820207595825e-02 -1.3939206302165985e-01</leafValues></_>
    <_>
      <internalNodes>
        0 -1 855 -2 -268435457 -2 -1 -1 -1 -9 -134217737</internalNodes>
      <leafValues>
        -6.0146391391754150e-02 1.6520977020263672e-01</leafValues></_>
    <_>
      <internalNodes>
        0 -1 196 758385664 -1078317280 -114832 -668971488 2142240768
        -1082228876 203948032 0</internalNodes>
      <leafValues>
        -1.1231926679611206e+00 1.2014205567538738e-02</leafValues></_>
    <_>
      <internalNodes>
        0 -1 392 -1 -1 -1 -1 -1 -1 -9 -1</internalNodes>
      <leafValues>
        3.6446105688810349e-02 -2.7216348052024841e-01</leafValues></_>
    <_>
      <internalNodes>
        0 -1 5363 -2 -1 -1 -1 -1 -1 -1 -16973836</internalNodes>
      <leafValues>
        -9.8078571259975433e-02 1.0424736142158508e-01</leafValues></_>
    <_>
      <internalNodes>
        0 -1 8043 -1 -1 -1 -1 -1 -1 -1 -65539</internalNodes>
      <leafValues>
        4.0448587387800217e-02 -2.2985711693763733e-01</leafValues></_>
    <_>
      <internalNodes>
        0 -1 8457 774645280 212533180 -1082196192 16268964 796884788
        116785014 2104762176 4467776</internalNodes>
      <leafValues>
        -4.6115645766258240e-01 2.3949330672621727e-02</leafValues></_>
    <_>
      <internalNodes>
        0 -1 7771 134220800 170929968 1073643518 740310820 787756916
        1056865788 712253180 1040</internalNodes>
      <leafValues>
        -1.0783221721649170e+00 1.1703073047101498e-02</leafValues></_>
    <_>
      <internalNodes>
        0 -1 689 -4242 1862270975 -2 -16842754 2147450741 2147483647
        2147450740 2004352887</internalNodes>
      <leafValues>
        -1.4275206625461578e-01 6.4703077077865601e-02</leafValues></_>
    <_>
      <internalNodes>
        0 -1 1324 1862168356 788529151 -2 1862205438 2147448660
        2147483519 2013230964 74743668</internalNodes>
      <leafValues>
        2.6489728689193726e-01 -3.7266697734594345e-02</leafValues></_>
    <_>
      <internalNodes>
        0 -1 2275 787229696 707587872 -352655584 547552928 1184110148
        105185028 108294144 4199424</internalNodes>
      <leafValues>
        -7.9104846715927124e-01 1.4225636608898640e-02</leafValues></_>
    <_>
      <internalNodes>
        0 -1 1660 1392276752 643836980 -100697796 576878384 1433672708
        272642880 1911816256 0</internalNodes>
      <leafValues>
        -1.1004846096038818e+00 1.2320721521973610e-02</leafValues></_>
    <_>
      <internalNodes>
        0 -1 2325 -98512 -65538 -2 -16842762 2147450740 2147483647
        -32908 74481524</internalNodes>
      <leafValues>
        2.3671057820320129e-01 -3.9318267256021500e-02</leafValues></_>
    <_>
      <internalNodes>
        0 -1 4456 -2 -1 -1 -16777217 -1 -1 -9 -50462729</internalNodes>
      <leafValues>
        -6.8736925721168518e-02 1.5333034098148346e-01</leafValues></_>
    <_>
      <internalNodes>
        0 -1 6392 606604800 787120104 -83972240 782790328 133512528
        117374840 880759892 2098256</internalNodes>
      <leafValues>
        -5.1471185684204102e-01 1.9734282046556473e-02</leafValues></_>
    <_>
      <internalNodes>
        0 -1 2886 572523552 1042349488 1865465652 225504784 611325696
        620003260 376444160 1024</internalNodes>
      <leafValues>
        -8.5520231723785400e-01 1.4789990149438381e-02</leafValues></_>
    <_>
      <internalNodes>
        0 -1 6975 -1 -268435457 -1 -16777217 -1 -1 -1 2130640893</internalNodes>
      <leafValues>
        6.7261196672916412e-02 -1.3793882727622986e-01</leafValues></_>
    <_>
      <internalNodes>
        0 -1 5243 -268439570 587137022 -26 587137022 2147450743
        1207959551 -140 1157103606</internalNodes>
      <leafValues>
        -2.2785128653049469e-01 4.3609265238046646e-02</leafValues></_>
    <_>
      <internalNodes>
        0 -1 8148 749088256 585297894 -1359024608 551595616 1342136132
        1182695423 1190937856 292420</internalNodes>
      <leafValues>
        -5.3152686357498169e-01 1.9722634926438332e-02</leafValues></_>
    <_>
      <internalNodes>
        0 -1 3644 749611552 36241376 -285331968 572587616 1431721732
        39083876 1689678848 5272660</internalNodes>
      <leafValues>
        -7.8593266010284424e-01 1.4281755313277245e-02</leafValues></_>
    <_>
      <internalNodes>
        0 -1 2807 212774432 741015210 788463136 167837408 1730506500
        74907508 1198871824 4215872</internalNodes>
      <leafValues>
        -5.2927488088607788e-01 1.9454915076494217e-02</leafValues></_>
    <_>
      <internalNodes>
        0 -1 8020 203424768 82591340 788332144 539233328 746079744
        611614564 341606144 5120</internalNodes>
      <leafValues>
        -6.0793811082839966e-01 1.7506403848528862e-02</leafValues></_>
    <_>
      <internalNodes>
        0 -1 7806 -1073741954 -1359020033 -1 -1359020034 -129 -1 -11
        1291124724</internalNodes>
      <leafValues>
        -1.2733213603496552e-01 7.3042586445808411e-02</leafValues></_>
    <_>
      <internalNodes>
        0 -1 2829 -18 -285278210 -2 -285278210 -140 2147483647 -140
        1148518260</internalNodes>
      <leafValues>
        1.9833278656005859e-01 -4.9373969435691833e-02</leafValues></_>
    <_>
      <internalNodes>
        0 -1 480 -1 -1 -1 -1 -32769 -1 -32899 2147450743</internalNodes>
      <leafValues>
        -7.4901014566421509e-02 1.4777699112892151e-01</leafValues></_>
    <_>
      <internalNodes>
        0 -1 2989 -32771 -1 -1 -1 -1 -1 -1 2147385341</internalNodes>
      <leafValues>
        8.6301259696483612e-02 -1.3569484651088715e-01</leafValues></_>
    <_>
      <internalNodes>
        0 -1 8463 -1 -1 -1 -1 -1 -1 -1 2147483647</internalNodes>
      <leafValues>
        3.3508811146020889e-02 -3.1657138466835022e-01</leafValues></_>
    <_>
      <internalNodes>
        0 -1 8078 783821856 1073496060 -1073807364 754466812 -1342390276
        1073512447 -1359200260 3120</internalNodes>
      <leafValues>
        -5.3051465749740601e-01 1.9287772476673126e-02</leafValues></_>
    <_>
      <internalNodes>
        0 -1 57 -2 -1 -2 -1 -1 -1 -1 -134217729</internalNodes>
      <leafValues>
        -5.2968785166740417e-02 1.8501505255699158e-01</leafValues></_>
    <_>
      <internalNodes>
        0 -1 8463 37225984 103579304 805207904 7139316 788363076
        251428724 1827960080 71312736</internalNodes>
      <leafValues>
        -5.3841781616210938e-01 1.8229931592941284e-02</leafValues></_>
    <_>
      <internalNodes>
        0 -1 236 -1073840132 -65537 -1 -65537 -1 -1 -3 1073512308</internalNodes>
      <leafValues>
        1.6869165003299713e-01 -6.1930205672979355e-02</leafValues></_>
    <_>
      <internalNodes>
        0 -1 31 -4 -2 -1 -65538 -12 -1 -12 1047822132</internalNodes>
      <leafValues>
        -1.9062447547912598e-01 6.0835234820842743e-02</leafValues></_>
    <_>
      <internalNodes>
        0 -1 7472 80481280 67268128 1258225268 547368032 1148470336
        204504400 1347683392 4194304</internalNodes>
      <leafValues>
        -8.5534566640853882e-01 1.2938878498971462e-02</leafValues></_>
    <_>
      <internalNodes>
        0 -1 5952 741870592 786722300 -1359020048 141065312 83774736
        1861516916 75244628 67114064</internalNodes>
      <leafValues>
        -6.8066734075546265e-01 1.5897471457719803e-02</leafValues></_>
    <_>
      <internalNodes>
        0 -1 6582 77597728 109587540 805076733 203951228 867964272
        1065123440 770200624 1024</internalNodes>
      <leafValues>
        -1.6468492746353149e+00 1.0966473259031773e-02</leafValues></_>
    <_>
      <internalNodes>
        0 -1 5212 607128608 719859516 -65548 41430776 1064594804
        1073119103 930886996 2098192</internalNodes>
      <leafValues>
        -4.3978050351142883e-01 2.3819917812943459e-02</leafValues></_>
    <_>
      <internalNodes>
        0 -1 2944 -419470816 49213166 -420549088 537062946 133641988
        1147436900 1693795328 1078261572</internalNodes>
      <leafValues>
        -8.7421184778213501e-01 1.3772211037576199e-02</leafValues></_>
    <_>
      <internalNodes>
        0 -1 8282 1024 169880576 267141116 674237552 615777280 754220656
        214434848 0</internalNodes>
      <leafValues>
        -1.7665201425552368e+00 1.0116905905306339e-02</leafValues></_>
    <_>
      <internalNodes>
        0 -1 6691 1056 237506004 -1107492932 640687860 767298684
        536641022 989332900 1024</internalNodes>
      <leafValues>
        -1.3776429891586304e+00 1.2555086985230446e-02</leafValues></_>
    <_>
      <internalNodes>
        0 -1 5144 788414268 788463614 -2 788463614 2147450741 2147483647
        2147450740 74481012</internalNodes>
      <leafValues>
        2.5737011432647705e-01 -3.8132913410663605e-02</leafValues></_>
    <_>
      <internalNodes>
        0 -1 729 -285216978 -1359020033 -2 -1359020034 2147450740
        2147483647 -32908 1685356404</internalNodes>
      <leafValues>
        -2.1297070384025574e-01 4.5546583831310272e-02</leafValues></_>
    <_>
      <internalNodes>
        0 -1 6384 2368000 2133536 788446824 73672252 771513620 779648884
        100402720 1040</internalNodes>
      <leafValues>
        -6.8350517749786377e-01 1.6314830631017685e-02</leafValues></_></weakClassifiers></stage6>
</opencv_storage>
