<?xml version="1.0"?>
<opencv_storage>
<stage5>
  <maxWeakCount>87</maxWeakCount>
  <stageThreshold>-8.6283075809478760e-01</stageThreshold>
  <weakClassifiers>
    <_>
      <internalNodes>
        0 -1 62 -1 -1 -1 -1 -1 -1 -1 1979187199</internalNodes>
      <leafValues>
        3.0495284125208855e-02 8.5037004947662354e-01</leafValues></_>
    <_>
      <internalNodes>
        0 -1 2058 -1 -1 -1 -1 -1 -1 -1 -50987017</internalNodes>
      <leafValues>
        -1.3905747234821320e-01 4.6575921773910522e-01</leafValues></_>
    <_>
      <internalNodes>
        0 -1 5846 -1 -1 -1 -1 -1 -1 -1 -196612</internalNodes>
      <leafValues>
        -1.7215448617935181e-01 2.2679781913757324e-01</leafValues></_>
    <_>
      <internalNodes>
        0 -1 639 -1 -1 -1 -1 -1 2147483647 -1 2147483647</internalNodes>
      <leafValues>
        -1.4761699736118317e-01 2.3308904469013214e-01</leafValues></_>
    <_>
      <internalNodes>
        0 -1 113 -17 -1 -2 -1 -1 -1 -9 -134217729</internalNodes>
      <leafValues>
        -1.0662479698657990e-01 2.5240945816040039e-01</leafValues></_>
    <_>
      <internalNodes>
        0 -1 939 -1 -1 -1 -1 -1 -1 -1 2147483647</internalNodes>
      <leafValues>
        3.2524045556783676e-02 -5.0736361742019653e-01</leafValues></_>
    <_>
      <internalNodes>
        0 -1 62 -1 -1 -1 -1 -1 -1 -1 2013265919</internalNodes>
      <leafValues>
        9.2288993299007416e-02 -2.2131764888763428e-01</leafValues></_>
    <_>
      <internalNodes>
        0 -1 575 -2 -1 -1 -1 -32769 -1 -4 2147483647</internalNodes>
      <leafValues>
        -6.7604973912239075e-02 2.6839834451675415e-01</leafValues></_>
    <_>
      <internalNodes>
        0 -1 8459 -1 -268435457 -1 -285278209 -129 -1 -139 1962737652</internalNodes>
      <leafValues>
        -1.3058505952358246e-01 1.3108493387699127e-01</leafValues></_>
    <_>
      <internalNodes>
        0 -1 4421 -1 -1 -1 -1 -1 -1 -1 -50462729</internalNodes>
      <leafValues>
        -6.0564465820789337e-02 2.9672369360923767e-01</leafValues></_>
    <_>
      <internalNodes>
        0 -1 671 -1 -1 -1 -1 -129 -1 -9 2147483647</internalNodes>
      <leafValues>
        7.0337399840354919e-02 -2.2833570837974548e-01</leafValues></_>
    <_>
      <internalNodes>
        0 -1 5149 -2 1073676287 -1 -65537 -32769 -1 -1 1073709054</internalNodes>
      <leafValues>
        -9.1510921716690063e-02 1.9215980172157288e-01</leafValues></_>
    <_>
      <internalNodes>
        0 -1 6979 -1 -1 -1 -1 -1 -1 -1 2147483647</internalNodes>
      <leafValues>
        4.3341469019651413e-02 -3.5517179965972900e-01</leafValues></_>
    <_>
      <internalNodes>
        0 -1 664 -2 -268435457 -1 -285278209 -129 -1 -139 2146762612</internalNodes>
      <leafValues>
        -1.2591615319252014e-01 1.2315606325864792e-01</leafValues></_>
    <_>
      <internalNodes>
        0 -1 735 -1 -1 -1 -1 -1 2147483647 -1 -134217729</internalNodes>
      <leafValues>
        -6.3197664916515350e-02 2.4508862197399139e-01</leafValues></_>
    <_>
      <internalNodes>
        0 -1 6779 -1 -268435457 -1 -16777217 -1 -1 -1 2147483647</internalNodes>
      <leafValues>
        6.5094240009784698e-02 -2.2650444507598877e-01</leafValues></_>
    <_>
      <internalNodes>
        0 -1 8186 -1073741825 -1342177281 -1 -285278209 -129 -1 -139
        2130509812</internalNodes>
      <leafValues>
        -1.2112835794687271e-01 1.1909005790948868e-01</leafValues></_>
    <_>
      <internalNodes>
        0 -1 6278 -2 -1 -1 -1 -1 -1 -1 2097020927</internalNodes>
      <leafValues>
        -6.2728203833103180e-02 2.2566619515419006e-01</leafValues></_>
    <_>
      <internalNodes>
        0 -1 1496 -1 -1 -1 -1 -1 -1 -1 2147418109</internalNodes>
      <leafValues>
        7.0625945925712585e-02 -1.9693860411643982e-01</leafValues></_>
    <_>
      <internalNodes>
        0 -1 720 -1 -268435457 -1 -285278209 -32905 -1 -139 2129985396</internalNodes>
      <leafValues>
        -1.3322357833385468e-01 1.0519684851169586e-01</leafValues></_>
    <_>
      <internalNodes>
        0 -1 8186 -1 -1 -1 -1 -1 -1 -1 2147483647</internalNodes>
      <leafValues>
        3.8843296468257904e-02 -3.4776759147644043e-01</leafValues></_>
    <_>
      <internalNodes>
        0 -1 4854 -2 -1 -1 -1 -1 -1 -3 -50331649</internalNodes>
      <leafValues>
        -5.2970025688409805e-02 2.6316103339195251e-01</leafValues></_>
    <_>
      <internalNodes>
        0 -1 7112 747113520 775433464 -25362435 783843060 788278772
        -1073938434 799829756 201327616</internalNodes>
      <leafValues>
        -1.1308788061141968e+00 1.2244163081049919e-02</leafValues></_>
    <_>
      <internalNodes>
        0 -1 8308 774900752 1056448308 -1073807364 782769716 519847796
        935231484 1056718668 2048</internalNodes>
      <leafValues>
        -1.0159794092178345e+00 1.7215363681316376e-02</leafValues></_>
    <_>
      <internalNodes>
        0 -1 6094 -1 -1 -1 -1 -1 -1 -1 -65537</internalNodes>
      <leafValues>
        4.2788181453943253e-02 -3.1963068246841431e-01</leafValues></_>
    <_>
      <internalNodes>
        0 -1 1082 -1 -1 -1 -1 -1 -1 -1 -524289</internalNodes>
      <leafValues>
        -2.3504279553890228e-02 5.7834857702255249e-01</leafValues></_>
    <_>
      <internalNodes>
        0 -1 4724 2147450878 -1 -1 -16842753 -32907 -1 -140 2121596788</internalNodes>
      <leafValues>
        -1.5224105119705200e-01 8.7346985936164856e-02</leafValues></_>
    <_>
      <internalNodes>
        0 -1 3766 33555968 740572966 241970960 141049440 343147520
        125075316 74716496 13312</internalNodes>
      <leafValues>
        -9.5648407936096191e-01 1.5587605535984039e-02</leafValues></_>
    <_>
      <internalNodes>
        0 -1 4615 -1 -1 -1 -1 -1 -1 -1 2147483645</internalNodes>
      <leafValues>
        5.0305217504501343e-02 -2.5520265102386475e-01</leafValues></_>
    <_>
      <internalNodes>
        0 -1 6400 -2 -1073807361 -1 -65537 -1 -1 -1 1073741823</internalNodes>
      <leafValues>
        -6.1883840709924698e-02 2.0531113445758820e-01</leafValues></_>
    <_>
      <internalNodes>
        0 -1 4168 648555520 212627252 -16875660 779812732 745959184
        1870430077 1551131908 6312976</internalNodes>
      <leafValues>
        -5.3387379646301270e-01 2.3081136867403984e-02</leafValues></_>
    <_>
      <internalNodes>
        0 -1 4129 -285217280 10923948 -16847328 14724644 385832196
        71595844 1962169344 4216128</internalNodes>
      <leafValues>
        -9.9646532535552979e-01 1.6299268230795860e-02</leafValues></_>
    <_>
      <internalNodes>
        0 -1 48 -268439776 787415039 -16777490 -285278210 2147450743
        2013265919 -140 1693843445</internalNodes>
      <leafValues>
        -2.4493502080440521e-01 5.0949297845363617e-02</leafValues></_>
    <_>
      <internalNodes>
        0 -1 8367 11283488 69795576 1056849520 15482604 519446356
        117243765 100431636 4477952</internalNodes>
      <leafValues>
        -5.3605234622955322e-01 2.3491928353905678e-02</leafValues></_>
    <_>
      <internalNodes>
        0 -1 5424 774902896 637025788 -245772 1072177140 506740052
        804730876 503061876 3120</internalNodes>
      <leafValues>
        -1.2606152296066284e+00 1.4818603172898293e-02</leafValues></_>
    <_>
      <internalNodes>
        0 -1 1395 1043598608 -1342259216 -589828 -50577548 2147229012
        -98308 -302244608 0</internalNodes>
      <leafValues>
        -7.0175230503082275e-01 1.9662806764245033e-02</leafValues></_>
    <_>
      <internalNodes>
        0 -1 6012 203426848 707559352 788492196 782270184 620000512
        494829429 2104766212 2101248</internalNodes>
      <leafValues>
        -6.3663446903228760e-01 1.9534653052687645e-02</leafValues></_>
    <_>
      <internalNodes>
        0 -1 7687 744499712 538980138 -360821216 10530528 1551696896
        4488564 1148458048 4195328</internalNodes>
      <leafValues>
        -9.2514628171920776e-01 1.6415666788816452e-02</leafValues></_>
    <_>
      <internalNodes>
        0 -1 4764 788410212 788463614 -2 788463614 2147450740 2147483647
        2147450740 74743668</internalNodes>
      <leafValues>
        2.6873981952667236e-01 -4.2093273252248764e-02</leafValues></_>
    <_>
      <internalNodes>
        0 -1 782 1945400864 1852865964 -201949392 -1569655904 1970292592
        1163229052 1995461968 0</internalNodes>
      <leafValues>
        -9.5688039064407349e-01 1.4735354110598564e-02</leafValues></_>
    <_>
      <internalNodes>
        0 -1 6036 644361216 745307876 -1344372744 711749372 1039949076
        1845329783 922514724 1140</internalNodes>
      <leafValues>
        -4.8187834024429321e-01 2.5979280471801758e-02</leafValues></_>
    <_>
      <internalNodes>
        0 -1 8452 -1073774722 -1358954497 -2 -285278210 -32899 -1 -140
        1156906996</internalNodes>
      <leafValues>
        -1.5231285989284515e-01 7.3506921529769897e-02</leafValues></_>
    <_>
      <internalNodes>
        0 -1 10 -1 -1 -1 -1 -1 -1 -1 -65539</internalNodes>
      <leafValues>
        4.4057831168174744e-02 -2.5667810440063477e-01</leafValues></_>
    <_>
      <internalNodes>
        0 -1 8337 778571296 787365882 -268517408 115617312 2147229012
        83165054 779910932 7341056</internalNodes>
      <leafValues>
        -4.4417887926101685e-01 2.8083903715014458e-02</leafValues></_>
    <_>
      <internalNodes>
        0 -1 8343 203426816 12070596 780021444 538979988 27002900
        267681404 787744532 1049632</internalNodes>
      <leafValues>
        -7.5304222106933594e-01 1.7780028283596039e-02</leafValues></_>
    <_>
      <internalNodes>
        0 -1 728 779882016 787808102 1056861796 241500156 1341931332
        2013233141 1970558800 4216384</internalNodes>
      <leafValues>
        -4.6252921223640442e-01 2.6280518621206284e-02</leafValues></_>
    <_>
      <internalNodes>
        0 -1 5246 77597696 496270832 -245764 745827540 477105492
        -1107526156 242236464 2098192</internalNodes>
      <leafValues>
        -1.4063810110092163e+00 1.3057705014944077e-02</leafValues></_>
    <_>
      <internalNodes>
        0 -1 5554 238027776 782274496 -197024 12598688 1550846992
        628916052 1441023232 5120</internalNodes>
      <leafValues>
        -8.9869374036788940e-01 1.7641717568039894e-02</leafValues></_>
    <_>
      <internalNodes>
        0 -1 3570 -1 -1 -1 -1 -1 -1 -1 2147385341</internalNodes>
      <leafValues>
        6.6375456750392914e-02 -1.6673904657363892e-01</leafValues></_>
    <_>
      <internalNodes>
        0 -1 363 -1 -1 -1 -1 -1 -1 -1 2147450879</internalNodes>
      <leafValues>
        -5.7631164789199829e-02 2.2683903574943542e-01</leafValues></_>
    <_>
      <internalNodes>
        0 -1 8375 136315904 715660720 754909108 136326816 204741636
        771501941 217579536 0</internalNodes>
      <leafValues>
        -2.0007429122924805e+00 9.3685248866677284e-03</leafValues></_>
    <_>
      <internalNodes>
        0 -1 6521 -2 -1 -2 -16777217 -129 -1 -9 -134217729</internalNodes>
      <leafValues>
        -6.6619634628295898e-02 1.6295273602008820e-01</leafValues></_>
    <_>
      <internalNodes>
        0 -1 7622 2100224 10493792 1073627092 2106992 779881808
        166485884 615781460 1120</internalNodes>
      <leafValues>
        -9.5911210775375366e-01 1.6178911551833153e-02</leafValues></_>
    <_>
      <internalNodes>
        0 -1 8376 -1 -1 -1 -1 -1 -1 -1 -65539</internalNodes>
      <leafValues>
        5.8797031641006470e-02 -1.8905687332153320e-01</leafValues></_>
    <_>
      <internalNodes>
        0 -1 1380 -1 -1 -1 -1 -1 -1 -1 2147483647</internalNodes>
      <leafValues>
        3.0118808150291443e-02 -3.7687849998474121e-01</leafValues></_>
    <_>
      <internalNodes>
        0 -1 4489 -1 -1 -1 -1 -1 -1 -1 -16908297</internalNodes>
      <leafValues>
        -4.3537858873605728e-02 2.6317733526229858e-01</leafValues></_>
    <_>
      <internalNodes>
        0 -1 576 -1494292990 653197102 -285278688 682032738 1744797188
        1148682100 1895125252 4485972</internalNodes>
      <leafValues>
        -8.1663995981216431e-01 1.4775573275983334e-02</leafValues></_>
    <_>
      <internalNodes>
        0 -1 5795 -1 -1 -1 -1 -1 -1 -1 2147287036</internalNodes>
      <leafValues>
        1.1921211332082748e-01 -9.5880486071109772e-02</leafValues></_>
    <_>
      <internalNodes>
        0 -1 2351 1827991204 2129444 -1527448262 545319472 1424250688
        6579312 812930112 80</internalNodes>
      <leafValues>
        -1.0825551748275757e+00 1.7455114051699638e-02</leafValues></_>
    <_>
      <internalNodes>
        0 -1 8036 788270708 -1073807364 -1 -1073938436 -229388 -1
        -229380 208669812</internalNodes>
      <leafValues>
        -2.9613429307937622e-01 3.8941323757171631e-02</leafValues></_>
    <_>
      <internalNodes>
        0 -1 7514 -2 -1 -1 -1 -1 -1 -1 2147483647</internalNodes>
      <leafValues>
        -3.4976612776517868e-02 3.2337561249732971e-01</leafValues></_>
    <_>
      <internalNodes>
        0 -1 6877 782239256 250089276 -82436 137908024 1069054972
        -1073938436 875314936 3072</internalNodes>
      <leafValues>
        -1.2193024158477783e+00 1.3223906978964806e-02</leafValues></_>
    <_>
      <internalNodes>
        0 -1 8262 250087968 713961256 -285298844 149466988 1862168404
        115736447 108279120 4457540</internalNodes>
      <leafValues>
        -4.8666062951087952e-01 2.4218974635004997e-02</leafValues></_>
    <_>
      <internalNodes>
        0 -1 1035 -1402032640 34401954 -285807072 2158176 1475821124
        74743638 1157043200 4203520</internalNodes>
      <leafValues>
        -8.9851963520050049e-01 1.6439102590084076e-02</leafValues></_>
    <_>
      <internalNodes>
        0 -1 8140 -1 -268435457 -1 -16777217 -1 -1 -1 2147483647</internalNodes>
      <leafValues>
        5.1431190222501755e-02 -2.1474000811576843e-01</leafValues></_>
    <_>
      <internalNodes>
        0 -1 2220 -1 -1 -1 -1 -1 -1 -1 -134217729</internalNodes>
      <leafValues>
        -3.7673637270927429e-02 2.9191806912422180e-01</leafValues></_>
    <_>
      <internalNodes>
        0 -1 1399 -1 -1 -1 -1 -1 -1 -1 -3</internalNodes>
      <leafValues>
        3.6972783505916595e-02 -2.9362776875495911e-01</leafValues></_>
    <_>
      <internalNodes>
        0 -1 8240 788278272 788328364 -285315356 618983164 133981760
        268435284 83121984 13312</internalNodes>
      <leafValues>
        -4.7657358646392822e-01 2.6756701990962029e-02</leafValues></_>
    <_>
      <internalNodes>
        0 -1 5015 -1 -1 -1 -1 -1 -1 -1 -16777217</internalNodes>
      <leafValues>
        -2.6450634002685547e-02 4.4329732656478882e-01</leafValues></_>
    <_>
      <internalNodes>
        0 -1 6328 -1 -268435457 -1 -16777217 -1 -1 -1 2147483647</internalNodes>
      <leafValues>
        5.9695925563573837e-02 -1.9430121779441833e-01</leafValues></_>
    <_>
      <internalNodes>
        0 -1 7599 170658816 2401792 -285284704 2106368 192708388
        15106036 16012288 263168</internalNodes>
      <leafValues>
        -8.5621720552444458e-01 1.8720328807830811e-02</leafValues></_>
    <_>
      <internalNodes>
        0 -1 917 551814400 783384368 -302022812 930116656 233047376
        2138054516 1433665536 0</internalNodes>
      <leafValues>
        -1.2374843358993530e+00 1.3758510351181030e-02</leafValues></_>
    <_>
      <internalNodes>
        0 -1 7294 640157728 740568996 -285298720 552087136 1878945600
        265747796 217339476 17408</internalNodes>
      <leafValues>
        -6.3144201040267944e-01 2.0506951957941055e-02</leafValues></_>
    <_>
      <internalNodes>
        0 -1 4134 653143042 2272930 653162528 10628704 1157579780
        70680389 1962300480 4204288</internalNodes>
      <leafValues>
        -1.4917390346527100e+00 1.2334857136011124e-02</leafValues></_>
    <_>
      <internalNodes>
        0 -1 918 787392032 640348138 -285807072 -1595740510 1207269188
        1148583799 1459057664 1079276868</internalNodes>
      <leafValues>
        -6.6302865743637085e-01 1.8920062109827995e-02</leafValues></_>
    <_>
      <internalNodes>
        0 -1 841 203951648 237522468 1845373812 136871668 754333456
        125108084 108289360 1072</internalNodes>
      <leafValues>
        -5.6873130798339844e-01 2.1742800250649452e-02</leafValues></_>
    <_>
      <internalNodes>
        0 -1 7131 143131648 715918696 805109756 204746364 707009712
        1039175644 212866132 16</internalNodes>
      <leafValues>
        -1.5771111249923706e+00 1.2863039970397949e-02</leafValues></_>
    <_>
      <internalNodes>
        0 -1 6002 2097152 242236660 519979004 775437040 114568240
        783843196 70258964 1056</internalNodes>
      <leafValues>
        -1.2982861995697021e+00 1.2767966836690903e-02</leafValues></_>
    <_>
      <internalNodes>
        0 -1 3255 -2 -1 -1 -1 -1 -1 -1 -16908297</internalNodes>
      <leafValues>
        -5.3903054445981979e-02 2.0329459011554718e-01</leafValues></_>
    <_>
      <internalNodes>
        0 -1 7807 136317952 606092976 -1090752672 648027744 138175812
        645595068 214963712 2098176</internalNodes>
      <leafValues>
        -9.0589773654937744e-01 1.4485825784504414e-02</leafValues></_>
    <_>
      <internalNodes>
        0 -1 7084 137363456 179055732 2130340896 67657572 1065120852
        645693428 343170640 4160</internalNodes>
      <leafValues>
        -6.0916781425476074e-01 2.0859491080045700e-02</leafValues></_>
    <_>
      <internalNodes>
        0 -1 6176 -268500996 -1359020033 -2 -285278210 -3 -1 -12
        83132404</internalNodes>
      <leafValues>
        2.1036359667778015e-01 -5.1802720874547958e-02</leafValues></_>
    <_>
      <internalNodes>
        0 -1 5315 787254272 686583724 -320012636 15396460 1484688384
        217382140 -1004256256 17408</internalNodes>
      <leafValues>
        -9.3829470872879028e-01 1.6769113019108772e-02</leafValues></_>
    <_>
      <internalNodes>
        0 -1 7048 2622496 673222560 805224180 6827040 240401460 73170804
        343147828 1024</internalNodes>
      <leafValues>
        -8.6637192964553833e-01 1.5548846684396267e-02</leafValues></_>
    <_>
      <internalNodes>
        0 -1 430 -2 -1 -1 -1 -1 -1 -1 -1</internalNodes>
      <leafValues>
        -2.3734830319881439e-02 4.8759609460830688e-01</leafValues></_>
    <_>
      <internalNodes>
        0 -1 595 648947200 749530918 1862200832 581074528 2004833280
        104857460 636756992 1078272</internalNodes>
      <leafValues>
        -7.4520212411880493e-01 1.7681131139397621e-02</leafValues></_>
    <_>
      <internalNodes>
        0 -1 7829 73663488 619592992 1056763716 547417760 208688704
        74743156 1282696516 1024</internalNodes>
      <leafValues>
        -7.1552282571792603e-01 1.7856864258646965e-02</leafValues></_></weakClassifiers></stage5>
</opencv_storage>
