<?xml version="1.0"?>
<opencv_storage>
<stage7>
  <maxWeakCount>100</maxWeakCount>
  <stageThreshold>-9.3749994039535522e-01</stageThreshold>
  <weakClassifiers>
    <_>
      <internalNodes>
        0 -1 63 -1 -1 -1 -1 -1 -1 -1 2013265919</internalNodes>
      <leafValues>
        8.0857694149017334e-02 7.5657695531845093e-01</leafValues></_>
    <_>
      <internalNodes>
        0 -1 3797 -1 -1 -1 -1 -1 -1 -1 -50987017</internalNodes>
      <leafValues>
        -1.0203306376934052e-01 4.2118936777114868e-01</leafValues></_>
    <_>
      <internalNodes>
        0 -1 823 -1 -1 -1 -1 -1 -1 -1 -524297</internalNodes>
      <leafValues>
        -7.8301295638084412e-02 3.4955459833145142e-01</leafValues></_>
    <_>
      <internalNodes>
        0 -1 394 -2 -1 -1 -1 -1 -1 -3 2146959223</internalNodes>
      <leafValues>
        -1.1199196428060532e-01 2.1610090136528015e-01</leafValues></_>
    <_>
      <internalNodes>
        0 -1 6735 -2 -1073741825 -1 -65538 -1 -1 -1 1073741823</internalNodes>
      <leafValues>
        -1.0035103559494019e-01 2.1934787929058075e-01</leafValues></_>
    <_>
      <internalNodes>
        0 -1 63 -1 -1 -1 -1 -1 -1 -1 2013265919</internalNodes>
      <leafValues>
        1.1205569654703140e-01 -1.6887106001377106e-01</leafValues></_>
    <_>
      <internalNodes>
        0 -1 587 -1 -1 -1 -1 2147483647 2147483647 -1 2147483647</internalNodes>
      <leafValues>
        -8.9525282382965088e-02 2.0890484750270844e-01</leafValues></_>
    <_>
      <internalNodes>
        0 -1 507 -2 -1 -1 -1 -1 -1 -3 -1</internalNodes>
      <leafValues>
        -5.2732031792402267e-02 4.0151417255401611e-01</leafValues></_>
    <_>
      <internalNodes>
        0 -1 5469 -1 -1 -1 -1 -1 -1 -1 -50462721</internalNodes>
      <leafValues>
        -5.4172433912754059e-02 2.6653909683227539e-01</leafValues></_>
    <_>
      <internalNodes>
        0 -1 394 -1 -1 -1 -1 -1 -1 -9 2147483637</internalNodes>
      <leafValues>
        7.1503691375255585e-02 -2.3978264629840851e-01</leafValues></_>
    <_>
      <internalNodes>
        0 -1 496 -1342177282 -1359020033 -2 -285278210 -129 -1 -140
        1023213556</internalNodes>
      <leafValues>
        -1.3813234865665436e-01 9.1233305633068085e-02</leafValues></_>
    <_>
      <internalNodes>
        0 -1 328 -1 -1 -1 -1 -1 -1 -1 2147483647</internalNodes>
      <leafValues>
        3.6194231361150742e-02 -3.6649498343467712e-01</leafValues></_>
    <_>
      <internalNodes>
        0 -1 721 -268439698 -285212673 -2 -285278210 2147450741
        2147483647 -32908 1718943604</internalNodes>
      <leafValues>
        -2.1847152709960938e-01 5.8854326605796814e-02</leafValues></_>
    <_>
      <internalNodes>
        0 -1 8071 -1 -1 -1 -1 -1 -1 -1 -65539</internalNodes>
      <leafValues>
        4.8756968230009079e-02 -2.4709443747997284e-01</leafValues></_>
    <_>
      <internalNodes>
        0 -1 4625 -1 -1 -1 -1 -1 -1 -1 -9</internalNodes>
      <leafValues>
        -2.5964409112930298e-02 5.6089025735855103e-01</leafValues></_>
    <_>
      <internalNodes>
        0 -1 3375 -1 -1 -1 -1 -1 -1 -1 -16777217</internalNodes>
      <leafValues>
        -2.5879371911287308e-02 5.0236612558364868e-01</leafValues></_>
    <_>
      <internalNodes>
        0 -1 2647 -32898 -268435457 -1 -16842753 -32907 -1 -32908
        2138341236</internalNodes>
      <leafValues>
        -1.3617552816867828e-01 7.4328713119029999e-02</leafValues></_>
    <_>
      <internalNodes>
        0 -1 14 -1 -1 -1 -1 -1 -1 -1 -32771</internalNodes>
      <leafValues>
        5.3658518940210342e-02 -1.9647572934627533e-01</leafValues></_>
    <_>
      <internalNodes>
        0 -1 6771 -1 -268435457 -1 -1 -1 -1 -1 2147483647</internalNodes>
      <leafValues>
        4.3000686913728714e-02 -2.5537824630737305e-01</leafValues></_>
    <_>
      <internalNodes>
        0 -1 4499 -2 -268500993 -1 -65538 -129 -1 -11 1156906996</internalNodes>
      <leafValues>
        -1.3632035255432129e-01 8.5108652710914612e-02</leafValues></_>
    <_>
      <internalNodes>
        0 -1 1898 -2 -1 -1 -1 -32907 -1 -140 2146762612</internalNodes>
      <leafValues>
        -1.0710360109806061e-01 9.2512920498847961e-02</leafValues></_>
    <_>
      <internalNodes>
        0 -1 2430 -32908 -1 -1 -1 -32907 -1 -32908 1064599412</internalNodes>
      <leafValues>
        1.8075618147850037e-01 -6.0121126472949982e-02</leafValues></_>
    <_>
      <internalNodes>
        0 -1 486 -1 -1 -1 -1 -1 2147483647 -9 -134217729</internalNodes>
      <leafValues>
        -7.3044732213020325e-02 1.4624169468879700e-01</leafValues></_>
    <_>
      <internalNodes>
        0 -1 238 -2 -268435457 -1 -65537 -1 -1 -9 -1</internalNodes>
      <leafValues>
        -4.7130059450864792e-02 2.3402281105518341e-01</leafValues></_>
    <_>
      <internalNodes>
        0 -1 6311 -1 -268435457 -1 -16777217 -1 -1 -1 2130706431</internalNodes>
      <leafValues>
        5.8415200561285019e-02 -1.7865726351737976e-01</leafValues></_>
    <_>
      <internalNodes>
        0 -1 5575 203424768 788283224 -1073858692 236994416 217843472
        528252540 202382368 1024</internalNodes>
      <leafValues>
        -9.4728857278823853e-01 1.6045892611145973e-02</leafValues></_>
    <_>
      <internalNodes>
        0 -1 8183 -268435666 -1359020033 -2 -1359020034 -137 2147483647
        -140 1156906996</internalNodes>
      <leafValues>
        -1.6934522986412048e-01 5.9597246348857880e-02</leafValues></_>
    <_>
      <internalNodes>
        0 -1 5476 -1 -1 -1 -268435457 -1 -1 -1 1828716543</internalNodes>
      <leafValues>
        -5.9934392571449280e-02 1.6661894321441650e-01</leafValues></_>
    <_>
      <internalNodes>
        0 -1 6180 -1 -1 -1 -1 -1 -1 -1 1073676285</internalNodes>
      <leafValues>
        7.5850509107112885e-02 -1.3644777238368988e-01</leafValues></_>
    <_>
      <internalNodes>
        0 -1 8446 -1073774724 -285212673 -2 -285278210 -32899 -1 -140
        1828519924</internalNodes>
      <leafValues>
        -1.2556220591068268e-01 7.9369701445102692e-02</leafValues></_>
    <_>
      <internalNodes>
        0 -1 322 -1 -1 -2 -1 -1 -1 -1 -134217729</internalNodes>
      <leafValues>
        -5.8216508477926254e-02 1.6569659113883972e-01</leafValues></_>
    <_>
      <internalNodes>
        0 -1 743 740297728 -1116725420 -1078165508 750272048 1056193620
        -98436 788008816 1024</internalNodes>
      <leafValues>
        -1.2131962776184082e+00 9.0135261416435242e-03</leafValues></_>
    <_>
      <internalNodes>
        0 -1 701 -1 -1 -1 -1 -129 -1 -9 2147483647</internalNodes>
      <leafValues>
        5.3204417228698730e-02 -1.8990026414394379e-01</leafValues></_>
    <_>
      <internalNodes>
        0 -1 3690 2147483647 -1 -1 -1 -32769 -1 -3 2147450879</internalNodes>
      <leafValues>
        -6.0157552361488342e-02 2.2066153585910797e-01</leafValues></_>
    <_>
      <internalNodes>
        0 -1 1345 -2 -268435457 -1 -285278209 -32897 -1 -139 2146762612</internalNodes>
      <leafValues>
        -1.1466783285140991e-01 9.2301838099956512e-02</leafValues></_>
    <_>
      <internalNodes>
        0 -1 4812 -1 -1 -1 -1 -1 -1 -1 -65539</internalNodes>
      <leafValues>
        5.1802244037389755e-02 -1.9470106065273285e-01</leafValues></_>
    <_>
      <internalNodes>
        0 -1 6156 619446276 749530916 -285426768 745320100 1291584532
        1828517364 1358709792 16384</internalNodes>
      <leafValues>
        -8.3252817392349243e-01 1.5649776905775070e-02</leafValues></_>
    <_>
      <internalNodes>
        0 -1 6248 -1 -268435457 -1 -16777217 -1 -1 -9 2147483647</internalNodes>
      <leafValues>
        6.2113020569086075e-02 -1.6130085289478302e-01</leafValues></_>
    <_>
      <internalNodes>
        0 -1 97 2130208544 1861775204 -33624224 -64946208 1609831760
        1601470324 2012501268 29952</internalNodes>
      <leafValues>
        -6.5805774927139282e-01 1.8206853419542313e-02</leafValues></_>
    <_>
      <internalNodes>
        0 -1 5645 1024 2624548 2097053300 638598564 208159792 251428700
        74720288 3072</internalNodes>
      <leafValues>
        -1.4667929410934448e+00 1.0352402925491333e-02</leafValues></_>
    <_>
      <internalNodes>
        0 -1 2263 -1603919872 547531374 -487538176 6351520 1156007168
        69500768 1146381312 1077949508</internalNodes>
      <leafValues>
        -3.0329101085662842e+00 1.1149535886943340e-02</leafValues></_>
    <_>
      <internalNodes>
        0 -1 236 -1073840132 -1 -1 -65537 -1 -1 -1 1073512444</internalNodes>
      <leafValues>
        1.4093196392059326e-01 -6.3518971204757690e-02</leafValues></_>
    <_>
      <internalNodes>
        0 -1 3307 -1896944480 146604000 1744613088 539033524 1291607236
        7667452 1827953748 24576</internalNodes>
      <leafValues>
        -8.2750773429870605e-01 1.3876042328774929e-02</leafValues></_>
    <_>
      <internalNodes>
        0 -1 7308 136317952 683150776 -1073840140 615521584 800857972
        1039941501 1018967536 2098180</internalNodes>
      <leafValues>
        -8.9507299661636353e-01 1.4728347770869732e-02</leafValues></_>
    <_>
      <internalNodes>
        0 -1 4479 -1 -1 -1 -1 -1 -1 -1 2147418109</internalNodes>
      <leafValues>
        7.0475459098815918e-02 -1.4198003709316254e-01</leafValues></_>
    <_>
      <internalNodes>
        0 -1 303 -2 -1 -1 -1 -1 -1 -3 2146926452</internalNodes>
      <leafValues>
        -8.6996577680110931e-02 1.1059426516294479e-01</leafValues></_>
    <_>
      <internalNodes>
        0 -1 2801 740297760 648559904 -1073807372 740306928 968376116
        1056210932 473699444 1024</internalNodes>
      <leafValues>
        -7.5059533119201660e-01 1.6136737540364265e-02</leafValues></_>
    <_>
      <internalNodes>
        0 -1 8395 -1 -1 -1 -1 -1 -1 -1 2147287037</internalNodes>
      <leafValues>
        5.7177469134330750e-02 -1.6958543658256531e-01</leafValues></_>
    <_>
      <internalNodes>
        0 -1 8299 2100224 1014509556 -1073840130 750267772 234621956
        1038937972 515116272 3072</internalNodes>
      <leafValues>
        -8.4091961383819580e-01 1.3756982982158661e-02</leafValues></_>
    <_>
      <internalNodes>
        0 -1 2667 -1 -1 -1 -1 -1 2147483647 -1 -1</internalNodes>
      <leafValues>
        -3.3154349774122238e-02 2.9165092110633850e-01</leafValues></_>
    <_>
      <internalNodes>
        0 -1 6624 -1 -268435457 -1 -16842753 -1 -1 -1 2097086461</internalNodes>
      <leafValues>
        7.7219896018505096e-02 -1.2259788811206818e-01</leafValues></_>
    <_>
      <internalNodes>
        0 -1 7084 5243904 137113452 251407392 79711796 1065114708
        645201781 477371392 5120</internalNodes>
      <leafValues>
        -6.1897623538970947e-01 1.8194330856204033e-02</leafValues></_>
    <_>
      <internalNodes>
        0 -1 6581 179831808 788299636 -229508 250355700 788291420
        2147254140 1022647620 1049600</internalNodes>
      <leafValues>
        -6.6482222080230713e-01 1.7211828380823135e-02</leafValues></_>
    <_>
      <internalNodes>
        0 -1 3664 640158240 774537020 -268501152 708509360 1601569860
        930447157 1969501200 1066064</internalNodes>
      <leafValues>
        -5.5239355564117432e-01 1.9921444356441498e-02</leafValues></_>
    <_>
      <internalNodes>
        0 -1 1280 -32900 -1 -1 -1 -32899 -1 -32908 2147254132</internalNodes>
      <leafValues>
        1.3784059882164001e-01 -7.4888609349727631e-02</leafValues></_>
    <_>
      <internalNodes>
        0 -1 668 -268439634 -268435457 -2 -285278210 2147450740
        2147483647 2147483508 1987575670</internalNodes>
      <leafValues>
        -1.8017050623893738e-01 5.6050624698400497e-02</leafValues></_>
    <_>
      <internalNodes>
        0 -1 123 -1 -1 -1 -1 -1 -1 -1 2147418109</internalNodes>
      <leafValues>
        6.1883602291345596e-02 -1.5692652761936188e-01</leafValues></_>
    <_>
      <internalNodes>
        0 -1 7626 135143936 2158112 -17371616 551554592 251100928
        13959012 83104768 6558720</internalNodes>
      <leafValues>
        -7.2351622581481934e-01 1.5052873641252518e-02</leafValues></_>
    <_>
      <internalNodes>
        0 -1 7514 -2 -1 -1 -1 -1 -1 -1 2147483647</internalNodes>
      <leafValues>
        -3.2508477568626404e-02 2.9576936364173889e-01</leafValues></_>
    <_>
      <internalNodes>
        0 -1 7696 673185792 784084604 1610547196 238042172 1828457956
        2147254268 805065852 67109888</internalNodes>
      <leafValues>
        -7.6216167211532593e-01 1.5447501093149185e-02</leafValues></_>
    <_>
      <internalNodes>
        0 -1 5229 35652608 585924598 1325399414 182992632 234116864
        402030453 2088000596 25716</internalNodes>
      <leafValues>
        -5.1994317770004272e-01 2.0012766122817993e-02</leafValues></_>
    <_>
      <internalNodes>
        0 -1 6979 69733376 772042336 49851940 2140736 223110724 72646468
        77616196 1280</internalNodes>
      <leafValues>
        -9.6408063173294067e-01 1.3981766067445278e-02</leafValues></_>
    <_>
      <internalNodes>
        0 -1 4263 788410212 788463614 -2 788463614 2147450740 939393023
        2147450740 74743668</internalNodes>
      <leafValues>
        2.4474588036537170e-01 -3.8786321878433228e-02</leafValues></_>
    <_>
      <internalNodes>
        0 -1 837 1995848736 48430816 1693463648 547384032 1155806272
        74774480 1156859216 16</internalNodes>
      <leafValues>
        -1.1736893653869629e+00 1.0928421281278133e-02</leafValues></_>
    <_>
      <internalNodes>
        0 -1 4784 136323104 783032304 1056767732 216817652 265583892
        1014792188 1047819568 64</internalNodes>
      <leafValues>
        -4.6819517016410828e-01 2.1782942116260529e-02</leafValues></_>
    <_>
      <internalNodes>
        0 -1 3501 748989568 2141216 2130624304 2117252 343166724 5272800
        7621632 0</internalNodes>
      <leafValues>
        -1.1594257354736328e+00 1.1432928964495659e-02</leafValues></_>
    <_>
      <internalNodes>
        0 -1 7981 203424768 136317984 721174064 2097156 481565808
        142349076 8127008 1024</internalNodes>
      <leafValues>
        -1.6663408279418945e+00 1.0290832258760929e-02</leafValues></_>
    <_>
      <internalNodes>
        0 -1 7966 -1342291972 -1359020034 -2 -1359020034 -1 -1 -4
        217874420</internalNodes>
      <leafValues>
        1.7209729552268982e-01 -5.6928206235170364e-02</leafValues></_>
    <_>
      <internalNodes>
        0 -1 4421 -1 -1 -1 -1 -1 -1 -1 -50462729</internalNodes>
      <leafValues>
        -4.5363079756498337e-02 2.0192421972751617e-01</leafValues></_>
    <_>
      <internalNodes>
        0 -1 2829 -18 -285278210 -2 -285278210 -139 2147483647 -140
        1148518260</internalNodes>
      <leafValues>
        2.0546622574329376e-01 -5.3406175225973129e-02</leafValues></_>
    <_>
      <internalNodes>
        0 -1 5199 202376192 741113724 989806392 611348272 241958912
        1878294386 645146384 1057840</internalNodes>
      <leafValues>
        -6.8420428037643433e-01 1.7814099788665771e-02</leafValues></_>
    <_>
      <internalNodes>
        0 -1 525 -1 -1 -1 -1 -1 -1 -1 -134217729</internalNodes>
      <leafValues>
        -4.4895876199007034e-02 2.1423338353633881e-01</leafValues></_>
    <_>
      <internalNodes>
        0 -1 3569 -32771 -1 -1 -1 -32897 -1 -11 2146729844</internalNodes>
      <leafValues>
        1.2383427470922470e-01 -9.0226039290428162e-02</leafValues></_>
    <_>
      <internalNodes>
        0 -1 6875 141034496 774907936 1878457724 138950164 250612848
        788299252 519323152 1024</internalNodes>
      <leafValues>
        -1.1279839277267456e+00 1.3941834680736065e-02</leafValues></_>
    <_>
      <internalNodes>
        0 -1 3295 1277188272 102791660 2147385332 745602064 357848340
        1350073716 1196442960 0</internalNodes>
      <leafValues>
        -1.4680215120315552e+00 1.0983491316437721e-02</leafValues></_>
    <_>
      <internalNodes>
        0 -1 5192 2147483646 1073741823 -1 -65537 -32769 -1 -1
        1073709055</internalNodes>
      <leafValues>
        -6.3894905149936676e-02 1.4752356708049774e-01</leafValues></_>
    <_>
      <internalNodes>
        0 -1 6056 -1 -268435457 -1 -16777217 -1 2147483647 -1 2147483647</internalNodes>
      <leafValues>
        7.0732980966567993e-02 -1.6209149360656738e-01</leafValues></_>
    <_>
      <internalNodes>
        0 -1 2633 174850048 212741992 711880224 241713016 787764228
        359694165 1146094608 9232</internalNodes>
      <leafValues>
        -7.5246632099151611e-01 1.6794003546237946e-02</leafValues></_>
    <_>
      <internalNodes>
        0 -1 8172 250350080 573451942 1862200832 15216544 528313920
        1156939621 1442083840 4473892</internalNodes>
      <leafValues>
        -6.2326264381408691e-01 1.8431352451443672e-02</leafValues></_>
    <_>
      <internalNodes>
        0 -1 8182 67111936 2112416 -1359024608 2106976 511467124
        208043766 217871360 67109952</internalNodes>
      <leafValues>
        -6.7937606573104858e-01 1.6430962830781937e-02</leafValues></_>
    <_>
      <internalNodes>
        0 -1 4892 239906464 8392360 -1074860544 545262096 1289545376
        208948732 75777040 0</internalNodes>
      <leafValues>
        -1.7934459447860718e+00 9.8821921274065971e-03</leafValues></_>
    <_>
      <internalNodes>
        0 -1 3202 174984192 49970784 788414048 178831072 376701968
        1173714772 108287248 5120</internalNodes>
      <leafValues>
        -6.7057782411575317e-01 1.6071412712335587e-02</leafValues></_>
    <_>
      <internalNodes>
        0 -1 7616 136842240 136330800 -1073844428 6827744 795892816
        796884989 217324916 3146752</internalNodes>
      <leafValues>
        -7.7411586046218872e-01 1.4937747269868851e-02</leafValues></_>
    <_>
      <internalNodes>
        0 -1 57 -2 -1 -2 -1 -1 -1 -1 -134217729</internalNodes>
      <leafValues>
        -5.4494138807058334e-02 1.7361313104629517e-01</leafValues></_>
    <_>
      <internalNodes>
        0 -1 7546 179047424 115654512 -285278492 610823864 1039957316
        133087100 2138338416 13376</internalNodes>
      <leafValues>
        -4.6206149458885193e-01 1.9689431414008141e-02</leafValues></_>
    <_>
      <internalNodes>
        0 -1 7324 234884640 673877672 1861124020 44318244 746331924
        217350004 83113044 9216</internalNodes>
      <leafValues>
        -6.7050218582153320e-01 1.5669625252485275e-02</leafValues></_>
    <_>
      <internalNodes>
        0 -1 429 -2 -1 -1 -1 -1 -1 -1 -1</internalNodes>
      <leafValues>
        -2.0927561447024345e-02 4.5210996270179749e-01</leafValues></_>
    <_>
      <internalNodes>
        0 -1 1000 73722880 536882720 -1494028768 539027104 1109787904
        4224576 1148453888 1024</internalNodes>
      <leafValues>
        -1.3801249265670776e+00 9.5009431242942810e-03</leafValues></_>
    <_>
      <internalNodes>
        0 -1 4425 -1 -1 -1 -1 -1 -1 -1 2147418109</internalNodes>
      <leafValues>
        6.3281111419200897e-02 -1.5488082170486450e-01</leafValues></_>
    <_>
      <internalNodes>
        0 -1 5574 170923008 707280780 1860992496 11593956 611599428
        108363604 74741248 17408</internalNodes>
      <leafValues>
        -9.3582463264465332e-01 1.2928861193358898e-02</leafValues></_>
    <_>
      <internalNodes>
        0 -1 6959 -286331392 112132078 -285282654 15265418 1174230084
        1146421108 1962820672 6579540</internalNodes>
      <leafValues>
        -5.4115766286849976e-01 1.9678071141242981e-02</leafValues></_>
    <_>
      <internalNodes>
        0 -1 523 640422944 6618720 603417456 573074340 1146357060
        1062484 1081540676 0</internalNodes>
      <leafValues>
        -1.1885670423507690e+00 1.0889353230595589e-02</leafValues></_>
    <_>
      <internalNodes>
        0 -1 4785 2100272 792223608 1065234416 782823152 510950736
        1073512436 368850192 1040</internalNodes>
      <leafValues>
        -6.9033294916152954e-01 1.5814887359738350e-02</leafValues></_>
    <_>
      <internalNodes>
        0 -1 8425 69206016 677912424 -1359074116 78130288 1044124688
        83689468 92017920 1056</internalNodes>
      <leafValues>
        -7.7850443124771118e-01 1.5270985662937164e-02</leafValues></_>
    <_>
      <internalNodes>
        0 -1 1207 -1 -1 -1 -1 -129 -1 -9 2147483647</internalNodes>
      <leafValues>
        5.4700128734111786e-02 -1.7085164785385132e-01</leafValues></_>
    <_>
      <internalNodes>
        0 -1 671 -4114 -1 -2 -1 2147450740 2147483647 2147450740
        2004352887</internalNodes>
      <leafValues>
        -1.3980205357074738e-01 7.8901104629039764e-02</leafValues></_>
    <_>
      <internalNodes>
        0 -1 8411 -1 -1 -1 -1 -1 -1 -1 -1073807363</internalNodes>
      <leafValues>
        6.2484871596097946e-02 -1.4881773293018341e-01</leafValues></_>
    <_>
      <internalNodes>
        0 -1 8235 149171232 648310440 -16843038 548728032 243027264
        1149075325 896812036 1104</internalNodes>
      <leafValues>
        -5.2834063768386841e-01 1.8962591886520386e-02</leafValues></_>
    <_>
      <internalNodes>
        0 -1 2520 1073626996 -1 -2 -65538 -32908 2147483647 2147450740
        74743668</internalNodes>
      <leafValues>
        2.2447793185710907e-01 -4.1468612849712372e-02</leafValues></_>
    <_>
      <internalNodes>
        0 -1 1178 788442624 707198950 -102880 543354528 1199519232
        1147533175 1685526016 14144</internalNodes>
      <leafValues>
        -7.3877197504043579e-01 1.5402682125568390e-02</leafValues></_></weakClassifiers></stage7>
</opencv_storage>
