<?xml version="1.0"?>
<opencv_storage>
<stage12>
  <maxWeakCount>65</maxWeakCount>
  <stageThreshold>-8.7912261486053467e-01</stageThreshold>
  <weakClassifiers>
    <_>
      <internalNodes>
        0 -1 1435 -1 -1 -1 -1 -1 -1 -1 939524095</internalNodes>
      <leafValues>
        1.0667654126882553e-01 6.9670236110687256e-01</leafValues></_>
    <_>
      <internalNodes>
        0 -1 4724 -32769 -1 -1 -1 -32905 -1 -139 2138374005</internalNodes>
      <leafValues>
        -2.1756185591220856e-01 1.8307410180568695e-01</leafValues></_>
    <_>
      <internalNodes>
        0 -1 2823 -1 -1 -1 -1 -1 -1 -1 -655369</internalNodes>
      <leafValues>
        -1.0051405429840088e-01 3.7522009015083313e-01</leafValues></_>
    <_>
      <internalNodes>
        0 -1 1419 -1 -1 -1 -1 -1 -1 -1 2146729845</internalNodes>
      <leafValues>
        3.4216010570526123e-01 -1.3236556947231293e-01</leafValues></_>
    <_>
      <internalNodes>
        0 -1 225 -1 -1 -2 -1 -1 -1 -1 -134217729</internalNodes>
      <leafValues>
        -1.2197944521903992e-01 3.1144848465919495e-01</leafValues></_>
    <_>
      <internalNodes>
        0 -1 3361 -98444 -65540 -1 -65540 -32908 -1 -140 74481524</internalNodes>
      <leafValues>
        5.5825597047805786e-01 -1.0623360425233841e-01</leafValues></_>
    <_>
      <internalNodes>
        0 -1 954 -1 -1 -1 -1 -1 -1 -129 2138374005</internalNodes>
      <leafValues>
        -1.4809626340866089e-01 2.2433191537857056e-01</leafValues></_>
    <_>
      <internalNodes>
        0 -1 2687 -1 -1 -1 -1 -1 -1 -1 -3</internalNodes>
      <leafValues>
        1.0858517140150070e-01 -4.0797072649002075e-01</leafValues></_>
    <_>
      <internalNodes>
        0 -1 4259 2147483647 2147483647 -1 -1 2147450741 2147483647 -137
        2146926583</internalNodes>
      <leafValues>
        -1.4432577788829803e-01 2.3070254921913147e-01</leafValues></_>
    <_>
      <internalNodes>
        0 -1 429 -2 -1 -1 -1 -1 -1 -1 -9</internalNodes>
      <leafValues>
        -6.0370985418558121e-02 7.3906296491622925e-01</leafValues></_>
    <_>
      <internalNodes>
        0 -1 3072 -1 -1 -1 -1 -129 -1 -9 2147483647</internalNodes>
      <leafValues>
        1.4201852679252625e-01 -2.3366469144821167e-01</leafValues></_>
    <_>
      <internalNodes>
        0 -1 3926 -1 -1 -1 -1 -1 -1 -1 -50987017</internalNodes>
      <leafValues>
        -1.0830610245466232e-01 3.2078960537910461e-01</leafValues></_>
    <_>
      <internalNodes>
        0 -1 8457 -1342275716 -1359020034 -2 -1359020034 -32907
        2147483647 -32908 74776436</internalNodes>
      <leafValues>
        -3.2846546173095703e-01 9.7476214170455933e-02</leafValues></_>
    <_>
      <internalNodes>
        0 -1 3926 -65538 -285278210 -2 -285278210 -12 2147483647 -140
        1148518388</internalNodes>
      <leafValues>
        4.5149344205856323e-01 -7.5143694877624512e-02</leafValues></_>
    <_>
      <internalNodes>
        0 -1 5390 -65540 -1 -1 -65537 -1 -1 -1 788332532</internalNodes>
      <leafValues>
        -2.2773210704326630e-01 1.3230302929878235e-01</leafValues></_>
    <_>
      <internalNodes>
        0 -1 1064 -2 2147418111 -1 2147418110 2147450877 2012610559
        2147450749 74743668</internalNodes>
      <leafValues>
        4.8951709270477295e-01 -6.7617282271385193e-02</leafValues></_>
    <_>
      <internalNodes>
        0 -1 3586 -1 1073741823 -1 -1 2147450879 2147483647 -1
        1056800766</internalNodes>
      <leafValues>
        -1.5656533837318420e-01 1.9273608922958374e-01</leafValues></_>
    <_>
      <internalNodes>
        0 -1 6347 -1 -1 -1 -1 -1 -1 -1 2147483647</internalNodes>
      <leafValues>
        7.6509147882461548e-02 -4.3735164403915405e-01</leafValues></_>
    <_>
      <internalNodes>
        0 -1 2654 -32898 -268435457 -1 -16842753 -32907 -1 -139
        2121564020</internalNodes>
      <leafValues>
        -2.1290698647499084e-01 1.4079663157463074e-01</leafValues></_>
    <_>
      <internalNodes>
        0 -1 6002 -1073774593 -1 -1 -1 -1 -1 -1 2147385341</internalNodes>
      <leafValues>
        1.7543123662471771e-01 -1.6340984404087067e-01</leafValues></_>
    <_>
      <internalNodes>
        0 -1 4083 -1 -1073807361 -1 -65537 -1 -1 -1 889192447</internalNodes>
      <leafValues>
        -1.3807833194732666e-01 2.4952736496925354e-01</leafValues></_>
    <_>
      <internalNodes>
        0 -1 7082 69477920 2391600 1862166112 2124832 1836982020
        71729022 1156986644 5260800</internalNodes>
      <leafValues>
        -9.9720251560211182e-01 3.9643686264753342e-02</leafValues></_>
    <_>
      <internalNodes>
        0 -1 5085 -1 -285212673 -2 -285278209 -1 2147483647 -9
        1962213365</internalNodes>
      <leafValues>
        2.9039245843887329e-01 -1.1348010599613190e-01</leafValues></_>
    <_>
      <internalNodes>
        0 -1 5644 1073709052 -1342177281 -1 2130640895 -32905 -1 -139
        1551138676</internalNodes>
      <leafValues>
        -2.4619570374488831e-01 1.2395145744085312e-01</leafValues></_>
    <_>
      <internalNodes>
        0 -1 8271 741092352 246050540 2130607776 10501796 770998020
        75300725 98853888 67126352</internalNodes>
      <leafValues>
        -8.4537160396575928e-01 4.2630348354578018e-02</leafValues></_>
    <_>
      <internalNodes>
        0 -1 5251 -1 -1 -1 -1 -1 -1 -1 -32769</internalNodes>
      <leafValues>
        -6.0813445597887039e-02 5.0422722101211548e-01</leafValues></_>
    <_>
      <internalNodes>
        0 -1 2696 -2 -1 -1 -65538 -1 -1 -1 1962180468</internalNodes>
      <leafValues>
        3.0801537632942200e-01 -9.2354170978069305e-02</leafValues></_>
    <_>
      <internalNodes>
        0 -1 825 -4 -4 -1 -983056 2147450740 2147483645 -32908 275806032</internalNodes>
      <leafValues>
        -5.1250725984573364e-01 6.5768092870712280e-02</leafValues></_>
    <_>
      <internalNodes>
        0 -1 2770 -1 -1 -1 -1 -1 -1 -1 2147254133</internalNodes>
      <leafValues>
        2.5293588638305664e-01 -1.4550030231475830e-01</leafValues></_>
    <_>
      <internalNodes>
        0 -1 2074 -285291008 -419495938 -16843040 754777836 -33420
        1291649023 -185305792 7369812</internalNodes>
      <leafValues>
        -6.1306589841842651e-01 6.1944808810949326e-02</leafValues></_>
    <_>
      <internalNodes>
        0 -1 1813 644640288 2113124 1862270964 540307070 1198814532
        7372148 1644119364 4192</internalNodes>
      <leafValues>
        -1.2032713890075684e+00 3.5768792033195496e-02</leafValues></_>
    <_>
      <internalNodes>
        0 -1 7459 -2 -1 -2 -16777217 -129 -1 -9 -1</internalNodes>
      <leafValues>
        -9.2068910598754883e-02 3.8321849703788757e-01</leafValues></_>
    <_>
      <internalNodes>
        0 -1 7687 -2 -268435457 -1 -16777217 -129 -1 -11 2130640893</internalNodes>
      <leafValues>
        1.8587501347064972e-01 -2.0691938698291779e-01</leafValues></_>
    <_>
      <internalNodes>
        0 -1 7421 -1 -1 -1 -1 -1 -1 -1 -65537</internalNodes>
      <leafValues>
        6.2545254826545715e-02 -5.2007645368576050e-01</leafValues></_>
    <_>
      <internalNodes>
        0 -1 4435 -1 -1 -1 -1 -1 -1 -1 -196611</internalNodes>
      <leafValues>
        -1.3018044829368591e-01 2.2038722038269043e-01</leafValues></_>
    <_>
      <internalNodes>
        0 -1 181 -1 -1 -1 -1 -1 -1 -1 -3</internalNodes>
      <leafValues>
        7.5615458190441132e-02 -3.7045103311538696e-01</leafValues></_>
    <_>
      <internalNodes>
        0 -1 1289 805256996 788529150 -2 1862205438 2013222228
        1199013759 2147448692 7632756</internalNodes>
      <leafValues>
        7.3808062076568604e-01 -5.2009988576173782e-02</leafValues></_>
    <_>
      <internalNodes>
        0 -1 4175 67109888 779631860 1878933436 779632236 208933888
        1333542396 729027648 2097168</internalNodes>
      <leafValues>
        -1.4163560867309570e+00 3.2738171517848969e-02</leafValues></_>
    <_>
      <internalNodes>
        0 -1 5001 -1 -1 -1 -16777217 -1 -1 -1 -1</internalNodes>
      <leafValues>
        7.0105761289596558e-02 -4.7958925366401672e-01</leafValues></_>
    <_>
      <internalNodes>
        0 -1 443 -1 -1 -1 -1 -1 2147483647 -137 2012741623</internalNodes>
      <leafValues>
        -1.8296571075916290e-01 2.1043668687343597e-01</leafValues></_>
    <_>
      <internalNodes>
        0 -1 6194 74320896 237397864 -286327200 539553760 83765824
        1149038452 1685349904 17424</internalNodes>
      <leafValues>
        -9.7267174720764160e-01 4.3247837573289871e-02</leafValues></_>
    <_>
      <internalNodes>
        0 -1 3988 -1 -1 -1 -1 -1 -1 -9 2147418101</internalNodes>
      <leafValues>
        1.3861973583698273e-01 -2.3137217760086060e-01</leafValues></_>
    <_>
      <internalNodes>
        0 -1 1276 -1342275588 -268500993 -1 -16842753 -32900 -1 -32908
        779386740</internalNodes>
      <leafValues>
        -2.7171653509140015e-01 1.0947217047214508e-01</leafValues></_>
    <_>
      <internalNodes>
        0 -1 1820 -32770 -1 -1 -1 -32897 -1 -139 2147385205</internalNodes>
      <leafValues>
        2.0663821697235107e-01 -1.4610548317432404e-01</leafValues></_>
    <_>
      <internalNodes>
        0 -1 7591 178261504 681733984 -16883744 677408508 754734180
        216432614 645678404 69207060</internalNodes>
      <leafValues>
        -8.8763332366943359e-01 4.4500634074211121e-02</leafValues></_>
    <_>
      <internalNodes>
        0 -1 6028 788016940 788463614 -2 788463614 2147450740 1073709055
        2147450740 74724724</internalNodes>
      <leafValues>
        7.3678708076477051e-01 -4.6772580593824387e-02</leafValues></_>
    <_>
      <internalNodes>
        0 -1 6639 -268439570 -1359020034 -2 -285278210 -11 -1 -12
        83165044</internalNodes>
      <leafValues>
        4.5229923725128174e-01 -7.5584717094898224e-02</leafValues></_>
    <_>
      <internalNodes>
        0 -1 8112 1056718844 -1073807362 -1 1073676286 -65539 -1
        -1073807363 217857524</internalNodes>
      <leafValues>
        -3.6960887908935547e-01 9.1007761657238007e-02</leafValues></_>
    <_>
      <internalNodes>
        0 -1 8135 788278832 788463612 -2 788463612 -4 -1 -98316 75251572</internalNodes>
      <leafValues>
        5.6375426054000854e-01 -6.2085624784231186e-02</leafValues></_>
    <_>
      <internalNodes>
        0 -1 6407 136315936 2111080 805093360 179338400 234647380
        268337021 1047532912 3145760</internalNodes>
      <leafValues>
        -1.0621813535690308e+00 4.3627448379993439e-02</leafValues></_>
    <_>
      <internalNodes>
        0 -1 8156 77605888 2797088 788409888 2109280 108293632 83656052
        1593601088 4195344</internalNodes>
      <leafValues>
        -1.2441552877426147e+00 3.7700254470109940e-02</leafValues></_>
    <_>
      <internalNodes>
        0 -1 462 538968576 211824224 1862201088 782378496 762579968
        1182039909 502531072 67109888</internalNodes>
      <leafValues>
        -1.2179856300354004e+00 3.6995165050029755e-02</leafValues></_>
    <_>
      <internalNodes>
        0 -1 8238 788283388 -1073807361 -1 -1073807362 -4 -1 -32772
        217857524</internalNodes>
      <leafValues>
        5.0268942117691040e-01 -6.0637615621089935e-02</leafValues></_>
    <_>
      <internalNodes>
        0 -1 6645 -1 -1 -1 -1 -1 -1 -1 -50331649</internalNodes>
      <leafValues>
        -5.4454591125249863e-02 6.1093932390213013e-01</leafValues></_>
    <_>
      <internalNodes>
        0 -1 7596 749732864 10495648 1056866160 36187168 1056792436
        805191404 754461732 1024</internalNodes>
      <leafValues>
        -9.9769562482833862e-01 3.9874188601970673e-02</leafValues></_>
    <_>
      <internalNodes>
        0 -1 821 -2 -1 -1 -65537 -1 -1 -9 -185073673</internalNodes>
      <leafValues>
        -1.2581396102905273e-01 2.6856827735900879e-01</leafValues></_>
    <_>
      <internalNodes>
        0 -1 5684 1073741822 788463615 -1 -16842753 2147450751
        2147483647 -1 1073741822</internalNodes>
      <leafValues>
        -1.5781566500663757e-01 2.0284409821033478e-01</leafValues></_>
    <_>
      <internalNodes>
        0 -1 6056 -1 -268435457 -1 -16777217 -1 2147483647 -1 2147483647</internalNodes>
      <leafValues>
        1.4931017160415649e-01 -2.7328404784202576e-01</leafValues></_>
    <_>
      <internalNodes>
        0 -1 8381 69207040 707268132 754859792 11283504 74980352
        750018548 739776068 1024</internalNodes>
      <leafValues>
        -1.3764752149581909e+00 4.3013215065002441e-02</leafValues></_>
    <_>
      <internalNodes>
        0 -1 1673 -2 -268435457 -2 -16842754 -137 -1 -140 1995767796</internalNodes>
      <leafValues>
        3.5411748290061951e-01 -1.1553204804658890e-01</leafValues></_>
    <_>
      <internalNodes>
        0 -1 7207 182455296 750550972 -1090584964 619642472 536627012
        234749812 754742788 5440</internalNodes>
      <leafValues>
        -8.0636048316955566e-01 5.2210438996553421e-02</leafValues></_>
    <_>
      <internalNodes>
        0 -1 1306 -18 -268435457 -2 -1 2147450741 2147483647 -32908
        1987542903</internalNodes>
      <leafValues>
        -2.3977155983448029e-01 1.3560362160205841e-01</leafValues></_>
    <_>
      <internalNodes>
        0 -1 6152 715926780 716094204 -65548 783857596 1006419964
        805240828 1320967412 16</internalNodes>
      <leafValues>
        -1.2890886068344116e+00 3.3006753772497177e-02</leafValues></_>
    <_>
      <internalNodes>
        0 -1 3755 116533760 107904810 1862151776 585383520 360469504
        1145929492 1198797824 7370564</internalNodes>
      <leafValues>
        -1.0180677175521851e+00 3.9956707507371902e-02</leafValues></_>
    <_>
      <internalNodes>
        0 -1 3169 -32769 -1 -1 -1 -32897 -1 -11 2147483645</internalNodes>
      <leafValues>
        1.5016649663448334e-01 -2.1487490832805634e-01</leafValues></_></weakClassifiers></stage12>
</opencv_storage>
