<?xml version="1.0"?>
<opencv_storage>
<stage5>
  <maxWeakCount>28</maxWeakCount>
  <stageThreshold>-1.2829636335372925e+00</stageThreshold>
  <weakClassifiers>
    <_>
      <internalNodes>
        0 -1 2768 -1 -1 -1 -1 2147450879 -1 -1 -1</internalNodes>
      <leafValues>
        -3.9540940523147583e-01 6.7209613323211670e-01</leafValues></_>
    <_>
      <internalNodes>
        0 -1 41794 -2 -1 -1 -1 -1 -1 -1 1073741823</internalNodes>
      <leafValues>
        -2.7094852924346924e-01 2.8991064429283142e-01</leafValues></_>
    <_>
      <internalNodes>
        0 -1 1850 -18 -1 -2 -1 -1 2013265919 -1 2013265919</internalNodes>
      <leafValues>
        -3.3144271373748779e-01 1.3869786262512207e-01</leafValues></_>
    <_>
      <internalNodes>
        0 -1 60891 -2 -1 -1 -1 -1 -1 -1 1073741823</internalNodes>
      <leafValues>
        -1.7454954981803894e-01 3.2880428433418274e-01</leafValues></_>
    <_>
      <internalNodes>
        0 -1 55396 -1 -1 -1 -1 -1 -1 -1 2147483647</internalNodes>
      <leafValues>
        8.6870566010475159e-02 -6.3539385795593262e-01</leafValues></_>
    <_>
      <internalNodes>
        0 -1 43519 1073741823 -1 -1 -1 -1 -1 -1 -1</internalNodes>
      <leafValues>
        -5.0462689250707626e-02 6.4147758483886719e-01</leafValues></_>
    <_>
      <internalNodes>
        0 -1 1693 -1 -1 -1 -1 2147483647 2147483647 -129 2146959359</internalNodes>
      <leafValues>
        -1.0970452427864075e-01 4.5326825976371765e-01</leafValues></_>
    <_>
      <internalNodes>
        0 -1 45211 540017712 985415540 1073496053 590755572 1064714228
        1073700735 1072967032 135790640</internalNodes>
      <leafValues>
        -1.2387437820434570e+00 3.4916881471872330e-02</leafValues></_>
    <_>
      <internalNodes>
        0 -1 55140 -2 -1 -1 -268435457 -9 -1 -1 2147483647</internalNodes>
      <leafValues>
        -7.5366958975791931e-02 5.0195634365081787e-01</leafValues></_>
    <_>
      <internalNodes>
        0 -1 6872 782503456 -269520974 -9 1056274400 670910276
        -227143690 267863408 1049600</internalNodes>
      <leafValues>
        -1.1464409828186035e+00 3.6195430904626846e-02</leafValues></_>
    <_>
      <internalNodes>
        0 -1 1852 1743260160 572957261 -151024950 -1570701570 1199391489
        71579460 -730500284 5380</internalNodes>
      <leafValues>
        -1.9342288970947266e+00 5.3403303027153015e-02</leafValues></_>
    <_>
      <internalNodes>
        0 -1 42437 182722560 25177908 -591626500 537144880 1392266612
        12482420 2095908084 7341076</internalNodes>
      <leafValues>
        -1.7481359243392944e+00 3.3062148839235306e-02</leafValues></_>
    <_>
      <internalNodes>
        0 -1 53706 -1073774595 -1 -1 -1 -1 -1 -1 1073709053</internalNodes>
      <leafValues>
        2.0366828143596649e-01 -1.8747530877590179e-01</leafValues></_>
    <_>
      <internalNodes>
        0 -1 39465 -1 -268435457 -1 -16777217 -129 2147483647 -9
        2147483647</internalNodes>
      <leafValues>
        1.4125037193298340e-01 -2.7765539288520813e-01</leafValues></_>
    <_>
      <internalNodes>
        0 -1 2892 171966976 36859446 1450222112 2260590 74318848
        926686262 611780096 333632</internalNodes>
      <leafValues>
        -2.6576554775238037e+00 3.8888197392225266e-02</leafValues></_>
    <_>
      <internalNodes>
        0 -1 50126 -2 -16777217 -2 -16777217 -129 -1 -1 1996488703</internalNodes>
      <leafValues>
        -1.5838630497455597e-01 2.5941038131713867e-01</leafValues></_>
    <_>
      <internalNodes>
        0 -1 49167 1073741823 -1 -1 -1 -1 -1 -1 -1</internalNodes>
      <leafValues>
        -6.3449881970882416e-02 6.3924908638000488e-01</leafValues></_>
    <_>
      <internalNodes>
        0 -1 19526 -293854208 11317230 -476 539239338 -151048812
        116483558 -170543377 3153920</internalNodes>
      <leafValues>
        -1.3219281435012817e+00 3.6124531179666519e-02</leafValues></_>
    <_>
      <internalNodes>
        0 -1 38227 -1073774596 -1 -1 -1 -1 -1 -1 1039958004</internalNodes>
      <leafValues>
        2.1178081631660461e-01 -1.9001260399818420e-01</leafValues></_>
    <_>
      <internalNodes>
        0 -1 27328 538968096 785296124 2130673320 741883616 1031027760
        1043136509 1340938096 2097152</internalNodes>
      <leafValues>
        -9.6187174320220947e-01 5.1617410033941269e-02</leafValues></_>
    <_>
      <internalNodes>
        0 -1 9067 103943168 268181368 788270588 775175989 1023284244
        1023352695 762854460 779099440</internalNodes>
      <leafValues>
        -9.8238164186477661e-01 5.3292702883481979e-02</leafValues></_>
    <_>
      <internalNodes>
        0 -1 36198 773587128 3157880 1056915372 796802044 1056863732
        369065983 788469808 3418676</internalNodes>
      <leafValues>
        -1.2381743192672729e+00 4.8527475446462631e-02</leafValues></_>
    <_>
      <internalNodes>
        0 -1 37375 -1 -1 -1 -16777217 -1 -1 -1 -1</internalNodes>
      <leafValues>
        6.8802691996097565e-02 -6.1445617675781250e-01</leafValues></_>
    <_>
      <internalNodes>
        0 -1 64094 6291456 40775336 -16896468 573226736 125703504
        1685421907 1962296388 3150928</internalNodes>
      <leafValues>
        -1.0585242509841919e+00 4.3371174484491348e-02</leafValues></_>
    <_>
      <internalNodes>
        0 -1 6530 572794880 783560559 1056845624 775831540 133578356
        1988001660 385105520 68162864</internalNodes>
      <leafValues>
        -9.4060754776000977e-01 5.1076225936412811e-02</leafValues></_>
    <_>
      <internalNodes>
        0 -1 57925 786172416 110784038 -152109452 542146428 1702630932
        368541559 651453540 3171616</internalNodes>
      <leafValues>
        -9.8602652549743652e-01 4.8005394637584686e-02</leafValues></_>
    <_>
      <internalNodes>
        0 -1 8516 183372832 40382332 2130640480 180109104 712974148
        650080127 1916098048 1320752</internalNodes>
      <leafValues>
        -9.3336170911788940e-01 4.8491116613149643e-02</leafValues></_>
    <_>
      <internalNodes>
        0 -1 34239 719979040 539683490 1727932960 581627618 1433888324
        644513622 930506500 74478676</internalNodes>
      <leafValues>
        -1.2721911668777466e+00 4.0837284177541733e-02</leafValues></_></weakClassifiers></stage5>
</opencv_storage>
