<?xml version="1.0"?>
<opencv_storage>
<stage8>
  <maxWeakCount>24</maxWeakCount>
  <stageThreshold>-1.4824848175048828e+00</stageThreshold>
  <weakClassifiers>
    <_>
      <internalNodes>
        0 -1 35376 -1 -1 -1 -1 -1 -1 -1 -50331649</internalNodes>
      <leafValues>
        -3.5922241210937500e-01 9.9018716812133789e-01</leafValues></_>
    <_>
      <internalNodes>
        0 -1 848 -2 -1 -1 -1 -1 -1 -1 2147450879</internalNodes>
      <leafValues>
        -2.0914830267429352e-01 5.1720809936523438e-01</leafValues></_>
    <_>
      <internalNodes>
        0 -1 5558 -1 -1 -1 -1 -1 2147483647 -1 -134217729</internalNodes>
      <leafValues>
        -1.4173698425292969e-01 6.8197000026702881e-01</leafValues></_>
    <_>
      <internalNodes>
        0 -1 21014 -1 -1 -1 -1 -1 2147483647 -1 2013265919</internalNodes>
      <leafValues>
        -1.1782408505678177e-01 7.3580104112625122e-01</leafValues></_>
    <_>
      <internalNodes>
        0 -1 28945 -1 -1 -1 -1 -1 -1 -1 2147483647</internalNodes>
      <leafValues>
        1.2274605035781860e-01 -6.6239720582962036e-01</leafValues></_>
    <_>
      <internalNodes>
        0 -1 35158 -1 -268435457 -1 -16777217 -1 -1 -1 -134217729</internalNodes>
      <leafValues>
        1.7453713715076447e-01 -4.6532943844795227e-01</leafValues></_>
    <_>
      <internalNodes>
        0 -1 20382 -17 -268435457 -2 -1 -1 -1 -9 -134217729</internalNodes>
      <leafValues>
        -1.4386117458343506e-01 5.5092102289199829e-01</leafValues></_>
    <_>
      <internalNodes>
        0 -1 32392 788410124 654311423 -10 788463614 2147448692
        2004877303 2147450740 1962868596</internalNodes>
      <leafValues>
        1.7838895320892334e+00 -8.8077798485755920e-02</leafValues></_>
    <_>
      <internalNodes>
        0 -1 55738 717106208 179191590 1073557256 587116270 805257076
        788529151 503281013 16547829</internalNodes>
      <leafValues>
        -9.1828101873397827e-01 1.0821349918842316e-01</leafValues></_>
    <_>
      <internalNodes>
        0 -1 2594 -32898 -1 -1 -16777217 -32897 -1 -129 2147483647</internalNodes>
      <leafValues>
        -1.8734350800514221e-01 4.6914815902709961e-01</leafValues></_>
    <_>
      <internalNodes>
        0 -1 63695 788410148 788463615 -2 -1359020034 2147450740
        2147483647 2147450740 1685356404</internalNodes>
      <leafValues>
        9.9244159460067749e-01 -1.0186444222927094e-01</leafValues></_>
    <_>
      <internalNodes>
        0 -1 26618 1056845620 1073643519 -1 1056866303 1073692532
        2147450879 2147450740 1065254900</internalNodes>
      <leafValues>
        1.4431675672531128e+00 -1.2081563472747803e-01</leafValues></_>
    <_>
      <internalNodes>
        0 -1 26730 246155776 720633838 -269603162 548863862 931029504
        1702854517 1878787072 72635764</internalNodes>
      <leafValues>
        -1.2898621559143066e+00 1.1398030072450638e-01</leafValues></_>
    <_>
      <internalNodes>
        0 -1 58462 7733760 574237500 2147365984 82100148 669988372
        1717993334 108099444 5509412</internalNodes>
      <leafValues>
        -1.2404009103775024e+00 1.1758979409933090e-01</leafValues></_>
    <_>
      <internalNodes>
        0 -1 24758 782247456 -1343717388 1073725374 -1879195932
        670332852 -1611072012 -964752 256</internalNodes>
      <leafValues>
        -1.5439225435256958e+00 9.8921813070774078e-02</leafValues></_>
    <_>
      <internalNodes>
        0 -1 55251 784215976 264158970 -16386 788414462 796819421
        1073709055 2147450741 771652991</internalNodes>
      <leafValues>
        -7.0529371500015259e-01 1.5861180424690247e-01</leafValues></_>
    <_>
      <internalNodes>
        0 -1 42028 774376496 649867061 2147467262 536231860 805051764
        -1073840195 1576824124 134218752</internalNodes>
      <leafValues>
        -1.5618917942047119e+00 1.0456821322441101e-01</leafValues></_>
    <_>
      <internalNodes>
        0 -1 43419 1073741823 -1 -1 -1 -1 -1 -1 -1</internalNodes>
      <leafValues>
        -1.4025209844112396e-01 1.1854913234710693e+00</leafValues></_>
    <_>
      <internalNodes>
        0 -1 35423 -1 -1 -1 -1 -1 -1 -1 2147287037</internalNodes>
      <leafValues>
        2.7230510115623474e-01 -4.3296653032302856e-01</leafValues></_>
    <_>
      <internalNodes>
        0 -1 385 -2 -1 -1 -1 -1 -1 -1 2147450879</internalNodes>
      <leafValues>
        -1.9402733445167542e-01 5.7221466302871704e-01</leafValues></_>
    <_>
      <internalNodes>
        0 -1 13430 -1343312092 1056948222 -65538 2147418111 -16404
        1056913151 2147446781 74719600</internalNodes>
      <leafValues>
        -1.0040144920349121e+00 1.4234472811222076e-01</leafValues></_>
    <_>
      <internalNodes>
        0 -1 17393 -32769 -1 -1 -1 -1 -1 -1 2147450879</internalNodes>
      <leafValues>
        3.1502231955528259e-01 -3.8409504294395447e-01</leafValues></_>
    <_>
      <internalNodes>
        0 -1 37954 -1073840132 -1 -1 -1 -1 -1 -1 1073496060</internalNodes>
      <leafValues>
        6.7025333642959595e-01 -1.7480859160423279e-01</leafValues></_>
    <_>
      <internalNodes>
        0 -1 58810 2147450878 -1 -1 -1 -1 -1 -3 2147254268</internalNodes>
      <leafValues>
        3.5608893632888794e-01 -3.2913509011268616e-01</leafValues></_></weakClassifiers></stage8>
</opencv_storage>
