<?xml version="1.0"?>
<opencv_storage>
<stage6>
  <maxWeakCount>27</maxWeakCount>
  <stageThreshold>-1.3236374855041504e+00</stageThreshold>
  <weakClassifiers>
    <_>
      <internalNodes>
        0 -1 6347 -1 -1 -1 -1 2147450879 -1 -1 -1</internalNodes>
      <leafValues>
        -3.8201889395713806e-01 7.4825364351272583e-01</leafValues></_>
    <_>
      <internalNodes>
        0 -1 3509 -1 -1 -1 -1 -1 -1 -1 2147450879</internalNodes>
      <leafValues>
        -2.8147497773170471e-01 2.0266301929950714e-01</leafValues></_>
    <_>
      <internalNodes>
        0 -1 30378 -18 -1 -1 -1 -1 -1 -1 1962803199</internalNodes>
      <leafValues>
        -1.2068095803260803e-01 3.6766570806503296e-01</leafValues></_>
    <_>
      <internalNodes>
        0 -1 33972 -17 -268435457 -1 -1 -1 -1 -1 -1</internalNodes>
      <leafValues>
        -7.8308001160621643e-02 7.0066511631011963e-01</leafValues></_>
    <_>
      <internalNodes>
        0 -1 63871 -65540 -1 -1 -1 -1 -1 -1 805191679</internalNodes>
      <leafValues>
        -2.0505964756011963e-01 2.2533167898654938e-01</leafValues></_>
    <_>
      <internalNodes>
        0 -1 8743 1035207200 653934458 2147381118 979512048 394200660
        2147442551 805255024 376444799</internalNodes>
      <leafValues>
        -8.5634636878967285e-01 6.2022469937801361e-02</leafValues></_>
    <_>
      <internalNodes>
        0 -1 53998 -1 -1 -1 -1 -1 -1 -1 2147483647</internalNodes>
      <leafValues>
        7.4979744851589203e-02 -6.2132513523101807e-01</leafValues></_>
    <_>
      <internalNodes>
        0 -1 173 -1 -1 -1 -1 -1 -1 -1 -65539</internalNodes>
      <leafValues>
        1.4589293301105499e-01 -3.7432089447975159e-01</leafValues></_>
    <_>
      <internalNodes>
        0 -1 46404 -1 -1 -1 -1 -1 -1 -1 -16777217</internalNodes>
      <leafValues>
        -5.9538703411817551e-02 1.3040534257888794e+00</leafValues></_>
    <_>
      <internalNodes>
        0 -1 32644 538971168 572686138 -17416602 682147376 796660564
        1442119540 804722448 73401360</internalNodes>
      <leafValues>
        -1.0073108673095703e+00 6.3103593885898590e-02</leafValues></_>
    <_>
      <internalNodes>
        0 -1 49052 137365600 1056718844 1073692671 800864252 1069432820
        -1082163201 1073495988 3152144</internalNodes>
      <leafValues>
        -8.2168781757354736e-01 6.2304653227329254e-02</leafValues></_>
    <_>
      <internalNodes>
        0 -1 24310 788508202 581889902 -85004702 587136766 2013232966
        1182269439 2012689984 1082127735</internalNodes>
      <leafValues>
        -1.2029061317443848e+00 4.1215147823095322e-02</leafValues></_>
    <_>
      <internalNodes>
        0 -1 24145 787361312 779026431 -16777626 585564078 1073698372
        1719631743 2130077520 276070261</internalNodes>
      <leafValues>
        -7.2426092624664307e-01 7.9832226037979126e-02</leafValues></_>
    <_>
      <internalNodes>
        0 -1 45603 1073741823 -1 -1 -1 -1 -1 -1 -1</internalNodes>
      <leafValues>
        -7.5199656188488007e-02 7.7152919769287109e-01</leafValues></_>
    <_>
      <internalNodes>
        0 -1 67466 203948032 708319032 -1368081048 573578792 24380448
        629964628 214711360 2098272</internalNodes>
      <leafValues>
        -2.1317114830017090e+00 5.0395004451274872e-02</leafValues></_>
    <_>
      <internalNodes>
        0 -1 16610 -2 -268435457 -2 -16777217 -129 2147483647 -9
        2013265919</internalNodes>
      <leafValues>
        2.0056968927383423e-01 -2.1109800040721893e-01</leafValues></_>
    <_>
      <internalNodes>
        0 -1 52394 683150520 683552766 2147434490 788447228 805125628
        805273599 1056776052 754349940</internalNodes>
      <leafValues>
        -6.6574990749359131e-01 7.7102839946746826e-02</leafValues></_>
    <_>
      <internalNodes>
        0 -1 21883 773852208 782823408 2147483636 536391408 234372468
        930381812 1342004532 1280</internalNodes>
      <leafValues>
        -9.8642599582672119e-01 5.5816784501075745e-02</leafValues></_>
    <_>
      <internalNodes>
        0 -1 38827 713170944 37515180 -1526792668 539782700 209071424
        41713407 888608260 5534736</internalNodes>
      <leafValues>
        -1.6618107557296753e+00 4.3520595878362656e-02</leafValues></_>
    <_>
      <internalNodes>
        0 -1 58586 -3 -1 -1 -1 -1 -1 -1 1073643517</internalNodes>
      <leafValues>
        2.4184627830982208e-01 -2.1118555963039398e-01</leafValues></_>
    <_>
      <internalNodes>
        0 -1 49904 1850616836 47083116 -1392968068 2158120 -1224774048
        7888702 519364708 24576</internalNodes>
      <leafValues>
        -1.4134134054183960e+00 4.6948354691267014e-02</leafValues></_>
    <_>
      <internalNodes>
        0 -1 54339 -1 -268435457 -1 -16777217 -129 -1 -9 -1</internalNodes>
      <leafValues>
        1.4099755883216858e-01 -3.2329601049423218e-01</leafValues></_>
    <_>
      <internalNodes>
        0 -1 12947 543433728 149569318 -50430224 37548014 1073687892
        125665141 1711217680 3152932</internalNodes>
      <leafValues>
        -9.3402665853500366e-01 5.9121623635292053e-02</leafValues></_>
    <_>
      <internalNodes>
        0 -1 18021 177340928 709374654 1072839216 572531256 542314832
        1048327031 1702826530 805306914</internalNodes>
      <leafValues>
        -2.3944532871246338e+00 4.6870794147253036e-02</leafValues></_>
    <_>
      <internalNodes>
        0 -1 60424 721300992 787394542 -285282816 551612154 1610569536
        74940229 1744790852 6323812</internalNodes>
      <leafValues>
        -1.4548968076705933e+00 4.8345863819122314e-02</leafValues></_>
    <_>
      <internalNodes>
        0 -1 19123 1073643390 -1 -1 -16777217 -129 -1 -9 536674292</internalNodes>
      <leafValues>
        2.4298925697803497e-01 -2.3937454819679260e-01</leafValues></_>
    <_>
      <internalNodes>
        0 -1 31512 170396688 178798396 1052651109 144715312 125570132
        956251644 876094580 3154960</internalNodes>
      <leafValues>
        -1.5040611028671265e+00 4.9268197268247604e-02</leafValues></_></weakClassifiers></stage6>
</opencv_storage>
