<?xml version="1.0"?>
<opencv_storage>
<stage7>
  <maxWeakCount>25</maxWeakCount>
  <stageThreshold>-1.3662753105163574e+00</stageThreshold>
  <weakClassifiers>
    <_>
      <internalNodes>
        0 -1 12617 -1 -1 -1 -1 2147450879 -1 -1 -1</internalNodes>
      <leafValues>
        -3.7032258510589600e-01 5.9675073623657227e-01</leafValues></_>
    <_>
      <internalNodes>
        0 -1 991 -2 -1 -1 -1 -1 -1 -32769 2147450879</internalNodes>
      <leafValues>
        -1.7079797387123108e-01 3.9976820349693298e-01</leafValues></_>
    <_>
      <internalNodes>
        0 -1 831 -1 -1 -1 -1 -1 -1 -1 -3</internalNodes>
      <leafValues>
        9.2433042824268341e-02 -7.0608133077621460e-01</leafValues></_>
    <_>
      <internalNodes>
        0 -1 37734 -2 -1 -1 -1 -1 -1 -1 754974719</internalNodes>
      <leafValues>
        -2.2001135349273682e-01 3.4041282534599304e-01</leafValues></_>
    <_>
      <internalNodes>
        0 -1 62996 -2 -1 -1 -1 -1 -1 -1 1073709055</internalNodes>
      <leafValues>
        -1.6769744455814362e-01 3.5151988267898560e-01</leafValues></_>
    <_>
      <internalNodes>
        0 -1 45496 805187366 788463614 -2 788463614 2147450743
        2147483647 2147450740 922746868</internalNodes>
      <leafValues>
        5.0863218307495117e-01 -1.3533397018909454e-01</leafValues></_>
    <_>
      <internalNodes>
        0 -1 54152 548274208 44183334 805187360 136720032 268379952
        117391359 91636852 81608117</internalNodes>
      <leafValues>
        -1.1290650367736816e+00 5.9504911303520203e-02</leafValues></_>
    <_>
      <internalNodes>
        0 -1 50863 -1 -1 -1 -1 -1 -1 -1 2147483647</internalNodes>
      <leafValues>
        1.1261272430419922e-01 -6.7854869365692139e-01</leafValues></_>
    <_>
      <internalNodes>
        0 -1 21952 -2 -1 -1 -1 -1 -1 -1 1979056127</internalNodes>
      <leafValues>
        -1.9685409963130951e-01 3.7600031495094299e-01</leafValues></_>
    <_>
      <internalNodes>
        0 -1 10504 -18 -285212673 -2 -285212673 -137 -1 -139 2012676085</internalNodes>
      <leafValues>
        3.1107041239738464e-01 -2.0760974287986755e-01</leafValues></_>
    <_>
      <internalNodes>
        0 -1 23851 43851776 535216 788524732 586988531 805272884 7831423
        654182496 41853552</internalNodes>
      <leafValues>
        -1.4485977888107300e+00 6.7292891442775726e-02</leafValues></_>
    <_>
      <internalNodes>
        0 -1 42914 -18 -1 -1 -1 -129 -1 -1 -1</internalNodes>
      <leafValues>
        -7.8282780945301056e-02 1.1950465440750122e+00</leafValues></_>
    <_>
      <internalNodes>
        0 -1 23791 246285858 644808550 -285285342 543223730 109008132
        91717495 368461056 7362420</internalNodes>
      <leafValues>
        -1.2910480499267578e+00 6.7706964910030365e-02</leafValues></_>
    <_>
      <internalNodes>
        0 -1 28589 805187430 -1359020033 -2 -285278210 2147450743
        2147483647 2147483508 74743668</internalNodes>
      <leafValues>
        5.6659984588623047e-01 -1.1864328384399414e-01</leafValues></_>
    <_>
      <internalNodes>
        0 -1 64985 545260544 581840484 -285294726 137903848 763102292
        670433142 515116852 3148896</internalNodes>
      <leafValues>
        -1.5154391527175903e+00 7.1144402027130127e-02</leafValues></_>
    <_>
      <internalNodes>
        0 -1 16354 -1 -1 -1 -16777217 -1 -1 -9 -134217729</internalNodes>
      <leafValues>
        1.4601840078830719e-01 -4.6334064006805420e-01</leafValues></_>
    <_>
      <internalNodes>
        0 -1 65273 682110464 653033198 805240800 720908020 2147292420
        99844094 377386544 5519220</internalNodes>
      <leafValues>
        -8.5309690237045288e-01 9.9703982472419739e-02</leafValues></_>
    <_>
      <internalNodes>
        0 -1 60825 78913568 551694270 2130030128 36218872 1065291568
        75268094 939480372 74456852</internalNodes>
      <leafValues>
        -9.7295588254928589e-01 8.1646241247653961e-02</leafValues></_>
    <_>
      <internalNodes>
        0 -1 35826 -1342263770 -1359020034 -2 -285278210 -32905
        2147483519 2147483508 1148485492</internalNodes>
      <leafValues>
        6.8445229530334473e-01 -1.1312751471996307e-01</leafValues></_>
    <_>
      <internalNodes>
        0 -1 36841 2147483646 1073741823 -1 -1 2147450879 2147483647 -1
        2147483647</internalNodes>
      <leafValues>
        -1.4112471044063568e-01 4.4206985831260681e-01</leafValues></_>
    <_>
      <internalNodes>
        0 -1 62959 -1073790978 -1 -1 2130706431 -1 -1 -1 1073512444</internalNodes>
      <leafValues>
        2.4345777928829193e-01 -2.8013858199119568e-01</leafValues></_>
    <_>
      <internalNodes>
        0 -1 11452 1879002624 586153982 -134283552 -491061250 1433892628
        1165459327 2013263200 1415903092</internalNodes>
      <leafValues>
        -1.1331722736358643e+00 6.6155143082141876e-02</leafValues></_>
    <_>
      <internalNodes>
        0 -1 33075 -1 -1 -1 -1 -1 -1 -1 2147385341</internalNodes>
      <leafValues>
        2.2194935381412506e-01 -3.1990686058998108e-01</leafValues></_>
    <_>
      <internalNodes>
        0 -1 58390 169878016 35663800 1457438512 251424060 769535252
        124222844 494151492 2360628</internalNodes>
      <leafValues>
        -1.4102025032043457e+00 7.1030378341674805e-02</leafValues></_>
    <_>
      <internalNodes>
        0 -1 26807 572523520 536100848 1073708927 712932660 259793940
        1056929653 1072963452 3677308</internalNodes>
      <leafValues>
        -1.3869432210922241e+00 7.6964884996414185e-02</leafValues></_></weakClassifiers></stage7>
</opencv_storage>
