<?xml version="1.0"?>
<opencv_storage>
<stage3>
  <maxWeakCount>22</maxWeakCount>
  <stageThreshold>-1.4870198965072632e+00</stageThreshold>
  <weakClassifiers>
    <_>
      <internalNodes>
        0 -1 168 -1 -1 -1 -1 -1 -1 -1 2147483647</internalNodes>
      <leafValues>
        -6.8003290891647339e-01 3.7358540296554565e-01</leafValues></_>
    <_>
      <internalNodes>
        0 -1 49909 -10 -1073741825 -1 1073741823 -3 -1 -1 251625471</internalNodes>
      <leafValues>
        -3.1420201063156128e-01 3.2978779077529907e-01</leafValues></_>
    <_>
      <internalNodes>
        0 -1 13868 -82 -1 -1 -1 -1 -1 -1 1425539071</internalNodes>
      <leafValues>
        -2.4458545446395874e-01 3.0296730995178223e-01</leafValues></_>
    <_>
      <internalNodes>
        0 -1 1554 2147368958 2147418111 -1 2147418111 2147450879
        2147483647 2147450879 1073709055</internalNodes>
      <leafValues>
        -2.8710383176803589e-01 2.5338080525398254e-01</leafValues></_>
    <_>
      <internalNodes>
        0 -1 56716 -285216986 788463615 -16777242 -1560346626 2147450693
        1971322743 2147481460 1962213238</internalNodes>
      <leafValues>
        -4.8503178358078003e-01 1.5232391655445099e-01</leafValues></_>
    <_>
      <internalNodes>
        0 -1 21021 -1 -268435457 -1 -16777217 -1 2147483647 -1
        -134217729</internalNodes>
      <leafValues>
        -1.9198317825794220e-01 3.1203246116638184e-01</leafValues></_>
    <_>
      <internalNodes>
        0 -1 50856 1073725438 1073676287 -1 -1 -1 -1 2147450877
        2147483647</internalNodes>
      <leafValues>
        -1.3050639629364014e-01 3.3985567092895508e-01</leafValues></_>
    <_>
      <internalNodes>
        0 -1 67182 -3 -1 -1 -1 -1 -1 -1 -1073774593</internalNodes>
      <leafValues>
        -1.2481976300477982e-01 3.6996746063232422e-01</leafValues></_>
    <_>
      <internalNodes>
        0 -1 34589 805191542 2147483647 -1 -65537 2147450877 -1
        2147450879 536838142</internalNodes>
      <leafValues>
        -2.1420156955718994e-01 1.9244708120822906e-01</leafValues></_>
    <_>
      <internalNodes>
        0 -1 37494 1614554660 1014771500 2147479421 787914596 -151052620
        2113879998 -16827138 9264</internalNodes>
      <leafValues>
        -8.1382781267166138e-01 5.7363808155059814e-02</leafValues></_>
    <_>
      <internalNodes>
        0 -1 24091 -1358975482 720302062 -285217042 586088190 2147448644
        1182793599 2147448693 1417148407</internalNodes>
      <leafValues>
        -7.3249346017837524e-01 7.3785595595836639e-02</leafValues></_>
    <_>
      <internalNodes>
        0 -1 38691 666503840 571616952 805306364 721305340 670502004
        750075757 788398340 3421237</internalNodes>
      <leafValues>
        -1.2378736734390259e+00 5.1297411322593689e-02</leafValues></_>
    <_>
      <internalNodes>
        0 -1 1196 653003298 778448864 -1896450336 -1364033742 653395716
        1148352304 125060416 1050176</internalNodes>
      <leafValues>
        -1.5011855363845825e+00 4.1219759732484818e-02</leafValues></_>
    <_>
      <internalNodes>
        0 -1 53341 -18 -1 -1 -16777217 -129 -1 -1 1962409983</internalNodes>
      <leafValues>
        -1.3251659274101257e-01 2.7797210216522217e-01</leafValues></_>
    <_>
      <internalNodes>
        0 -1 58221 780021282 250280812 -1358954974 586088446 1467971393
        1165492071 1962890352 1144026916</internalNodes>
      <leafValues>
        -9.4064456224441528e-01 5.1564108580350876e-02</leafValues></_>
    <_>
      <internalNodes>
        0 -1 22333 241739296 262467504 2146893812 -1461010464 1173639028
        97314678 2145732432 0</internalNodes>
      <leafValues>
        -8.7022519111633301e-01 5.0861034542322159e-02</leafValues></_>
    <_>
      <internalNodes>
        0 -1 40631 745930752 548408864 1861140044 204385296 800457984
        74858272 1047934208 4486400</internalNodes>
      <leafValues>
        -1.2973046302795410e+00 4.1434492915868759e-02</leafValues></_>
    <_>
      <internalNodes>
        0 -1 8748 783165984 721351410 -8505824 1648424818 930551136
        645365622 2012501856 1112569200</internalNodes>
      <leafValues>
        -8.4907346963882446e-01 4.4898979365825653e-02</leafValues></_>
    <_>
      <internalNodes>
        0 -1 51 -4 -1 -1 -1 -1 -1 -1 2147368959</internalNodes>
      <leafValues>
        -1.5860012173652649e-01 2.2955767810344696e-01</leafValues></_>
    <_>
      <internalNodes>
        0 -1 51040 168823904 922230781 -81924 1056718836 536625108
        -65537 1073487740 3411248</internalNodes>
      <leafValues>
        -9.9169260263442993e-01 4.7412812709808350e-02</leafValues></_>
    <_>
      <internalNodes>
        0 -1 42880 -1 -1 -1 -1 -1 -1 -1 2147483647</internalNodes>
      <leafValues>
        6.3343152403831482e-02 -6.1053532361984253e-01</leafValues></_>
    <_>
      <internalNodes>
        0 -1 30025 540558336 11298344 989789812 715816500 1694268436
        -2130726988 1023180198 1056</internalNodes>
      <leafValues>
        -1.8091471195220947e+00 3.6137975752353668e-02</leafValues></_></weakClassifiers></stage3>
</opencv_storage>
