<?xml version="1.0"?>
<opencv_storage>
<stage2>
  <maxWeakCount>69</maxWeakCount>
  <stageThreshold>-1.7527511119842529e+00</stageThreshold>
  <weakClassifiers>
    <_>
      <internalNodes>
        0 -1 36 3.5525575280189514e-02</internalNodes>
      <leafValues>
        -4.9197724461555481e-01 2.9598635435104370e-01</leafValues></_>
    <_>
      <internalNodes>
        0 -1 268 4.6958126127719879e-02</internalNodes>
      <leafValues>
        -1.6848455369472504e-01 5.9296911954879761e-01</leafValues></_>
    <_>
      <internalNodes>
        0 -1 12 2.6630442589521408e-02</internalNodes>
      <leafValues>
        -3.5197344422340393e-01 2.3414061963558197e-01</leafValues></_>
    <_>
      <internalNodes>
        0 -1 297 3.3925902098417282e-02</internalNodes>
      <leafValues>
        -1.7370295524597168e-01 3.8652282953262329e-01</leafValues></_>
    <_>
      <internalNodes>
        0 -1 122 1.6853440552949905e-02</internalNodes>
      <leafValues>
        -2.8666514158248901e-01 1.8928450345993042e-01</leafValues></_>
    <_>
      <internalNodes>
        0 -1 31 7.0987939834594727e-03</internalNodes>
      <leafValues>
        4.2035976052284241e-01 -1.1221911758184433e-01</leafValues></_>
    <_>
      <internalNodes>
        0 -1 78 5.1412470638751984e-02</internalNodes>
      <leafValues>
        -1.0820399224758148e-01 4.6407657861709595e-01</leafValues></_>
    <_>
      <internalNodes>
        0 -1 39 5.2307277917861938e-02</internalNodes>
      <leafValues>
        -1.7100770771503448e-01 3.0899098515510559e-01</leafValues></_>
    <_>
      <internalNodes>
        0 -1 159 3.3902410417795181e-02</internalNodes>
      <leafValues>
        -1.2274906039237976e-01 3.4480264782905579e-01</leafValues></_>
    <_>
      <internalNodes>
        0 -1 280 3.8557343184947968e-02</internalNodes>
      <leafValues>
        -1.4776046574115753e-01 4.0710210800170898e-01</leafValues></_>
    <_>
      <internalNodes>
        0 -1 264 1.9069561734795570e-02</internalNodes>
      <leafValues>
        -2.7400872111320496e-01 1.8112774193286896e-01</leafValues></_>
    <_>
      <internalNodes>
        0 -1 169 3.4463547170162201e-02</internalNodes>
      <leafValues>
        -1.2815093994140625e-01 2.8415781259536743e-01</leafValues></_>
    <_>
      <internalNodes>
        0 -1 145 5.4962210357189178e-02</internalNodes>
      <leafValues>
        -8.0263555049896240e-02 3.7391424179077148e-01</leafValues></_>
    <_>
      <internalNodes>
        0 -1 322 1.1307909153401852e-02</internalNodes>
      <leafValues>
        2.1025127172470093e-01 -1.5544757246971130e-01</leafValues></_>
    <_>
      <internalNodes>
        0 -1 323 1.4765021204948425e-01</internalNodes>
      <leafValues>
        2.9788145795464516e-02 -1.1068439483642578e+00</leafValues></_>
    <_>
      <internalNodes>
        0 -1 319 1.7173081636428833e-02</internalNodes>
      <leafValues>
        2.3124229907989502e-01 -1.4461198449134827e-01</leafValues></_>
    <_>
      <internalNodes>
        0 -1 144 1.1974240187555552e-03</internalNodes>
      <leafValues>
        4.3596667051315308e-01 -6.1742205172777176e-02</leafValues></_>
    <_>
      <internalNodes>
        0 -1 62 1.8229696899652481e-02</internalNodes>
      <leafValues>
        -1.8221232295036316e-01 1.6832616925239563e-01</leafValues></_>
    <_>
      <internalNodes>
        0 -1 111 7.2965491563081741e-03</internalNodes>
      <leafValues>
        -3.7409752607345581e-01 9.1529436409473419e-02</leafValues></_>
    <_>
      <internalNodes>
        0 -1 98 1.1277876794338226e-01</internalNodes>
      <leafValues>
        4.0371909737586975e-02 -7.2358971834182739e-01</leafValues></_>
    <_>
      <internalNodes>
        0 -1 106 3.7364659365266562e-03</internalNodes>
      <leafValues>
        3.1659445166587830e-01 -7.1565680205821991e-02</leafValues></_>
    <_>
      <internalNodes>
        0 -1 84 1.2519446015357971e-01</internalNodes>
      <leafValues>
        2.3744042962789536e-02 -1.1009224653244019e+00</leafValues></_>
    <_>
      <internalNodes>
        0 -1 300 5.9448249638080597e-02</internalNodes>
      <leafValues>
        -8.8876239955425262e-02 3.6345669627189636e-01</leafValues></_>
    <_>
      <internalNodes>
        0 -1 303 3.0240103602409363e-02</internalNodes>
      <leafValues>
        -1.2150983512401581e-01 2.1292029321193695e-01</leafValues></_>
    <_>
      <internalNodes>
        0 -1 234 4.3313607573509216e-02</internalNodes>
      <leafValues>
        -5.5016916245222092e-02 4.6125936508178711e-01</leafValues></_>
    <_>
      <internalNodes>
        0 -1 35 2.9436778277158737e-03</internalNodes>
      <leafValues>
        3.4807199239730835e-01 -7.2124503552913666e-02</leafValues></_>
    <_>
      <internalNodes>
        0 -1 262 4.7032505273818970e-02</internalNodes>
      <leafValues>
        -7.1086511015892029e-02 3.1012567877769470e-01</leafValues></_>
    <_>
      <internalNodes>
        0 -1 133 5.8586321771144867e-02</internalNodes>
      <leafValues>
        -4.3676920235157013e-02 4.4956436753273010e-01</leafValues></_>
    <_>
      <internalNodes>
        0 -1 14 4.8639684915542603e-02</internalNodes>
      <leafValues>
        -7.5149424374103546e-02 2.9600322246551514e-01</leafValues></_>
    <_>
      <internalNodes>
        0 -1 109 2.3534540086984634e-02</internalNodes>
      <leafValues>
        -1.3568183779716492e-01 1.4761997759342194e-01</leafValues></_>
    <_>
      <internalNodes>
        0 -1 185 5.2087116986513138e-02</internalNodes>
      <leafValues>
        -6.3108257949352264e-02 4.1082102060317993e-01</leafValues></_>
    <_>
      <internalNodes>
        0 -1 21 1.2534093856811523e-01</internalNodes>
      <leafValues>
        -3.3689558506011963e-02 6.6059112548828125e-01</leafValues></_>
    <_>
      <internalNodes>
        0 -1 54 2.9500015079975128e-02</internalNodes>
      <leafValues>
        -8.6628787219524384e-02 2.3398558795452118e-01</leafValues></_>
    <_>
      <internalNodes>
        0 -1 96 3.4080281853675842e-02</internalNodes>
      <leafValues>
        -8.7029077112674713e-02 2.3790757358074188e-01</leafValues></_>
    <_>
      <internalNodes>
        0 -1 52 8.9059427380561829e-02</internalNodes>
      <leafValues>
        -2.8338264673948288e-02 9.4602108001708984e-01</leafValues></_>
    <_>
      <internalNodes>
        0 -1 115 1.3624547980725765e-02</internalNodes>
      <leafValues>
        1.3602881133556366e-01 -1.5898738801479340e-01</leafValues></_>
    <_>
      <internalNodes>
        0 -1 252 2.9111990705132484e-02</internalNodes>
      <leafValues>
        -8.4146298468112946e-02 2.4934253096580505e-01</leafValues></_>
    <_>
      <internalNodes>
        0 -1 314 1.4671421051025391e-01</internalNodes>
      <leafValues>
        2.0830569788813591e-02 -1.1864565610885620e+00</leafValues></_>
    <_>
      <internalNodes>
        0 -1 17 3.8865553215146065e-03</internalNodes>
      <leafValues>
        2.3116047680377960e-01 -6.4700901508331299e-02</leafValues></_>
    <_>
      <internalNodes>
        0 -1 197 3.5874255001544952e-02</internalNodes>
      <leafValues>
        -8.3334937691688538e-02 1.8722918629646301e-01</leafValues></_>
    <_>
      <internalNodes>
        0 -1 219 4.0846019983291626e-03</internalNodes>
      <leafValues>
        -3.1965905427932739e-01 4.6934522688388824e-02</leafValues></_>
    <_>
      <internalNodes>
        0 -1 0 4.4517621397972107e-02</internalNodes>
      <leafValues>
        -5.9405140578746796e-02 2.7286607027053833e-01</leafValues></_>
    <_>
      <internalNodes>
        0 -1 87 5.1662158221006393e-02</internalNodes>
      <leafValues>
        -4.5431572943925858e-02 3.9878147840499878e-01</leafValues></_>
    <_>
      <internalNodes>
        0 -1 75 1.2800315394997597e-02</internalNodes>
      <leafValues>
        -2.2280967235565186e-01 7.5336351990699768e-02</leafValues></_>
    <_>
      <internalNodes>
        0 -1 146 7.5677956920117140e-04</internalNodes>
      <leafValues>
        4.7006383538246155e-01 -3.7957094609737396e-02</leafValues></_>
    <_>
      <internalNodes>
        0 -1 183 1.4685213565826416e-01</internalNodes>
      <leafValues>
        2.0693173632025719e-02 -1.0947684049606323e+00</leafValues></_>
    <_>
      <internalNodes>
        0 -1 141 1.6998942010104656e-03</internalNodes>
      <leafValues>
        2.9470747709274292e-01 -4.4431738555431366e-02</leafValues></_>
    <_>
      <internalNodes>
        0 -1 123 2.2773720324039459e-02</internalNodes>
      <leafValues>
        -1.2476729601621628e-01 1.2402816116809845e-01</leafValues></_>
    <_>
      <internalNodes>
        0 -1 192 1.3352835550904274e-02</internalNodes>
      <leafValues>
        -1.7685346305370331e-01 8.1909708678722382e-02</leafValues></_>
    <_>
      <internalNodes>
        0 -1 208 3.7621907889842987e-02</internalNodes>
      <leafValues>
        -6.1597134917974472e-02 2.1596273779869080e-01</leafValues></_>
    <_>
      <internalNodes>
        0 -1 181 4.7962665557861328e-02</internalNodes>
      <leafValues>
        -6.4659193158149719e-02 2.4327372014522552e-01</leafValues></_>
    <_>
      <internalNodes>
        0 -1 59 3.3072680234909058e-02</internalNodes>
      <leafValues>
        -7.4463345110416412e-02 2.2276104986667633e-01</leafValues></_>
    <_>
      <internalNodes>
        0 -1 119 1.2244391441345215e-01</internalNodes>
      <leafValues>
        1.4164624735713005e-02 -1.3789601325988770e+00</leafValues></_>
    <_>
      <internalNodes>
        0 -1 321 4.2983544990420341e-03</internalNodes>
      <leafValues>
        2.0662000775337219e-01 -7.0452086627483368e-02</leafValues></_>
    <_>
      <internalNodes>
        0 -1 80 2.2392148151993752e-02</internalNodes>
      <leafValues>
        -1.1940356343984604e-01 1.1909943073987961e-01</leafValues></_>
    <_>
      <internalNodes>
        0 -1 36 3.5779975354671478e-02</internalNodes>
      <leafValues>
        7.1951918303966522e-02 -2.0392940938472748e-01</leafValues></_>
    <_>
      <internalNodes>
        0 -1 31 4.0605921298265457e-02</internalNodes>
      <leafValues>
        6.7416794598102570e-02 -2.1464636921882629e-01</leafValues></_>
    <_>
      <internalNodes>
        0 -1 164 6.5851323306560516e-02</internalNodes>
      <leafValues>
        2.4194862693548203e-02 -6.2111389636993408e-01</leafValues></_>
    <_>
      <internalNodes>
        0 -1 17 4.6140596270561218e-02</internalNodes>
      <leafValues>
        4.3815020471811295e-02 -3.4882688522338867e-01</leafValues></_>
    <_>
      <internalNodes>
        0 -1 114 9.1251190751791000e-03</internalNodes>
      <leafValues>
        1.4911715686321259e-01 -9.9621750414371490e-02</leafValues></_>
    <_>
      <internalNodes>
        0 -1 287 1.0174916684627533e-01</internalNodes>
      <leafValues>
        2.4308040738105774e-02 -5.8478647470474243e-01</leafValues></_>
    <_>
      <internalNodes>
        0 -1 132 5.0720227882266045e-03</internalNodes>
      <leafValues>
        2.0592513680458069e-01 -7.0623427629470825e-02</leafValues></_>
    <_>
      <internalNodes>
        0 -1 319 1.4664763212203979e-01</internalNodes>
      <leafValues>
        1.6350159421563148e-02 -1.4921318292617798e+00</leafValues></_>
    <_>
      <internalNodes>
        0 -1 208 1.0853004641830921e-03</internalNodes>
      <leafValues>
        4.4685941934585571e-01 -3.5948395729064941e-02</leafValues></_>
    <_>
      <internalNodes>
        0 -1 54 8.5712019354104996e-03</internalNodes>
      <leafValues>
        -1.7020934820175171e-01 7.8217133879661560e-02</leafValues></_>
    <_>
      <internalNodes>
        0 -1 135 4.5557841658592224e-02</internalNodes>
      <leafValues>
        -4.9162007868289948e-02 2.7412089705467224e-01</leafValues></_>
    <_>
      <internalNodes>
        0 -1 26 1.8356135487556458e-01</internalNodes>
      <leafValues>
        1.3056585565209389e-02 -1.3390487432479858e+00</leafValues></_>
    <_>
      <internalNodes>
        0 -1 29 3.6487478064373136e-04</internalNodes>
      <leafValues>
        4.9521419405937195e-01 -2.6109412312507629e-02</leafValues></_>
    <_>
      <internalNodes>
        0 -1 230 1.4631336927413940e-01</internalNodes>
      <leafValues>
        1.4799057506024837e-02 -8.9947575330734253e-01</leafValues></_></weakClassifiers></stage2>
</opencv_storage>
