<?xml version="1.0"?>
<opencv_storage>
<stage4>
  <maxWeakCount>100</maxWeakCount>
  <stageThreshold>-1.6238119602203369e+00</stageThreshold>
  <weakClassifiers>
    <_>
      <internalNodes>
        0 -1 36 4.4461704790592194e-02</internalNodes>
      <leafValues>
        -4.3505153059959412e-01 3.2032161951065063e-01</leafValues></_>
    <_>
      <internalNodes>
        0 -1 123 1.6212664544582367e-02</internalNodes>
      <leafValues>
        -3.7534835934638977e-01 2.2621583938598633e-01</leafValues></_>
    <_>
      <internalNodes>
        0 -1 305 3.1676020473241806e-02</internalNodes>
      <leafValues>
        -2.3100982606410980e-01 2.5902575254440308e-01</leafValues></_>
    <_>
      <internalNodes>
        0 -1 109 3.2166667282581329e-02</internalNodes>
      <leafValues>
        -1.8956331908702850e-01 2.5517222285270691e-01</leafValues></_>
    <_>
      <internalNodes>
        0 -1 52 4.1921082884073257e-03</internalNodes>
      <leafValues>
        3.8050720095634460e-01 -9.0164780616760254e-02</leafValues></_>
    <_>
      <internalNodes>
        0 -1 273 3.8154799491167068e-02</internalNodes>
      <leafValues>
        6.5249470062553883e-03 -4.9475011229515076e-01</leafValues></_>
    <_>
      <internalNodes>
        0 -1 210 5.7284496724605560e-03</internalNodes>
      <leafValues>
        -2.6642790436744690e-01 1.3349276781082153e-01</leafValues></_>
    <_>
      <internalNodes>
        0 -1 36 4.4341802597045898e-02</internalNodes>
      <leafValues>
        7.8107848763465881e-02 -2.8171551227569580e-01</leafValues></_>
    <_>
      <internalNodes>
        0 -1 255 2.1134409308433533e-01</internalNodes>
      <leafValues>
        2.0877659320831299e-02 -1.7096345424652100e+00</leafValues></_>
    <_>
      <internalNodes>
        0 -1 296 4.9815056845545769e-03</internalNodes>
      <leafValues>
        2.9705572128295898e-01 -8.8916882872581482e-02</leafValues></_>
    <_>
      <internalNodes>
        0 -1 26 6.8876203149557114e-03</internalNodes>
      <leafValues>
        -2.6784527301788330e-01 5.8528356254100800e-02</leafValues></_>
    <_>
      <internalNodes>
        0 -1 75 3.9302535355091095e-02</internalNodes>
      <leafValues>
        -1.2382566928863525e-01 1.7856344580650330e-01</leafValues></_>
    <_>
      <internalNodes>
        0 -1 96 4.9256157130002975e-02</internalNodes>
      <leafValues>
        -4.8928722739219666e-02 3.3207517862319946e-01</leafValues></_>
    <_>
      <internalNodes>
        0 -1 287 1.1878448724746704e-01</internalNodes>
      <leafValues>
        2.4257523939013481e-02 -9.0859818458557129e-01</leafValues></_>
    <_>
      <internalNodes>
        0 -1 304 5.8975420892238617e-02</internalNodes>
      <leafValues>
        -6.1490911990404129e-02 3.5579174757003784e-01</leafValues></_>
    <_>
      <internalNodes>
        0 -1 298 4.4093020260334015e-02</internalNodes>
      <leafValues>
        -8.6995624005794525e-02 2.0073509216308594e-01</leafValues></_>
    <_>
      <internalNodes>
        0 -1 221 3.2519489526748657e-02</internalNodes>
      <leafValues>
        -1.0008584707975388e-01 1.6446836292743683e-01</leafValues></_>
    <_>
      <internalNodes>
        0 -1 315 6.5297052264213562e-02</internalNodes>
      <leafValues>
        -3.9786845445632935e-02 4.0338921546936035e-01</leafValues></_>
    <_>
      <internalNodes>
        0 -1 78 7.7334314584732056e-02</internalNodes>
      <leafValues>
        -3.9807025343179703e-02 4.0874615311622620e-01</leafValues></_>
    <_>
      <internalNodes>
        0 -1 120 7.5139150023460388e-02</internalNodes>
      <leafValues>
        -5.0549190491437912e-02 2.9039499163627625e-01</leafValues></_>
    <_>
      <internalNodes>
        0 -1 55 1.5127385966479778e-02</internalNodes>
      <leafValues>
        -1.3342672586441040e-01 1.2308669835329056e-01</leafValues></_>
    <_>
      <internalNodes>
        0 -1 52 5.4187674075365067e-02</internalNodes>
      <leafValues>
        -3.6397662013769150e-02 4.3724226951599121e-01</leafValues></_>
    <_>
      <internalNodes>
        0 -1 188 5.6905247271060944e-02</internalNodes>
      <leafValues>
        -5.6371375918388367e-02 2.5930026173591614e-01</leafValues></_>
    <_>
      <internalNodes>
        0 -1 135 4.8246782273054123e-02</internalNodes>
      <leafValues>
        -5.1829915493726730e-02 2.9924437403678894e-01</leafValues></_>
    <_>
      <internalNodes>
        0 -1 17 1.3228787109255791e-02</internalNodes>
      <leafValues>
        1.2054433673620224e-01 -1.3493536412715912e-01</leafValues></_>
    <_>
      <internalNodes>
        0 -1 305 3.1638503074645996e-02</internalNodes>
      <leafValues>
        9.7468227148056030e-02 -1.4255131781101227e-01</leafValues></_>
    <_>
      <internalNodes>
        0 -1 8 3.3214423805475235e-02</internalNodes>
      <leafValues>
        -7.2208531200885773e-02 1.9949309527873993e-01</leafValues></_>
    <_>
      <internalNodes>
        0 -1 113 8.3786167204380035e-02</internalNodes>
      <leafValues>
        2.8101781383156776e-02 -5.1475989818572998e-01</leafValues></_>
    <_>
      <internalNodes>
        0 -1 76 2.5317832827568054e-02</internalNodes>
      <leafValues>
        -1.3389228284358978e-01 9.1704256832599640e-02</leafValues></_>
    <_>
      <internalNodes>
        0 -1 12 4.8867953009903431e-03</internalNodes>
      <leafValues>
        -3.5140392184257507e-01 3.3292617648839951e-02</leafValues></_>
    <_>
      <internalNodes>
        0 -1 51 6.6548906266689301e-02</internalNodes>
      <leafValues>
        -3.9735186845064163e-02 2.9132595658302307e-01</leafValues></_>
    <_>
      <internalNodes>
        0 -1 169 5.9257794171571732e-02</internalNodes>
      <leafValues>
        -3.5265419632196426e-02 3.0935913324356079e-01</leafValues></_>
    <_>
      <internalNodes>
        0 -1 320 1.1774544604122639e-02</internalNodes>
      <leafValues>
        1.0120579600334167e-01 -1.0757999122142792e-01</leafValues></_>
    <_>
      <internalNodes>
        0 -1 250 3.0711791478097439e-03</internalNodes>
      <leafValues>
        -2.5324657559394836e-01 4.5650042593479156e-02</leafValues></_>
    <_>
      <internalNodes>
        0 -1 252 4.0996119379997253e-02</internalNodes>
      <leafValues>
        -4.3245222419500351e-02 2.5233957171440125e-01</leafValues></_>
    <_>
      <internalNodes>
        0 -1 300 1.6915824264287949e-02</internalNodes>
      <leafValues>
        -1.6957879066467285e-01 7.3624871671199799e-02</leafValues></_>
    <_>
      <internalNodes>
        0 -1 110 6.0457527637481689e-02</internalNodes>
      <leafValues>
        -5.9178072959184647e-02 1.9368837773799896e-01</leafValues></_>
    <_>
      <internalNodes>
        0 -1 261 3.9571195840835571e-02</internalNodes>
      <leafValues>
        -5.9974495321512222e-02 2.1533106267452240e-01</leafValues></_>
    <_>
      <internalNodes>
        0 -1 119 7.6466098427772522e-02</internalNodes>
      <leafValues>
        2.6381483301520348e-02 -4.4167828559875488e-01</leafValues></_>
    <_>
      <internalNodes>
        0 -1 274 1.3756024418398738e-04</internalNodes>
      <leafValues>
        -1.0430046319961548e+00 1.5033246949315071e-02</leafValues></_>
    <_>
      <internalNodes>
        0 -1 31 3.4659744706004858e-03</internalNodes>
      <leafValues>
        2.9063010215759277e-01 -4.3218955397605896e-02</leafValues></_>
    <_>
      <internalNodes>
        0 -1 147 5.1940266042947769e-02</internalNodes>
      <leafValues>
        -7.1135558187961578e-02 1.6513369977474213e-01</leafValues></_>
    <_>
      <internalNodes>
        0 -1 291 1.7416825890541077e-01</internalNodes>
      <leafValues>
        8.5760364308953285e-03 -1.5513927936553955e+00</leafValues></_>
    <_>
      <internalNodes>
        0 -1 57 1.2319505214691162e-02</internalNodes>
      <leafValues>
        -1.3058687746524811e-01 8.0872759222984314e-02</leafValues></_>
    <_>
      <internalNodes>
        0 -1 163 1.5644180821254849e-03</internalNodes>
      <leafValues>
        3.0474016070365906e-01 -4.3796665966510773e-02</leafValues></_>
    <_>
      <internalNodes>
        0 -1 259 3.9668027311563492e-03</internalNodes>
      <leafValues>
        -1.7855088412761688e-01 6.0099106281995773e-02</leafValues></_>
    <_>
      <internalNodes>
        0 -1 216 5.1024155691266060e-03</internalNodes>
      <leafValues>
        1.7590276896953583e-01 -6.7390061914920807e-02</leafValues></_>
    <_>
      <internalNodes>
        0 -1 145 5.7689860463142395e-02</internalNodes>
      <leafValues>
        -5.9702891856431961e-02 2.1002687513828278e-01</leafValues></_>
    <_>
      <internalNodes>
        0 -1 93 1.0363328456878662e-01</internalNodes>
      <leafValues>
        1.8315343186259270e-02 -6.4365077018737793e-01</leafValues></_>
    <_>
      <internalNodes>
        0 -1 112 1.4621704816818237e-01</internalNodes>
      <leafValues>
        1.7531827092170715e-02 -8.3131575584411621e-01</leafValues></_>
    <_>
      <internalNodes>
        0 -1 144 2.0306925289332867e-03</internalNodes>
      <leafValues>
        2.2890913486480713e-01 -4.3791208416223526e-02</leafValues></_>
    <_>
      <internalNodes>
        0 -1 264 6.7094381665810943e-04</internalNodes>
      <leafValues>
        -5.2825164794921875e-01 1.8563980236649513e-02</leafValues></_>
    <_>
      <internalNodes>
        0 -1 194 1.6090670228004456e-01</internalNodes>
      <leafValues>
        1.0799417272210121e-02 -1.8555799722671509e+00</leafValues></_>
    <_>
      <internalNodes>
        0 -1 257 6.7619547247886658e-02</internalNodes>
      <leafValues>
        -3.6132980138063431e-02 2.7147206664085388e-01</leafValues></_>
    <_>
      <internalNodes>
        0 -1 214 2.4007558822631836e-02</internalNodes>
      <leafValues>
        6.2075506895780563e-02 -1.7001122236251831e-01</leafValues></_>
    <_>
      <internalNodes>
        0 -1 268 4.9897059798240662e-02</internalNodes>
      <leafValues>
        -5.2698422223329544e-02 2.0893117785453796e-01</leafValues></_>
    <_>
      <internalNodes>
        0 -1 263 1.3234204053878784e-01</internalNodes>
      <leafValues>
        9.8422523587942123e-03 -1.2303124666213989e+00</leafValues></_>
    <_>
      <internalNodes>
        0 -1 196 1.6843734774738550e-03</internalNodes>
      <leafValues>
        2.7537801861763000e-01 -3.6201819777488708e-02</leafValues></_>
    <_>
      <internalNodes>
        0 -1 277 2.3088434711098671e-02</internalNodes>
      <leafValues>
        -6.8929396569728851e-02 1.4703501760959625e-01</leafValues></_>
    <_>
      <internalNodes>
        0 -1 297 8.8056318461894989e-02</internalNodes>
      <leafValues>
        -2.2443499416112900e-02 4.4350934028625488e-01</leafValues></_>
    <_>
      <internalNodes>
        0 -1 269 1.2928213179111481e-01</internalNodes>
      <leafValues>
        1.6008451581001282e-02 -5.7404464483261108e-01</leafValues></_>
    <_>
      <internalNodes>
        0 -1 147 1.7159721255302429e-01</internalNodes>
      <leafValues>
        1.4990335330367088e-02 -8.1067436933517456e-01</leafValues></_>
    <_>
      <internalNodes>
        0 -1 114 8.1749039236456156e-04</internalNodes>
      <leafValues>
        2.9375016689300537e-01 -3.2230712473392487e-02</leafValues></_>
    <_>
      <internalNodes>
        0 -1 274 6.5089367330074310e-02</internalNodes>
      <leafValues>
        2.5581063702702522e-02 -3.6888581514358521e-01</leafValues></_>
    <_>
      <internalNodes>
        0 -1 63 1.5772266779094934e-03</internalNodes>
      <leafValues>
        2.6959010958671570e-01 -3.9916951209306717e-02</leafValues></_>
    <_>
      <internalNodes>
        0 -1 103 6.4940340816974640e-03</internalNodes>
      <leafValues>
        -2.5059977173805237e-01 4.2469557374715805e-02</leafValues></_>
    <_>
      <internalNodes>
        0 -1 316 5.0273155793547630e-03</internalNodes>
      <leafValues>
        1.8510279059410095e-01 -4.7324564307928085e-02</leafValues></_>
    <_>
      <internalNodes>
        0 -1 208 3.1044626608490944e-02</internalNodes>
      <leafValues>
        -6.6406793892383575e-02 1.2505017220973969e-01</leafValues></_>
    <_>
      <internalNodes>
        0 -1 317 1.0366538166999817e-01</internalNodes>
      <leafValues>
        1.6326084733009338e-02 -6.7652297019958496e-01</leafValues></_>
    <_>
      <internalNodes>
        0 -1 98 1.6860790550708771e-02</internalNodes>
      <leafValues>
        -1.0106847435235977e-01 8.1934638321399689e-02</leafValues></_>
    <_>
      <internalNodes>
        0 -1 107 2.2073257714509964e-02</internalNodes>
      <leafValues>
        7.9125165939331055e-02 -1.1957002431154251e-01</leafValues></_>
    <_>
      <internalNodes>
        0 -1 108 3.8904208689928055e-02</internalNodes>
      <leafValues>
        -4.9786545336246490e-02 1.8439406156539917e-01</leafValues></_>
    <_>
      <internalNodes>
        0 -1 192 1.3451579958200455e-02</internalNodes>
      <leafValues>
        -1.4415214955806732e-01 6.6098369657993317e-02</leafValues></_>
    <_>
      <internalNodes>
        0 -1 303 2.5745779275894165e-02</internalNodes>
      <leafValues>
        -7.8588321805000305e-02 1.0243315994739532e-01</leafValues></_>
    <_>
      <internalNodes>
        0 -1 111 1.6108598792925477e-03</internalNodes>
      <leafValues>
        -3.9970159530639648e-01 2.1968804299831390e-02</leafValues></_>
    <_>
      <internalNodes>
        0 -1 43 5.7616189122200012e-02</internalNodes>
      <leafValues>
        -2.9884111136198044e-02 2.8410550951957703e-01</leafValues></_>
    <_>
      <internalNodes>
        0 -1 93 1.0855176486074924e-02</internalNodes>
      <leafValues>
        -1.2480412423610687e-01 6.7721150815486908e-02</leafValues></_>
    <_>
      <internalNodes>
        0 -1 75 1.5089595317840576e-01</internalNodes>
      <leafValues>
        -2.0932981744408607e-02 4.2132723331451416e-01</leafValues></_>
    <_>
      <internalNodes>
        0 -1 129 1.2801635265350342e-01</internalNodes>
      <leafValues>
        8.6853103712201118e-03 -1.2482348680496216e+00</leafValues></_>
    <_>
      <internalNodes>
        0 -1 186 2.5791402440518141e-03</internalNodes>
      <leafValues>
        2.3022122681140900e-01 -3.3910423517227173e-02</leafValues></_>
    <_>
      <internalNodes>
        0 -1 56 1.1027199029922485e-01</internalNodes>
      <leafValues>
        9.8322154954075813e-03 -1.0720891952514648e+00</leafValues></_>
    <_>
      <internalNodes>
        0 -1 321 3.3113271929323673e-03</internalNodes>
      <leafValues>
        1.7187875509262085e-01 -4.7357220202684402e-02</leafValues></_>
    <_>
      <internalNodes>
        0 -1 171 3.0890326946973801e-02</internalNodes>
      <leafValues>
        -6.3715465366840363e-02 1.3190437853336334e-01</leafValues></_>
    <_>
      <internalNodes>
        0 -1 77 4.4860459864139557e-02</internalNodes>
      <leafValues>
        -4.3778039515018463e-02 1.8314868211746216e-01</leafValues></_>
    <_>
      <internalNodes>
        0 -1 23 9.4939231872558594e-02</internalNodes>
      <leafValues>
        1.4909942634403706e-02 -6.5436947345733643e-01</leafValues></_>
    <_>
      <internalNodes>
        0 -1 49 3.7811570800840855e-03</internalNodes>
      <leafValues>
        3.4662202000617981e-01 -2.8392313048243523e-02</leafValues></_>
    <_>
      <internalNodes>
        0 -1 245 7.9564735293388367e-02</internalNodes>
      <leafValues>
        1.7768818885087967e-02 -4.5053768157958984e-01</leafValues></_>
    <_>
      <internalNodes>
        0 -1 55 1.0233469307422638e-01</internalNodes>
      <leafValues>
        1.1540490202605724e-02 -8.6254692077636719e-01</leafValues></_>
    <_>
      <internalNodes>
        0 -1 17 3.0569275841116905e-02</internalNodes>
      <leafValues>
        4.3578695505857468e-02 -1.8430683016777039e-01</leafValues></_>
    <_>
      <internalNodes>
        0 -1 184 1.5696796774864197e-01</internalNodes>
      <leafValues>
        7.0034698583185673e-03 -1.4463244676589966e+00</leafValues></_>
    <_>
      <internalNodes>
        0 -1 323 9.1947600245475769e-02</internalNodes>
      <leafValues>
        2.3796400055289268e-02 -3.7098336219787598e-01</leafValues></_>
    <_>
      <internalNodes>
        0 -1 253 1.3558116042986512e-03</internalNodes>
      <leafValues>
        2.2524070739746094e-01 -3.3732481300830841e-02</leafValues></_>
    <_>
      <internalNodes>
        0 -1 39 6.0053020715713501e-02</internalNodes>
      <leafValues>
        -5.9087917208671570e-02 1.3659594953060150e-01</leafValues></_>
    <_>
      <internalNodes>
        0 -1 4 4.6940550208091736e-02</internalNodes>
      <leafValues>
        6.0061350464820862e-02 -1.3965997099876404e-01</leafValues></_>
    <_>
      <internalNodes>
        0 -1 3 2.5361421704292297e-01</internalNodes>
      <leafValues>
        9.6780266612768173e-03 -1.3889139890670776e+00</leafValues></_>
    <_>
      <internalNodes>
        0 -1 119 1.2244221568107605e-01</internalNodes>
      <leafValues>
        1.0495333932340145e-02 -1.0357378721237183e+00</leafValues></_>
    <_>
      <internalNodes>
        0 -1 32 1.3367165811359882e-03</internalNodes>
      <leafValues>
        2.5257942080497742e-01 -2.8520792722702026e-02</leafValues></_>
    <_>
      <internalNodes>
        0 -1 155 7.4186602432746440e-05</internalNodes>
      <leafValues>
        -4.5946082472801208e-01 1.7390154302120209e-02</leafValues></_>
    <_>
      <internalNodes>
        0 -1 190 1.2670549750328064e-01</internalNodes>
      <leafValues>
        1.3928344473242760e-02 -6.5175145864486694e-01</leafValues></_>
    <_>
      <internalNodes>
        0 -1 319 5.6622931733727455e-03</internalNodes>
      <leafValues>
        1.9993208348751068e-01 -3.7126980721950531e-02</leafValues></_></weakClassifiers></stage4>
</opencv_storage>
