<?xml version="1.0"?>
<opencv_storage>
<stage5>
  <maxWeakCount>100</maxWeakCount>
  <stageThreshold>-1.6874824762344360e+00</stageThreshold>
  <weakClassifiers>
    <_>
      <internalNodes>
        0 -1 27 4.2938184924423695e-03</internalNodes>
      <leafValues>
        2.0494985580444336e-01 -4.3973839282989502e-01</leafValues></_>
    <_>
      <internalNodes>
        0 -1 297 2.9139062389731407e-02</internalNodes>
      <leafValues>
        -2.1877719461917877e-01 2.4695964157581329e-01</leafValues></_>
    <_>
      <internalNodes>
        0 -1 109 5.7432726025581360e-02</internalNodes>
      <leafValues>
        -1.2799544632434845e-01 3.6118477582931519e-01</leafValues></_>
    <_>
      <internalNodes>
        0 -1 122 3.7452686578035355e-02</internalNodes>
      <leafValues>
        -1.8999315798282623e-01 2.0503364503383636e-01</leafValues></_>
    <_>
      <internalNodes>
        0 -1 115 1.1411599814891815e-02</internalNodes>
      <leafValues>
        2.0363070070743561e-01 -1.9385100901126862e-01</leafValues></_>
    <_>
      <internalNodes>
        0 -1 44 3.0905324965715408e-02</internalNodes>
      <leafValues>
        -1.1502071470022202e-01 2.3554271459579468e-01</leafValues></_>
    <_>
      <internalNodes>
        0 -1 60 3.1117141246795654e-02</internalNodes>
      <leafValues>
        -1.4387521147727966e-01 1.7842140793800354e-01</leafValues></_>
    <_>
      <internalNodes>
        0 -1 213 1.4444587752223015e-02</internalNodes>
      <leafValues>
        1.6372436285018921e-01 -1.5482959151268005e-01</leafValues></_>
    <_>
      <internalNodes>
        0 -1 274 2.9403137043118477e-02</internalNodes>
      <leafValues>
        1.2060279399156570e-01 -2.4210159480571747e-01</leafValues></_>
    <_>
      <internalNodes>
        0 -1 111 1.0841709561645985e-02</internalNodes>
      <leafValues>
        -3.2762524485588074e-01 6.7105300724506378e-02</leafValues></_>
    <_>
      <internalNodes>
        0 -1 246 6.6229164600372314e-02</internalNodes>
      <leafValues>
        -5.7231295853853226e-02 3.8081142306327820e-01</leafValues></_>
    <_>
      <internalNodes>
        0 -1 123 2.2743307054042816e-02</internalNodes>
      <leafValues>
        -1.4763581752777100e-01 1.2125276774168015e-01</leafValues></_>
    <_>
      <internalNodes>
        0 -1 65 2.5563772767782211e-02</internalNodes>
      <leafValues>
        7.8656598925590515e-02 -2.4825444817543030e-01</leafValues></_>
    <_>
      <internalNodes>
        0 -1 280 4.1822433471679688e-02</internalNodes>
      <leafValues>
        -8.1430338323116302e-02 2.4474222958087921e-01</leafValues></_>
    <_>
      <internalNodes>
        0 -1 27 4.3145390227437019e-03</internalNodes>
      <leafValues>
        -2.2159253060817719e-01 7.9319983720779419e-02</leafValues></_>
    <_>
      <internalNodes>
        0 -1 107 1.5434416942298412e-02</internalNodes>
      <leafValues>
        1.5536138415336609e-01 -1.3487726449966431e-01</leafValues></_>
    <_>
      <internalNodes>
        0 -1 17 3.0414856970310211e-02</internalNodes>
      <leafValues>
        5.8962021023035049e-02 -2.8791776299476624e-01</leafValues></_>
    <_>
      <internalNodes>
        0 -1 98 1.6981822252273560e-01</internalNodes>
      <leafValues>
        2.2535866126418114e-02 -1.0215264558792114e+00</leafValues></_>
    <_>
      <internalNodes>
        0 -1 31 1.2037817388772964e-02</internalNodes>
      <leafValues>
        1.4863365888595581e-01 -9.9206805229187012e-02</leafValues></_>
    <_>
      <internalNodes>
        0 -1 246 4.4641806744039059e-03</internalNodes>
      <leafValues>
        -3.2439002394676208e-01 4.7268666326999664e-02</leafValues></_>
    <_>
      <internalNodes>
        0 -1 320 1.7029466107487679e-02</internalNodes>
      <leafValues>
        9.5727384090423584e-02 -1.5227921307086945e-01</leafValues></_>
    <_>
      <internalNodes>
        0 -1 303 3.0240338295698166e-02</internalNodes>
      <leafValues>
        -1.0126112401485443e-01 1.6066296398639679e-01</leafValues></_>
    <_>
      <internalNodes>
        0 -1 21 1.3550014793872833e-01</internalNodes>
      <leafValues>
        -2.4161454290151596e-02 7.6268947124481201e-01</leafValues></_>
    <_>
      <internalNodes>
        0 -1 4 7.7136553823947906e-02</internalNodes>
      <leafValues>
        4.2728561908006668e-02 -2.8224405646324158e-01</leafValues></_>
    <_>
      <internalNodes>
        0 -1 220 4.0763787925243378e-02</internalNodes>
      <leafValues>
        -1.1891307681798935e-01 1.3609969615936279e-01</leafValues></_>
    <_>
      <internalNodes>
        0 -1 209 1.2717124819755554e-01</internalNodes>
      <leafValues>
        1.4629454351961613e-02 -8.4061264991760254e-01</leafValues></_>
    <_>
      <internalNodes>
        0 -1 170 3.0339024306158535e-05</internalNodes>
      <leafValues>
        -7.0653474330902100e-01 1.6189698129892349e-02</leafValues></_>
    <_>
      <internalNodes>
        0 -1 198 3.9543220773339272e-03</internalNodes>
      <leafValues>
        2.2255876660346985e-01 -5.6896284222602844e-02</leafValues></_>
    <_>
      <internalNodes>
        0 -1 229 1.7362017929553986e-01</internalNodes>
      <leafValues>
        1.8432116135954857e-02 -7.0591449737548828e-01</leafValues></_>
    <_>
      <internalNodes>
        0 -1 316 5.6694081285968423e-04</internalNodes>
      <leafValues>
        4.3571373820304871e-01 -2.5300312787294388e-02</leafValues></_>
    <_>
      <internalNodes>
        0 -1 210 1.1947344755753875e-03</internalNodes>
      <leafValues>
        -4.1131865978240967e-01 3.5558726638555527e-02</leafValues></_>
    <_>
      <internalNodes>
        0 -1 32 2.2583333775401115e-03</internalNodes>
      <leafValues>
        2.3124311864376068e-01 -4.9271207302808762e-02</leafValues></_>
    <_>
      <internalNodes>
        0 -1 323 1.9753876328468323e-01</internalNodes>
      <leafValues>
        8.5335820913314819e-03 -1.9628487825393677e+00</leafValues></_>
    <_>
      <internalNodes>
        0 -1 319 1.0231764987111092e-02</internalNodes>
      <leafValues>
        1.6844177246093750e-01 -6.2186140567064285e-02</leafValues></_>
    <_>
      <internalNodes>
        0 -1 83 1.2664549984037876e-02</internalNodes>
      <leafValues>
        1.1341859400272369e-01 -8.9372478425502777e-02</leafValues></_>
    <_>
      <internalNodes>
        0 -1 120 1.1956902017118409e-04</internalNodes>
      <leafValues>
        -6.4163178205490112e-01 1.5830656513571739e-02</leafValues></_>
    <_>
      <internalNodes>
        0 -1 150 5.9041723608970642e-02</internalNodes>
      <leafValues>
        2.8838016092777252e-02 -3.4758284687995911e-01</leafValues></_>
    <_>
      <internalNodes>
        0 -1 145 1.0361452586948872e-03</internalNodes>
      <leafValues>
        3.0997377634048462e-01 -3.2781362533569336e-02</leafValues></_>
    <_>
      <internalNodes>
        0 -1 49 1.2740042805671692e-01</internalNodes>
      <leafValues>
        2.2778222337365150e-02 -4.9796214699745178e-01</leafValues></_>
    <_>
      <internalNodes>
        0 -1 39 1.3090495485812426e-04</internalNodes>
      <leafValues>
        -7.2534334659576416e-01 1.4061269350349903e-02</leafValues></_>
    <_>
      <internalNodes>
        0 -1 224 6.1991345137357712e-03</internalNodes>
      <leafValues>
        1.3802313804626465e-01 -6.0840692371129990e-02</leafValues></_>
    <_>
      <internalNodes>
        0 -1 62 1.3144881464540958e-02</internalNodes>
      <leafValues>
        -1.3524921238422394e-01 6.6698811948299408e-02</leafValues></_>
    <_>
      <internalNodes>
        0 -1 179 3.2557982194703072e-05</internalNodes>
      <leafValues>
        -6.1397773027420044e-01 1.3965304940938950e-02</leafValues></_>
    <_>
      <internalNodes>
        0 -1 63 1.7255435232073069e-03</internalNodes>
      <leafValues>
        2.4785183370113373e-01 -4.3686717748641968e-02</leafValues></_>
    <_>
      <internalNodes>
        0 -1 62 9.5830991864204407e-02</internalNodes>
      <leafValues>
        2.3582637310028076e-02 -4.2530384659767151e-01</leafValues></_>
    <_>
      <internalNodes>
        0 -1 248 9.8374217748641968e-02</internalNodes>
      <leafValues>
        1.5242218039929867e-02 -7.8758066892623901e-01</leafValues></_>
    <_>
      <internalNodes>
        0 -1 78 7.6247453689575195e-02</internalNodes>
      <leafValues>
        -2.9854062944650650e-02 2.9818636178970337e-01</leafValues></_>
    <_>
      <internalNodes>
        0 -1 214 9.9617354571819305e-03</internalNodes>
      <leafValues>
        1.0831884294748306e-01 -7.4394740164279938e-02</leafValues></_>
    <_>
      <internalNodes>
        0 -1 268 1.6383262351155281e-02</internalNodes>
      <leafValues>
        -1.1643336713314056e-01 7.5177624821662903e-02</leafValues></_>
    <_>
      <internalNodes>
        0 -1 91 6.8878412246704102e-02</internalNodes>
      <leafValues>
        1.7221132293343544e-02 -4.8126602172851562e-01</leafValues></_>
    <_>
      <internalNodes>
        0 -1 49 3.1812894158065319e-03</internalNodes>
      <leafValues>
        3.5312819480895996e-01 -2.7429983019828796e-02</leafValues></_>
    <_>
      <internalNodes>
        0 -1 31 3.3436761441407725e-05</internalNodes>
      <leafValues>
        -9.6153599023818970e-01 1.2629516422748566e-02</leafValues></_>
    <_>
      <internalNodes>
        0 -1 288 2.4572100490331650e-02</internalNodes>
      <leafValues>
        -6.4799562096595764e-02 1.2251280248165131e-01</leafValues></_>
    <_>
      <internalNodes>
        0 -1 39 5.4966997355222702e-02</internalNodes>
      <leafValues>
        -6.1738196760416031e-02 1.2896355986595154e-01</leafValues></_>
    <_>
      <internalNodes>
        0 -1 0 3.7991508841514587e-02</internalNodes>
      <leafValues>
        -5.7936005294322968e-02 1.5681757032871246e-01</leafValues></_>
    <_>
      <internalNodes>
        0 -1 109 1.2549641728401184e-01</internalNodes>
      <leafValues>
        1.9791048020124435e-02 -4.4060909748077393e-01</leafValues></_>
    <_>
      <internalNodes>
        0 -1 133 7.9197541344910860e-04</internalNodes>
      <leafValues>
        2.8428420424461365e-01 -3.1048486009240150e-02</leafValues></_>
    <_>
      <internalNodes>
        0 -1 25 7.1704208850860596e-02</internalNodes>
      <leafValues>
        -2.3596640676259995e-02 3.4478098154067993e-01</leafValues></_>
    <_>
      <internalNodes>
        0 -1 12 8.7667144834995270e-03</internalNodes>
      <leafValues>
        -2.1925604343414307e-01 3.7459630519151688e-02</leafValues></_>
    <_>
      <internalNodes>
        0 -1 112 1.5288361907005310e-01</internalNodes>
      <leafValues>
        1.1224403977394104e-02 -8.7077671289443970e-01</leafValues></_>
    <_>
      <internalNodes>
        0 -1 96 1.4176841359585524e-03</internalNodes>
      <leafValues>
        2.7995702624320984e-01 -2.7309354394674301e-02</leafValues></_>
    <_>
      <internalNodes>
        0 -1 93 8.6244024336338043e-02</internalNodes>
      <leafValues>
        1.8302705138921738e-02 -4.7609660029411316e-01</leafValues></_>
    <_>
      <internalNodes>
        0 -1 59 2.5407768785953522e-02</internalNodes>
      <leafValues>
        -6.6828384995460510e-02 1.1274649202823639e-01</leafValues></_>
    <_>
      <internalNodes>
        0 -1 144 6.9203734397888184e-02</internalNodes>
      <leafValues>
        -3.1883969902992249e-02 2.6017022132873535e-01</leafValues></_>
    <_>
      <internalNodes>
        0 -1 9 6.6164970397949219e-02</internalNodes>
      <leafValues>
        2.0120050758123398e-02 -3.9685770869255066e-01</leafValues></_>
    <_>
      <internalNodes>
        0 -1 52 8.6262688040733337e-02</internalNodes>
      <leafValues>
        -1.7396939918398857e-02 5.4187130928039551e-01</leafValues></_>
    <_>
      <internalNodes>
        0 -1 242 2.6877974160015583e-03</internalNodes>
      <leafValues>
        1.7579124867916107e-01 -4.4689036905765533e-02</leafValues></_>
    <_>
      <internalNodes>
        0 -1 145 4.2711759306257591e-05</internalNodes>
      <leafValues>
        -4.5019397139549255e-01 1.7693992704153061e-02</leafValues></_>
    <_>
      <internalNodes>
        0 -1 208 1.5230918070301414e-03</internalNodes>
      <leafValues>
        2.8466907143592834e-01 -2.6529425755143166e-02</leafValues></_>
    <_>
      <internalNodes>
        0 -1 171 1.2978919781744480e-02</internalNodes>
      <leafValues>
        -1.1877527832984924e-01 8.0860026180744171e-02</leafValues></_>
    <_>
      <internalNodes>
        0 -1 226 1.2375259399414062e-01</internalNodes>
      <leafValues>
        -1.2262281030416489e-02 7.3181843757629395e-01</leafValues></_>
    <_>
      <internalNodes>
        0 -1 92 3.3132827375084162e-03</internalNodes>
      <leafValues>
        1.9480982422828674e-01 -3.9217863231897354e-02</leafValues></_>
    <_>
      <internalNodes>
        0 -1 55 2.6412684470415115e-02</internalNodes>
      <leafValues>
        -6.7916482686996460e-02 1.4556483924388885e-01</leafValues></_>
    <_>
      <internalNodes>
        0 -1 193 1.3219213113188744e-02</internalNodes>
      <leafValues>
        -1.4479587972164154e-01 5.1346041262149811e-02</leafValues></_>
    <_>
      <internalNodes>
        0 -1 292 1.6226312518119812e-01</internalNodes>
      <leafValues>
        9.8182093352079391e-03 -1.1821513175964355e+00</leafValues></_>
    <_>
      <internalNodes>
        0 -1 111 4.0321875363588333e-02</internalNodes>
      <leafValues>
        -7.0348069071769714e-02 9.6858896315097809e-02</leafValues></_>
    <_>
      <internalNodes>
        0 -1 254 1.5851601958274841e-02</internalNodes>
      <leafValues>
        1.0621508955955505e-01 -7.6825998723506927e-02</leafValues></_>
    <_>
      <internalNodes>
        0 -1 254 1.1786608397960663e-01</internalNodes>
      <leafValues>
        -2.5590328499674797e-02 3.8553905487060547e-01</leafValues></_>
    <_>
      <internalNodes>
        0 -1 309 3.8396778982132673e-03</internalNodes>
      <leafValues>
        -1.9607706367969513e-01 4.3559271842241287e-02</leafValues></_>
    <_>
      <internalNodes>
        0 -1 7 6.3406273722648621e-02</internalNodes>
      <leafValues>
        -2.2743243724107742e-02 3.3505558967590332e-01</leafValues></_>
    <_>
      <internalNodes>
        0 -1 119 1.4333030581474304e-01</internalNodes>
      <leafValues>
        6.8158768117427826e-03 -1.9537044763565063e+00</leafValues></_>
    <_>
      <internalNodes>
        0 -1 109 2.3713562637567520e-02</internalNodes>
      <leafValues>
        -9.4827160239219666e-02 7.7839486300945282e-02</leafValues></_>
    <_>
      <internalNodes>
        0 -1 144 7.9441175330430269e-04</internalNodes>
      <leafValues>
        3.1339955329895020e-01 -2.9496114701032639e-02</leafValues></_>
    <_>
      <internalNodes>
        0 -1 316 1.4823026955127716e-01</internalNodes>
      <leafValues>
        1.2432313524186611e-02 -6.3630980253219604e-01</leafValues></_>
    <_>
      <internalNodes>
        0 -1 15 2.5979222846217453e-04</internalNodes>
      <leafValues>
        3.4416741132736206e-01 -2.1264381706714630e-02</leafValues></_>
    <_>
      <internalNodes>
        0 -1 188 7.2451461164746433e-05</internalNodes>
      <leafValues>
        -5.8657819032669067e-01 1.3013282790780067e-02</leafValues></_>
    <_>
      <internalNodes>
        0 -1 305 3.0713086947798729e-02</internalNodes>
      <leafValues>
        -7.3039390146732330e-02 8.3676569163799286e-02</leafValues></_>
    <_>
      <internalNodes>
        0 -1 264 4.8331860452890396e-02</internalNodes>
      <leafValues>
        -5.4392047226428986e-02 1.3051412999629974e-01</leafValues></_>
    <_>
      <internalNodes>
        0 -1 33 2.0542612299323082e-02</internalNodes>
      <leafValues>
        -5.8640461415052414e-02 1.2903916835784912e-01</leafValues></_>
    <_>
      <internalNodes>
        0 -1 231 4.7456026077270508e-02</internalNodes>
      <leafValues>
        -5.5985141545534134e-02 1.4887644350528717e-01</leafValues></_>
    <_>
      <internalNodes>
        0 -1 142 1.2446140870451927e-02</internalNodes>
      <leafValues>
        8.9278608560562134e-02 -8.5172727704048157e-02</leafValues></_>
    <_>
      <internalNodes>
        0 -1 318 1.2792286276817322e-01</internalNodes>
      <leafValues>
        1.4441896229982376e-02 -7.3894011974334717e-01</leafValues></_>
    <_>
      <internalNodes>
        0 -1 230 2.0742157474160194e-02</internalNodes>
      <leafValues>
        9.0553037822246552e-02 -8.4413155913352966e-02</leafValues></_>
    <_>
      <internalNodes>
        0 -1 122 6.2701753340661526e-03</internalNodes>
      <leafValues>
        -2.2859120368957520e-01 4.2326111346483231e-02</leafValues></_>
    <_>
      <internalNodes>
        0 -1 177 6.4284011721611023e-02</internalNodes>
      <leafValues>
        1.4053073711693287e-02 -5.1552951335906982e-01</leafValues></_>
    <_>
      <internalNodes>
        0 -1 277 5.7623364031314850e-02</internalNodes>
      <leafValues>
        -2.0287871360778809e-02 3.3689934015274048e-01</leafValues></_>
    <_>
      <internalNodes>
        0 -1 163 7.2497054934501648e-02</internalNodes>
      <leafValues>
        1.4188201166689396e-02 -4.6033892035484314e-01</leafValues></_>
    <_>
      <internalNodes>
        0 -1 54 2.8726151213049889e-02</internalNodes>
      <leafValues>
        -5.3064495325088501e-02 1.1415109038352966e-01</leafValues></_>
    <_>
      <internalNodes>
        0 -1 91 8.2337167114019394e-03</internalNodes>
      <leafValues>
        1.0500270873308182e-01 -6.0196194797754288e-02</leafValues></_>
    <_>
      <internalNodes>
        0 -1 313 7.3123373091220856e-02</internalNodes>
      <leafValues>
        1.5503283590078354e-02 -5.3281176090240479e-01</leafValues></_></weakClassifiers></stage5>
</opencv_storage>
