<?xml version="1.0"?>
<opencv_storage>
<stage6>
  <maxWeakCount>100</maxWeakCount>
  <stageThreshold>-1.6912268400192261e+00</stageThreshold>
  <weakClassifiers>
    <_>
      <internalNodes>
        0 -1 35 4.6032979153096676e-03</internalNodes>
      <leafValues>
        1.5002518892288208e-01 -4.3125942349433899e-01</leafValues></_>
    <_>
      <internalNodes>
        0 -1 31 9.9598327651619911e-03</internalNodes>
      <leafValues>
        3.1328734755516052e-01 -1.8071213364601135e-01</leafValues></_>
    <_>
      <internalNodes>
        0 -1 297 4.1771173477172852e-02</internalNodes>
      <leafValues>
        -1.4149911701679230e-01 2.9273059964179993e-01</leafValues></_>
    <_>
      <internalNodes>
        0 -1 267 1.9344054162502289e-02</internalNodes>
      <leafValues>
        -2.8170797228813171e-01 1.1219083517789841e-01</leafValues></_>
    <_>
      <internalNodes>
        0 -1 1 4.3587353080511093e-02</internalNodes>
      <leafValues>
        -5.8740667998790741e-02 3.6314854025840759e-01</leafValues></_>
    <_>
      <internalNodes>
        0 -1 17 2.1614808589220047e-02</internalNodes>
      <leafValues>
        6.2854491174221039e-02 -3.2572445273399353e-01</leafValues></_>
    <_>
      <internalNodes>
        0 -1 208 3.5663120448589325e-02</internalNodes>
      <leafValues>
        -8.3951927721500397e-02 2.3113451898097992e-01</leafValues></_>
    <_>
      <internalNodes>
        0 -1 65 2.5977568700909615e-02</internalNodes>
      <leafValues>
        8.8246405124664307e-02 -2.9288321733474731e-01</leafValues></_>
    <_>
      <internalNodes>
        0 -1 123 1.5417309477925301e-02</internalNodes>
      <leafValues>
        -2.0987123250961304e-01 8.3963938057422638e-02</leafValues></_>
    <_>
      <internalNodes>
        0 -1 300 2.5446511805057526e-02</internalNodes>
      <leafValues>
        -1.4588806033134460e-01 1.2864086031913757e-01</leafValues></_>
    <_>
      <internalNodes>
        0 -1 169 2.3458283394575119e-02</internalNodes>
      <leafValues>
        -1.2002370506525040e-01 1.5486134588718414e-01</leafValues></_>
    <_>
      <internalNodes>
        0 -1 114 2.1595774218440056e-02</internalNodes>
      <leafValues>
        8.4119655191898346e-02 -1.9020950794219971e-01</leafValues></_>
    <_>
      <internalNodes>
        0 -1 14 3.2042805105447769e-02</internalNodes>
      <leafValues>
        -1.0254892706871033e-01 1.4899080991744995e-01</leafValues></_>
    <_>
      <internalNodes>
        0 -1 75 3.9314411580562592e-02</internalNodes>
      <leafValues>
        -1.0015485435724258e-01 1.2985306978225708e-01</leafValues></_>
    <_>
      <internalNodes>
        0 -1 26 9.3633085489273071e-03</internalNodes>
      <leafValues>
        -2.0799538493156433e-01 7.3571123182773590e-02</leafValues></_>
    <_>
      <internalNodes>
        0 -1 321 1.4506410807371140e-02</internalNodes>
      <leafValues>
        9.1570153832435608e-02 -1.4042530953884125e-01</leafValues></_>
    <_>
      <internalNodes>
        0 -1 111 5.1650201203301549e-04</internalNodes>
      <leafValues>
        -6.2565392255783081e-01 2.5513121858239174e-02</leafValues></_>
    <_>
      <internalNodes>
        0 -1 197 8.2723416388034821e-02</internalNodes>
      <leafValues>
        -3.5532612353563309e-02 3.3985450863838196e-01</leafValues></_>
    <_>
      <internalNodes>
        0 -1 173 3.3321291208267212e-02</internalNodes>
      <leafValues>
        -5.6812938302755356e-02 1.7615373432636261e-01</leafValues></_>
    <_>
      <internalNodes>
        0 -1 304 3.0877359211444855e-02</internalNodes>
      <leafValues>
        -8.4668874740600586e-02 1.1710840463638306e-01</leafValues></_>
    <_>
      <internalNodes>
        0 -1 144 6.3845261931419373e-02</internalNodes>
      <leafValues>
        -3.9896726608276367e-02 2.7229288220405579e-01</leafValues></_>
    <_>
      <internalNodes>
        0 -1 58 8.2868263125419617e-03</internalNodes>
      <leafValues>
        -2.3489874601364136e-01 4.7501247376203537e-02</leafValues></_>
    <_>
      <internalNodes>
        0 -1 231 7.9188980162143707e-03</internalNodes>
      <leafValues>
        1.7941229045391083e-01 -5.2242130041122437e-02</leafValues></_>
    <_>
      <internalNodes>
        0 -1 198 9.4379745423793793e-03</internalNodes>
      <leafValues>
        1.1598622053861618e-01 -7.5626552104949951e-02</leafValues></_>
    <_>
      <internalNodes>
        0 -1 55 3.1123075634241104e-02</internalNodes>
      <leafValues>
        -5.4865352809429169e-02 1.5374656021595001e-01</leafValues></_>
    <_>
      <internalNodes>
        0 -1 317 8.5205361247062683e-02</internalNodes>
      <leafValues>
        2.0003229379653931e-02 -4.7627407312393188e-01</leafValues></_>
    <_>
      <internalNodes>
        0 -1 110 3.4793108701705933e-02</internalNodes>
      <leafValues>
        -8.5265018045902252e-02 1.0936350375413895e-01</leafValues></_>
    <_>
      <internalNodes>
        0 -1 6 4.9688540399074554e-02</internalNodes>
      <leafValues>
        -3.7454690784215927e-02 3.0948278307914734e-01</leafValues></_>
    <_>
      <internalNodes>
        0 -1 21 1.3550014793872833e-01</internalNodes>
      <leafValues>
        -1.8729202449321747e-02 5.6008678674697876e-01</leafValues></_>
    <_>
      <internalNodes>
        0 -1 168 6.5761320292949677e-02</internalNodes>
      <leafValues>
        -3.1863369047641754e-02 2.8686890006065369e-01</leafValues></_>
    <_>
      <internalNodes>
        0 -1 35 4.6618692576885223e-03</internalNodes>
      <leafValues>
        -1.5038968622684479e-01 6.0274042189121246e-02</leafValues></_>
    <_>
      <internalNodes>
        0 -1 63 2.0141694694757462e-03</internalNodes>
      <leafValues>
        2.1632194519042969e-01 -4.5215360820293427e-02</leafValues></_>
    <_>
      <internalNodes>
        0 -1 210 2.6493493933230639e-03</internalNodes>
      <leafValues>
        -2.4069327116012573e-01 3.5781357437372208e-02</leafValues></_>
    <_>
      <internalNodes>
        0 -1 274 4.4524423778057098e-02</internalNodes>
      <leafValues>
        3.9872944355010986e-02 -2.1325695514678955e-01</leafValues></_>
    <_>
      <internalNodes>
        0 -1 144 1.2766716536134481e-03</internalNodes>
      <leafValues>
        2.6350909471511841e-01 -3.6293741315603256e-02</leafValues></_>
    <_>
      <internalNodes>
        0 -1 31 6.3067112932913005e-05</internalNodes>
      <leafValues>
        -1.0647760629653931e+00 1.0657117702066898e-02</leafValues></_>
    <_>
      <internalNodes>
        0 -1 8 1.7806205898523331e-02</internalNodes>
      <leafValues>
        -9.5877505838871002e-02 9.3158796429634094e-02</leafValues></_>
    <_>
      <internalNodes>
        0 -1 150 7.8857958316802979e-02</internalNodes>
      <leafValues>
        1.6933644190430641e-02 -5.4205715656280518e-01</leafValues></_>
    <_>
      <internalNodes>
        0 -1 98 1.5461227297782898e-01</internalNodes>
      <leafValues>
        1.1693022213876247e-02 -8.0101823806762695e-01</leafValues></_>
    <_>
      <internalNodes>
        0 -1 90 9.5758765935897827e-02</internalNodes>
      <leafValues>
        -1.7164092510938644e-02 6.0466629266738892e-01</leafValues></_>
    <_>
      <internalNodes>
        0 -1 117 1.1870192363858223e-02</internalNodes>
      <leafValues>
        9.7213447093963623e-02 -9.5066890120506287e-02</leafValues></_>
    <_>
      <internalNodes>
        0 -1 251 1.6142171621322632e-01</internalNodes>
      <leafValues>
        1.0996758006513119e-02 -1.1341382265090942e+00</leafValues></_>
    <_>
      <internalNodes>
        0 -1 230 1.6193380951881409e-01</internalNodes>
      <leafValues>
        1.0554037056863308e-02 -1.1907765865325928e+00</leafValues></_>
    <_>
      <internalNodes>
        0 -1 189 7.3815584182739258e-02</internalNodes>
      <leafValues>
        -2.3341627791523933e-02 3.1001871824264526e-01</leafValues></_>
    <_>
      <internalNodes>
        0 -1 143 2.3048603907227516e-03</internalNodes>
      <leafValues>
        2.0237149298191071e-01 -3.9200332015752792e-02</leafValues></_>
    <_>
      <internalNodes>
        0 -1 179 8.8282962678931653e-05</internalNodes>
      <leafValues>
        -6.1859554052352905e-01 1.7821833491325378e-02</leafValues></_>
    <_>
      <internalNodes>
        0 -1 96 3.2887004315853119e-02</internalNodes>
      <leafValues>
        -6.0621485114097595e-02 1.2774799764156342e-01</leafValues></_>
    <_>
      <internalNodes>
        0 -1 96 1.4173892559483647e-03</internalNodes>
      <leafValues>
        3.2089012861251831e-01 -2.9061673209071159e-02</leafValues></_>
    <_>
      <internalNodes>
        0 -1 79 4.2005427181720734e-02</internalNodes>
      <leafValues>
        -4.8122983425855637e-02 1.3971599936485291e-01</leafValues></_>
    <_>
      <internalNodes>
        0 -1 320 2.4025216698646545e-02</internalNodes>
      <leafValues>
        5.2044931799173355e-02 -1.5251111984252930e-01</leafValues></_>
    <_>
      <internalNodes>
        0 -1 91 8.2427389919757843e-02</internalNodes>
      <leafValues>
        1.4705236069858074e-02 -5.7799547910690308e-01</leafValues></_>
    <_>
      <internalNodes>
        0 -1 111 3.9361923933029175e-02</internalNodes>
      <leafValues>
        -7.5668632984161377e-02 9.3975439667701721e-02</leafValues></_>
    <_>
      <internalNodes>
        0 -1 232 1.2667915783822536e-02</internalNodes>
      <leafValues>
        -1.1548744142055511e-01 6.9826722145080566e-02</leafValues></_>
    <_>
      <internalNodes>
        0 -1 316 4.8000022070482373e-04</internalNodes>
      <leafValues>
        3.8291504979133606e-01 -2.2565338760614395e-02</leafValues></_>
    <_>
      <internalNodes>
        0 -1 181 3.5444758832454681e-02</internalNodes>
      <leafValues>
        -5.9860322624444962e-02 1.3495363295078278e-01</leafValues></_>
    <_>
      <internalNodes>
        0 -1 32 4.0101654827594757e-02</internalNodes>
      <leafValues>
        -3.5462111234664917e-02 2.3294562101364136e-01</leafValues></_>
    <_>
      <internalNodes>
        0 -1 54 7.3126880452036858e-03</internalNodes>
      <leafValues>
        -1.4569538831710815e-01 5.0805903971195221e-02</leafValues></_>
    <_>
      <internalNodes>
        0 -1 132 1.2370247859507799e-03</internalNodes>
      <leafValues>
        2.3441560566425323e-01 -2.9979681596159935e-02</leafValues></_>
    <_>
      <internalNodes>
        0 -1 19 1.0458341240882874e-01</internalNodes>
      <leafValues>
        1.3417276553809643e-02 -5.1300001144409180e-01</leafValues></_>
    <_>
      <internalNodes>
        0 -1 322 4.4383015483617783e-02</internalNodes>
      <leafValues>
        2.7704695239663124e-02 -2.3193979263305664e-01</leafValues></_>
    <_>
      <internalNodes>
        0 -1 76 2.8051169589161873e-02</internalNodes>
      <leafValues>
        -9.2190377414226532e-02 6.7961938679218292e-02</leafValues></_>
    <_>
      <internalNodes>
        0 -1 18 5.9181608259677887e-02</internalNodes>
      <leafValues>
        -2.7904929593205452e-02 2.5900575518608093e-01</leafValues></_>
    <_>
      <internalNodes>
        0 -1 51 8.8887259364128113e-02</internalNodes>
      <leafValues>
        -2.1666431799530983e-02 2.8963941335678101e-01</leafValues></_>
    <_>
      <internalNodes>
        0 -1 109 2.3501507937908173e-02</internalNodes>
      <leafValues>
        -9.2586100101470947e-02 7.7089473605155945e-02</leafValues></_>
    <_>
      <internalNodes>
        0 -1 78 6.7434944212436676e-02</internalNodes>
      <leafValues>
        -3.3169992268085480e-02 2.3317837715148926e-01</leafValues></_>
    <_>
      <internalNodes>
        0 -1 57 6.9338954053819180e-03</internalNodes>
      <leafValues>
        -1.4738899469375610e-01 4.1182979941368103e-02</leafValues></_>
    <_>
      <internalNodes>
        0 -1 315 6.7078948020935059e-02</internalNodes>
      <leafValues>
        -2.6143254712224007e-02 2.6656609773635864e-01</leafValues></_>
    <_>
      <internalNodes>
        0 -1 34 5.8179128915071487e-02</internalNodes>
      <leafValues>
        -1.7888370901346207e-02 4.0346238017082214e-01</leafValues></_>
    <_>
      <internalNodes>
        0 -1 265 7.9968664795160294e-03</internalNodes>
      <leafValues>
        -2.5762143731117249e-01 2.5510266423225403e-02</leafValues></_>
    <_>
      <internalNodes>
        0 -1 226 1.0949546843767166e-01</internalNodes>
      <leafValues>
        -1.2046922929584980e-02 5.6469178199768066e-01</leafValues></_>
    <_>
      <internalNodes>
        0 -1 124 3.8964003324508667e-02</internalNodes>
      <leafValues>
        -4.1628874838352203e-02 1.5181548893451691e-01</leafValues></_>
    <_>
      <internalNodes>
        0 -1 212 8.3289007307030261e-05</internalNodes>
      <leafValues>
        -3.3443966507911682e-01 1.8820209428668022e-02</leafValues></_>
    <_>
      <internalNodes>
        0 -1 28 1.8565913196653128e-03</internalNodes>
      <leafValues>
        1.7651882767677307e-01 -3.6232676357030869e-02</leafValues></_>
    <_>
      <internalNodes>
        0 -1 172 5.1916241645812988e-02</internalNodes>
      <leafValues>
        -3.8544267416000366e-02 1.6533273458480835e-01</leafValues></_>
    <_>
      <internalNodes>
        0 -1 208 1.1065830290317535e-01</internalNodes>
      <leafValues>
        1.5584414824843407e-02 -5.0615113973617554e-01</leafValues></_>
    <_>
      <internalNodes>
        0 -1 39 5.4966997355222702e-02</internalNodes>
      <leafValues>
        -5.6016176939010620e-02 1.0155028104782104e-01</leafValues></_>
    <_>
      <internalNodes>
        0 -1 143 6.9855996116530150e-05</internalNodes>
      <leafValues>
        -4.7667807340621948e-01 1.4517309144139290e-02</leafValues></_>
    <_>
      <internalNodes>
        0 -1 50 5.7399697601795197e-02</internalNodes>
      <leafValues>
        -3.3674735575914383e-02 1.8266049027442932e-01</leafValues></_>
    <_>
      <internalNodes>
        0 -1 188 4.0784794837236404e-02</internalNodes>
      <leafValues>
        -4.9836140125989914e-02 1.1967512965202332e-01</leafValues></_>
    <_>
      <internalNodes>
        0 -1 192 1.2513885274529457e-02</internalNodes>
      <leafValues>
        -1.2877126038074493e-01 5.5787228047847748e-02</leafValues></_>
    <_>
      <internalNodes>
        0 -1 185 1.9143756944686174e-03</internalNodes>
      <leafValues>
        2.4764052033424377e-01 -2.7147840708494186e-02</leafValues></_>
    <_>
      <internalNodes>
        0 -1 170 1.0590273141860962e-01</internalNodes>
      <leafValues>
        1.0977928526699543e-02 -5.1527494192123413e-01</leafValues></_>
    <_>
      <internalNodes>
        0 -1 49 3.8102478720247746e-03</internalNodes>
      <leafValues>
        2.6774209737777710e-01 -2.3791609331965446e-02</leafValues></_>
    <_>
      <internalNodes>
        0 -1 256 1.0673519864212722e-04</internalNodes>
      <leafValues>
        -1.0423324108123779e+00 1.0536992922425270e-02</leafValues></_>
    <_>
      <internalNodes>
        0 -1 96 5.6008212268352509e-02</internalNodes>
      <leafValues>
        -3.2139495015144348e-02 1.8111172318458557e-01</leafValues></_>
    <_>
      <internalNodes>
        0 -1 203 1.2421831488609314e-01</internalNodes>
      <leafValues>
        9.2711001634597778e-03 -8.0239659547805786e-01</leafValues></_>
    <_>
      <internalNodes>
        0 -1 100 2.2962940856814384e-03</internalNodes>
      <leafValues>
        1.8081684410572052e-01 -3.1792912632226944e-02</leafValues></_>
    <_>
      <internalNodes>
        0 -1 171 2.3680685088038445e-02</internalNodes>
      <leafValues>
        -6.5501302480697632e-02 9.8521418869495392e-02</leafValues></_>
    <_>
      <internalNodes>
        0 -1 297 4.2431272566318512e-02</internalNodes>
      <leafValues>
        4.5936185866594315e-02 -1.3064801692962646e-01</leafValues></_>
    <_>
      <internalNodes>
        0 -1 215 2.0689830183982849e-01</internalNodes>
      <leafValues>
        8.1491731107234955e-03 -1.2826344966888428e+00</leafValues></_>
    <_>
      <internalNodes>
        0 -1 223 1.9712843000888824e-02</internalNodes>
      <leafValues>
        5.2091307938098907e-02 -1.0453404486179352e-01</leafValues></_>
    <_>
      <internalNodes>
        0 -1 129 9.2059798538684845e-02</internalNodes>
      <leafValues>
        1.2236134149134159e-02 -4.8699316382408142e-01</leafValues></_>
    <_>
      <internalNodes>
        0 -1 109 4.8968009650707245e-04</internalNodes>
      <leafValues>
        2.9183104634284973e-01 -1.8990287557244301e-02</leafValues></_>
    <_>
      <internalNodes>
        0 -1 113 1.3385242223739624e-01</internalNodes>
      <leafValues>
        9.3243252485990524e-03 -9.4730597734451294e-01</leafValues></_>
    <_>
      <internalNodes>
        0 -1 20 1.0188514739274979e-01</internalNodes>
      <leafValues>
        1.1953771114349365e-02 -4.5825779438018799e-01</leafValues></_>
    <_>
      <internalNodes>
        0 -1 146 8.0787479877471924e-02</internalNodes>
      <leafValues>
        -3.2800436019897461e-02 1.8651732802391052e-01</leafValues></_>
    <_>
      <internalNodes>
        0 -1 2 6.0871962457895279e-02</internalNodes>
      <leafValues>
        3.9043381810188293e-02 -1.6974502801895142e-01</leafValues></_>
    <_>
      <internalNodes>
        0 -1 119 7.2377413511276245e-02</internalNodes>
      <leafValues>
        1.7720250412821770e-02 -2.9457598924636841e-01</leafValues></_>
    <_>
      <internalNodes>
        0 -1 218 5.3406335413455963e-02</internalNodes>
      <leafValues>
        -4.1988257318735123e-02 1.4638781547546387e-01</leafValues></_>
    <_>
      <internalNodes>
        0 -1 133 9.7704073414206505e-03</internalNodes>
      <leafValues>
        9.0795248746871948e-02 -6.3726209104061127e-02</leafValues></_></weakClassifiers></stage6>
</opencv_storage>
