<?xml version="1.0"?>
<opencv_storage>
<stage11>
  <maxWeakCount>9</maxWeakCount>
  <stageThreshold>-1.3575837612152100e+00</stageThreshold>
  <weakClassifiers>
    <_>
      <internalNodes>
        0 -1 3056 3.9167042821645737e-02</internalNodes>
      <leafValues>
        -6.5962463617324829e-01 5.7564578056335449e+00</leafValues></_>
    <_>
      <internalNodes>
        0 -1 1289 1.2706695124506950e-02</internalNodes>
      <leafValues>
        5.7564578056335449e+00 -3.1333041191101074e-01</leafValues></_>
    <_>
      <internalNodes>
        0 -1 1667 1.5354879200458527e-02</internalNodes>
      <leafValues>
        -3.7947216629981995e-01 9.6264541149139404e-01</leafValues></_>
    <_>
      <internalNodes>
        0 -1 3074 3.3522784709930420e-02</internalNodes>
      <leafValues>
        6.5930265188217163e-01 -5.9350901842117310e-01</leafValues></_>
    <_>
      <internalNodes>
        0 -1 500 4.1328091174364090e-03</internalNodes>
      <leafValues>
        -8.6981135606765747e-01 5.8835250139236450e-01</leafValues></_>
    <_>
      <internalNodes>
        0 -1 706 4.1157618165016174e-02</internalNodes>
      <leafValues>
        5.7564578056335449e+00 -3.4439289569854736e-01</leafValues></_>
    <_>
      <internalNodes>
        0 -1 211 2.3949412629008293e-02</internalNodes>
      <leafValues>
        -5.7564578056335449e+00 5.7564578056335449e+00</leafValues></_>
    <_>
      <internalNodes>
        0 -1 8 4.2208395898342133e-02</internalNodes>
      <leafValues>
        -5.7564578056335449e+00 5.7564578056335449e+00</leafValues></_>
    <_>
      <internalNodes>
        0 -1 8 9.1407567262649536e-02</internalNodes>
      <leafValues>
        5.7564578056335449e+00 -5.7564578056335449e+00</leafValues></_></weakClassifiers></stage11>
</opencv_storage>
