<?xml version="1.0"?>
<opencv_storage>
<stage5>
  <maxWeakCount>59</maxWeakCount>
  <stageThreshold>-1.7350929975509644e+00</stageThreshold>
  <weakClassifiers>
    <_>
      <internalNodes>
        0 -1 923 6.8761765956878662e-02</internalNodes>
      <leafValues>
        -4.0889000892639160e-01 2.1716080605983734e-01</leafValues></_>
    <_>
      <internalNodes>
        0 -1 3057 2.1441884338855743e-02</internalNodes>
      <leafValues>
        -4.1484802961349487e-01 1.7559234797954559e-01</leafValues></_>
    <_>
      <internalNodes>
        0 -1 103 2.3057198151946068e-02</internalNodes>
      <leafValues>
        1.8698768317699432e-01 -3.7268304824829102e-01</leafValues></_>
    <_>
      <internalNodes>
        0 -1 1992 2.1872021257877350e-02</internalNodes>
      <leafValues>
        -4.0224346518516541e-01 1.8955190479755402e-01</leafValues></_>
    <_>
      <internalNodes>
        0 -1 2154 4.1258111596107483e-02</internalNodes>
      <leafValues>
        -2.0520068705081940e-01 3.1081411242485046e-01</leafValues></_>
    <_>
      <internalNodes>
        0 -1 1763 2.0214650779962540e-02</internalNodes>
      <leafValues>
        1.5745683014392853e-01 -3.2810816168785095e-01</leafValues></_>
    <_>
      <internalNodes>
        0 -1 2994 2.3384314030408859e-02</internalNodes>
      <leafValues>
        -3.2639807462692261e-01 1.2237530946731567e-01</leafValues></_>
    <_>
      <internalNodes>
        0 -1 2792 2.9446037486195564e-02</internalNodes>
      <leafValues>
        -2.6923245191574097e-01 1.9401659071445465e-01</leafValues></_>
    <_>
      <internalNodes>
        0 -1 3356 2.7787137776613235e-02</internalNodes>
      <leafValues>
        -2.0321284234523773e-01 2.3802495002746582e-01</leafValues></_>
    <_>
      <internalNodes>
        0 -1 3519 2.3036826401948929e-02</internalNodes>
      <leafValues>
        -2.5369736552238464e-01 1.9140847027301788e-01</leafValues></_>
    <_>
      <internalNodes>
        0 -1 3347 3.0299542471766472e-02</internalNodes>
      <leafValues>
        1.0918915271759033e-01 -4.3152996897697449e-01</leafValues></_>
    <_>
      <internalNodes>
        0 -1 3472 1.1930763721466064e-02</internalNodes>
      <leafValues>
        -4.1911220550537109e-01 1.0004946589469910e-01</leafValues></_>
    <_>
      <internalNodes>
        0 -1 2442 3.7940353155136108e-02</internalNodes>
      <leafValues>
        -1.4407548308372498e-01 3.0597743391990662e-01</leafValues></_>
    <_>
      <internalNodes>
        0 -1 463 7.9619638621807098e-02</internalNodes>
      <leafValues>
        -1.2355156242847443e-01 3.4878784418106079e-01</leafValues></_>
    <_>
      <internalNodes>
        0 -1 1354 1.2483585625886917e-02</internalNodes>
      <leafValues>
        2.2876648604869843e-01 -1.6721406579017639e-01</leafValues></_>
    <_>
      <internalNodes>
        0 -1 1518 2.0858302712440491e-02</internalNodes>
      <leafValues>
        1.4366768300533295e-01 -2.2596961259841919e-01</leafValues></_>
    <_>
      <internalNodes>
        0 -1 3551 1.7145849764347076e-02</internalNodes>
      <leafValues>
        -3.0070471763610840e-01 1.2248412519693375e-01</leafValues></_>
    <_>
      <internalNodes>
        0 -1 981 3.0825674533843994e-02</internalNodes>
      <leafValues>
        -9.3502454459667206e-02 3.4901562333106995e-01</leafValues></_>
    <_>
      <internalNodes>
        0 -1 340 2.0842954516410828e-02</internalNodes>
      <leafValues>
        8.7079145014286041e-02 -3.4788417816162109e-01</leafValues></_>
    <_>
      <internalNodes>
        0 -1 2189 5.1445588469505310e-03</internalNodes>
      <leafValues>
        -8.0773037672042847e-01 4.7275479882955551e-02</leafValues></_>
    <_>
      <internalNodes>
        0 -1 319 3.2089844346046448e-02</internalNodes>
      <leafValues>
        1.0280590504407883e-01 -3.0632045865058899e-01</leafValues></_>
    <_>
      <internalNodes>
        0 -1 3434 2.8437681496143341e-02</internalNodes>
      <leafValues>
        -2.0919910073280334e-01 1.8621015548706055e-01</leafValues></_>
    <_>
      <internalNodes>
        0 -1 166 4.5669581741094589e-03</internalNodes>
      <leafValues>
        -5.8954960107803345e-01 5.5628858506679535e-02</leafValues></_>
    <_>
      <internalNodes>
        0 -1 2202 2.3641228675842285e-02</internalNodes>
      <leafValues>
        1.1938497424125671e-01 -2.6015675067901611e-01</leafValues></_>
    <_>
      <internalNodes>
        0 -1 2006 1.4080090448260307e-02</internalNodes>
      <leafValues>
        -2.5907090306282043e-01 1.2438295036554337e-01</leafValues></_>
    <_>
      <internalNodes>
        0 -1 424 1.1286775581538677e-02</internalNodes>
      <leafValues>
        1.5345208346843719e-01 -1.8680895864963531e-01</leafValues></_>
    <_>
      <internalNodes>
        0 -1 3494 9.4877500087022781e-03</internalNodes>
      <leafValues>
        -6.2709736824035645e-01 6.7392960190773010e-02</leafValues></_>
    <_>
      <internalNodes>
        0 -1 1333 8.1215165555477142e-03</internalNodes>
      <leafValues>
        1.9977028667926788e-01 -1.5608601272106171e-01</leafValues></_>
    <_>
      <internalNodes>
        0 -1 201 3.0200271867215633e-03</internalNodes>
      <leafValues>
        -4.7731563448905945e-01 7.9853616654872894e-02</leafValues></_>
    <_>
      <internalNodes>
        0 -1 3024 2.2069577127695084e-02</internalNodes>
      <leafValues>
        1.0893888026475906e-01 -2.9193180799484253e-01</leafValues></_>
    <_>
      <internalNodes>
        0 -1 3525 7.8544430434703827e-03</internalNodes>
      <leafValues>
        -3.3474320173263550e-01 8.1636756658554077e-02</leafValues></_>
    <_>
      <internalNodes>
        0 -1 1570 5.8872723020613194e-03</internalNodes>
      <leafValues>
        4.3649622797966003e-01 -8.0336824059486389e-02</leafValues></_>
    <_>
      <internalNodes>
        0 -1 682 2.4287227541208267e-02</internalNodes>
      <leafValues>
        8.8528290390968323e-02 -3.3088254928588867e-01</leafValues></_>
    <_>
      <internalNodes>
        0 -1 2653 1.9063968211412430e-02</internalNodes>
      <leafValues>
        -2.2854894399642944e-01 1.2398774921894073e-01</leafValues></_>
    <_>
      <internalNodes>
        0 -1 2105 7.5368165969848633e-02</internalNodes>
      <leafValues>
        3.4282937645912170e-02 -1.0592157840728760e+00</leafValues></_>
    <_>
      <internalNodes>
        0 -1 3018 1.8556901486590505e-03</internalNodes>
      <leafValues>
        -8.4804785251617432e-01 4.0188513696193695e-02</leafValues></_>
    <_>
      <internalNodes>
        0 -1 1653 8.0268988385796547e-03</internalNodes>
      <leafValues>
        2.2082182765007019e-01 -1.2850546836853027e-01</leafValues></_>
    <_>
      <internalNodes>
        0 -1 3349 8.2867965102195740e-03</internalNodes>
      <leafValues>
        -7.8873085975646973e-01 4.2261533439159393e-02</leafValues></_>
    <_>
      <internalNodes>
        0 -1 1525 1.6252309083938599e-02</internalNodes>
      <leafValues>
        2.3943847417831421e-01 -1.2162307649850845e-01</leafValues></_>
    <_>
      <internalNodes>
        0 -1 966 1.4794572256505489e-02</internalNodes>
      <leafValues>
        -3.6033162474632263e-01 8.7754040956497192e-02</leafValues></_>
    <_>
      <internalNodes>
        0 -1 3504 3.5810954868793488e-02</internalNodes>
      <leafValues>
        -1.3936057686805725e-01 2.4541595578193665e-01</leafValues></_>
    <_>
      <internalNodes>
        0 -1 3526 1.1134566739201546e-02</internalNodes>
      <leafValues>
        -3.1060960888862610e-01 1.0644000023603439e-01</leafValues></_>
    <_>
      <internalNodes>
        0 -1 5 4.9664790276437998e-04</internalNodes>
      <leafValues>
        -7.4088472127914429e-01 3.3061474561691284e-02</leafValues></_>
    <_>
      <internalNodes>
        0 -1 324 2.5413185358047485e-02</internalNodes>
      <leafValues>
        -1.4446790516376495e-01 1.7884306609630585e-01</leafValues></_>
    <_>
      <internalNodes>
        0 -1 1726 5.8205794543027878e-02</internalNodes>
      <leafValues>
        3.8396589457988739e-02 -6.7655384540557861e-01</leafValues></_>
    <_>
      <internalNodes>
        0 -1 2841 5.2131067961454391e-02</internalNodes>
      <leafValues>
        -7.6049253344535828e-02 3.4812030196189880e-01</leafValues></_>
    <_>
      <internalNodes>
        0 -1 2161 4.3671701103448868e-02</internalNodes>
      <leafValues>
        -9.6965998411178589e-02 2.9017582535743713e-01</leafValues></_>
    <_>
      <internalNodes>
        0 -1 385 8.8699325919151306e-02</internalNodes>
      <leafValues>
        -4.9839496612548828e-02 5.0227338075637817e-01</leafValues></_>
    <_>
      <internalNodes>
        0 -1 543 2.6790358126163483e-02</internalNodes>
      <leafValues>
        -1.7908611893653870e-01 1.2271580100059509e-01</leafValues></_>
    <_>
      <internalNodes>
        0 -1 2485 9.5675498247146606e-02</internalNodes>
      <leafValues>
        2.6897346600890160e-02 -1.5656288862228394e+00</leafValues></_>
    <_>
      <internalNodes>
        0 -1 744 2.9808584600687027e-02</internalNodes>
      <leafValues>
        1.0001631826162338e-01 -2.5035077333450317e-01</leafValues></_>
    <_>
      <internalNodes>
        0 -1 474 1.1289937794208527e-01</internalNodes>
      <leafValues>
        -4.4265270233154297e-02 5.5471825599670410e-01</leafValues></_>
    <_>
      <internalNodes>
        0 -1 3564 2.6492722332477570e-02</internalNodes>
      <leafValues>
        -9.9054194986820221e-02 2.3037755489349365e-01</leafValues></_>
    <_>
      <internalNodes>
        0 -1 442 1.2587350793182850e-02</internalNodes>
      <leafValues>
        1.3606858253479004e-01 -1.7269775271415710e-01</leafValues></_>
    <_>
      <internalNodes>
        0 -1 3340 1.0648230090737343e-02</internalNodes>
      <leafValues>
        -4.5525386929512024e-01 7.4188806116580963e-02</leafValues></_>
    <_>
      <internalNodes>
        0 -1 538 1.8776032375171781e-03</internalNodes>
      <leafValues>
        3.5757637023925781e-01 -7.2009868919849396e-02</leafValues></_>
    <_>
      <internalNodes>
        0 -1 357 6.8462379276752472e-02</internalNodes>
      <leafValues>
        -3.1006565317511559e-02 1.1385608911514282e+00</leafValues></_>
    <_>
      <internalNodes>
        0 -1 1840 1.0891919583082199e-01</internalNodes>
      <leafValues>
        -3.6028634756803513e-02 9.0555477142333984e-01</leafValues></_>
    <_>
      <internalNodes>
        0 -1 721 4.4645946472883224e-03</internalNodes>
      <leafValues>
        -2.5004062056541443e-01 9.7547106444835663e-02</leafValues></_></weakClassifiers></stage5>
</opencv_storage>
