<?xml version="1.0"?>
<opencv_storage>
<stage12>
  <maxWeakCount>7</maxWeakCount>
  <stageThreshold>-1.1906541585922241e+00</stageThreshold>
  <weakClassifiers>
    <_>
      <internalNodes>
        0 -1 3110 3.3881921321153641e-02</internalNodes>
      <leafValues>
        -7.0179295539855957e-01 5.7564578056335449e+00</leafValues></_>
    <_>
      <internalNodes>
        0 -1 1343 1.4622012153267860e-02</internalNodes>
      <leafValues>
        5.7564578056335449e+00 -3.9228400588035583e-01</leafValues></_>
    <_>
      <internalNodes>
        0 -1 706 4.1157618165016174e-02</internalNodes>
      <leafValues>
        5.7564578056335449e+00 -3.4519806504249573e-01</leafValues></_>
    <_>
      <internalNodes>
        0 -1 905 1.0318702086806297e-02</internalNodes>
      <leafValues>
        5.7564578056335449e+00 -3.8362756371498108e-01</leafValues></_>
    <_>
      <internalNodes>
        0 -1 219 8.2435309886932373e-03</internalNodes>
      <leafValues>
        -8.1880962848663330e-01 5.2871167659759521e-01</leafValues></_>
    <_>
      <internalNodes>
        0 -1 2590 5.4254662245512009e-03</internalNodes>
      <leafValues>
        -1.3897355794906616e+00 5.4292023181915283e-01</leafValues></_>
    <_>
      <internalNodes>
        0 -1 1384 2.8245130553841591e-02</internalNodes>
      <leafValues>
        -4.3938344717025757e-01 5.7564578056335449e+00</leafValues></_></weakClassifiers></stage12>
</opencv_storage>
