<?xml version="1.0"?>
<opencv_storage>
<stage9>
  <maxWeakCount>74</maxWeakCount>
  <stageThreshold>-7.4269121885299683e-01</stageThreshold>
  <weakClassifiers>
    <_>
      <internalNodes>
        0 -1 277 -1 -1 -1 -1 -1 -1 -1 2013265919</internalNodes>
      <leafValues>
        9.9232204258441925e-02 7.2351658344268799e-01</leafValues></_>
    <_>
      <internalNodes>
        0 -1 3581 2147483647 2147483647 -1 -1 2147450879 2147483647 -1
        1073709055</internalNodes>
      <leafValues>
        -1.9123275578022003e-01 2.3448541760444641e-01</leafValues></_>
    <_>
      <internalNodes>
        0 -1 3892 -1 -1 -1 -1 -1 -1 -1 -50987017</internalNodes>
      <leafValues>
        -1.2692894041538239e-01 3.1689581274986267e-01</leafValues></_>
    <_>
      <internalNodes>
        0 -1 430 -2 -1 -1 -1 -1 -1 -3 -1</internalNodes>
      <leafValues>
        -5.8646932244300842e-02 5.4852664470672607e-01</leafValues></_>
    <_>
      <internalNodes>
        0 -1 1789 -1 -1 -1 -1 -129 -1 -9 2147483647</internalNodes>
      <leafValues>
        9.9956907331943512e-02 -2.4307094514369965e-01</leafValues></_>
    <_>
      <internalNodes>
        0 -1 4105 -1 -1 -1 -1 -1 -1 -1 2013265919</internalNodes>
      <leafValues>
        4.6638030558824539e-02 -3.3485227823257446e-01</leafValues></_>
    <_>
      <internalNodes>
        0 -1 4847 1819280384 212381420 1325166588 4492368 1325139232
        7626100 206851104 1056</internalNodes>
      <leafValues>
        -1.4810100793838501e+00 3.3732160925865173e-02</leafValues></_>
    <_>
      <internalNodes>
        0 -1 1383 -1 -1 -1 -1 -1 -1 -1 -65539</internalNodes>
      <leafValues>
        8.9685812592506409e-02 -2.2398477792739868e-01</leafValues></_>
    <_>
      <internalNodes>
        0 -1 30 -2 -1 -1 -1 -1 -1 -3 2138406773</internalNodes>
      <leafValues>
        -1.7321059107780457e-01 1.2128531932830811e-01</leafValues></_>
    <_>
      <internalNodes>
        0 -1 1526 -2 -1 -1 -65537 2147450879 2147483647 2147450877
        74741620</internalNodes>
      <leafValues>
        3.8419714570045471e-01 -6.5061412751674652e-02</leafValues></_>
    <_>
      <internalNodes>
        0 -1 6771 -2 -1073741825 -1 -65538 -1 -1 -1 -1</internalNodes>
      <leafValues>
        -6.3578680157661438e-02 3.4855332970619202e-01</leafValues></_>
    <_>
      <internalNodes>
        0 -1 6749 2097184 527668 738094964 204748800 157682948 216297332
        213663600 0</internalNodes>
      <leafValues>
        -2.0179452896118164e+00 1.5565721318125725e-02</leafValues></_>
    <_>
      <internalNodes>
        0 -1 3374 -1 -1 -1 -1 -1 -1 -1 -17432585</internalNodes>
      <leafValues>
        -6.5547853708267212e-02 2.7280876040458679e-01</leafValues></_>
    <_>
      <internalNodes>
        0 -1 8277 -1073741826 -1342177281 -1 -285278210 -129 -1 -139
        83689460</internalNodes>
      <leafValues>
        -1.7232055962085724e-01 1.1007310450077057e-01</leafValues></_>
    <_>
      <internalNodes>
        0 -1 4749 1073708924 -1 -1 -65537 -32908 -1 -32908 2088009588</internalNodes>
      <leafValues>
        -2.0348827540874481e-01 8.9259900152683258e-02</leafValues></_>
    <_>
      <internalNodes>
        0 -1 8030 211813376 681634916 -1879142724 212364808 -994835436
        208682816 114033664 0</internalNodes>
      <leafValues>
        -1.5421451330184937e+00 1.8601696938276291e-02</leafValues></_>
    <_>
      <internalNodes>
        0 -1 8030 788283260 -1359020034 -2 -1359020034 -32908 -1 -65676
        74452052</internalNodes>
      <leafValues>
        4.2506766319274902e-01 -4.7011267393827438e-02</leafValues></_>
    <_>
      <internalNodes>
        0 -1 327 -4 1862205439 -2 720568318 2147450741 1165361143
        2013232996 7634292</internalNodes>
      <leafValues>
        6.2811458110809326e-01 -3.4244038164615631e-02</leafValues></_>
    <_>
      <internalNodes>
        0 -1 731 -285300224 788463470 -285282782 586088420 1970755332
        1165328247 1953920064 1081374580</internalNodes>
      <leafValues>
        -7.0309352874755859e-01 3.4200865775346756e-02</leafValues></_>
    <_>
      <internalNodes>
        0 -1 400 -1073840352 1073676150 -132 2097053556 1567888640
        1928757110 1601639504 7345712</internalNodes>
      <leafValues>
        -6.2557280063629150e-01 3.2951861619949341e-02</leafValues></_>
    <_>
      <internalNodes>
        0 -1 5804 -1 -1 -1 -1 -1 -1 -1 2147418109</internalNodes>
      <leafValues>
        1.0046362131834030e-01 -1.7154732346534729e-01</leafValues></_>
    <_>
      <internalNodes>
        0 -1 6281 -2 -1 -1 -1 -1 -1 -1 2147287028</internalNodes>
      <leafValues>
        -1.4175872504711151e-01 1.2280064076185226e-01</leafValues></_>
    <_>
      <internalNodes>
        0 -1 7236 -268435458 -285278209 -2 -285278210 -1 -1 -12
        1157431284</internalNodes>
      <leafValues>
        2.4478802084922791e-01 -7.5289778411388397e-02</leafValues></_>
    <_>
      <internalNodes>
        0 -1 5134 111422464 778632868 -285430222 573636272 1458845444
        662470524 1551127808 21840</internalNodes>
      <leafValues>
        -8.0858808755874634e-01 2.4925047531723976e-02</leafValues></_>
    <_>
      <internalNodes>
        0 -1 7698 775425108 783822844 -1073741825 251146228 770993916
        1073676286 1055964668 69207040</internalNodes>
      <leafValues>
        -9.6485340595245361e-01 2.2189259529113770e-02</leafValues></_>
    <_>
      <internalNodes>
        0 -1 1430 -2 -1 -1 -1 -1 -1 -1 -134742017</internalNodes>
      <leafValues>
        -7.2350896894931793e-02 2.5237074494361877e-01</leafValues></_>
    <_>
      <internalNodes>
        0 -1 5960 1860576256 551988804 -956388352 2157728 1953830212
        72645952 1358197824 17472</internalNodes>
      <leafValues>
        -2.2458579540252686e+00 1.5085645020008087e-02</leafValues></_>
    <_>
      <internalNodes>
        0 -1 639 -2 2130706431 -1 -1 2147450743 2013265919 -1 2013265919</internalNodes>
      <leafValues>
        -1.4481349289417267e-01 1.3378772139549255e-01</leafValues></_>
    <_>
      <internalNodes>
        0 -1 3892 -1 -1 -1 -16777217 -1 -1 -1 1962737661</internalNodes>
      <leafValues>
        1.2922544777393341e-01 -1.5832017362117767e-01</leafValues></_>
    <_>
      <internalNodes>
        0 -1 62 -134283540 2146893804 -201523276 539031076 2113699652
        1416953213 2012510064 2101248</internalNodes>
      <leafValues>
        -1.1607086658477783e+00 2.8717685490846634e-02</leafValues></_>
    <_>
      <internalNodes>
        0 -1 4574 -285332448 111865702 -285299168 2157600 2013220448
        4521828 877945152 21504</internalNodes>
      <leafValues>
        -1.3983678817749023e+00 2.1110137924551964e-02</leafValues></_>
    <_>
      <internalNodes>
        0 -1 4405 -1 -1 -1 -1 -1 -1 -1 2147385341</internalNodes>
      <leafValues>
        1.5708050131797791e-01 -1.1557371914386749e-01</leafValues></_>
    <_>
      <internalNodes>
        0 -1 486 -1 -1 -1 -1 -1 -1 -1 -134217729</internalNodes>
      <leafValues>
        -6.3608504831790924e-02 2.8661939501762390e-01</leafValues></_>
    <_>
      <internalNodes>
        0 -1 427 -1 -1 -1 -1 -129 -1 -9 2147483647</internalNodes>
      <leafValues>
        7.6740019023418427e-02 -2.4697184562683105e-01</leafValues></_>
    <_>
      <internalNodes>
        0 -1 1495 -1 -1 -1 -1 -1 -1 -1 -3</internalNodes>
      <leafValues>
        6.7588999867439270e-02 -3.0006009340286255e-01</leafValues></_>
    <_>
      <internalNodes>
        0 -1 4825 -1 -1 -1 -1 -1 -1 -1 -65539</internalNodes>
      <leafValues>
        -9.6480764448642731e-02 2.4174855649471283e-01</leafValues></_>
    <_>
      <internalNodes>
        0 -1 7685 -1 -1 -1 -1 -1 -1 -1 -1073807361</internalNodes>
      <leafValues>
        9.3207933008670807e-02 -2.1511265635490417e-01</leafValues></_>
    <_>
      <internalNodes>
        0 -1 6575 -2 -1 -1 -16842753 -1 -1 -4 -50331649</internalNodes>
      <leafValues>
        -9.6561461687088013e-02 2.3152458667755127e-01</leafValues></_>
    <_>
      <internalNodes>
        0 -1 4297 6292512 246312760 788070318 715153328 74716176
        1182236534 217062516 2099200</internalNodes>
      <leafValues>
        -9.2382913827896118e-01 2.4714404717087746e-02</leafValues></_>
    <_>
      <internalNodes>
        0 -1 7817 140512256 178679328 -1392628192 6336032 1467961184
        49708918 477434980 4207648</internalNodes>
      <leafValues>
        -1.0747720003128052e+00 2.6282969862222672e-02</leafValues></_>
    <_>
      <internalNodes>
        0 -1 3162 805257062 788463614 -2 788463614 2147450740 1476329471
        2147450740 343179124</internalNodes>
      <leafValues>
        3.2833260297775269e-01 -5.4195079952478409e-02</leafValues></_>
    <_>
      <internalNodes>
        0 -1 1283 201599488 243179508 -285315484 212119540 82838528
        108952432 208675840 16</internalNodes>
      <leafValues>
        -1.1521114110946655e+00 2.1574499085545540e-02</leafValues></_>
    <_>
      <internalNodes>
        0 -1 5694 203424768 145506044 788414324 78921590 74716692
        2147385343 644118292 1051668</internalNodes>
      <leafValues>
        -7.3931169509887695e-01 2.7307836338877678e-02</leafValues></_>
    <_>
      <internalNodes>
        0 -1 1669 1048576 615526192 801013556 419446292 251660084
        1060388468 657722944 1024</internalNodes>
      <leafValues>
        -1.7351909875869751e+00 1.9315274432301521e-02</leafValues></_>
    <_>
      <internalNodes>
        0 -1 771 -1507807520 -273481872 -218301188 539033328 1549033300
        2082766708 1425308724 21520</internalNodes>
      <leafValues>
        -7.4227517843246460e-01 2.8179325163364410e-02</leafValues></_>
    <_>
      <internalNodes>
        0 -1 3920 -65540 -65538 -1 -16842754 2147450740 -1 -65676
        68190068</internalNodes>
      <leafValues>
        3.4486597776412964e-01 -5.1082070916891098e-02</leafValues></_>
    <_>
      <internalNodes>
        0 -1 7768 774638592 203697960 586055208 108006628 82922836
        73465716 77356112 2114560</internalNodes>
      <leafValues>
        -9.3894881010055542e-01 2.6060795411467552e-02</leafValues></_>
    <_>
      <internalNodes>
        0 -1 6471 -65540 -285278210 -1 -285278210 -4 -1 -4 217874172</internalNodes>
      <leafValues>
        -2.5783380866050720e-01 6.7671209573745728e-02</leafValues></_>
    <_>
      <internalNodes>
        0 -1 4169 142607392 572554800 1056718376 673722224 133432384
        1040023412 204741888 68158464</internalNodes>
      <leafValues>
        -1.3299942016601562e+00 1.7711544409394264e-02</leafValues></_>
    <_>
      <internalNodes>
        0 -1 3388 -360788480 12906150 -1459736992 543172322 1324189188
        74776422 1684292672 17476</internalNodes>
      <leafValues>
        -1.1914645433425903e+00 2.3527039214968681e-02</leafValues></_>
    <_>
      <internalNodes>
        0 -1 1345 36965376 675315564 787119904 706772528 1480348692
        1970560868 1416905984 67126288</internalNodes>
      <leafValues>
        -9.2475640773773193e-01 2.4981075897812843e-02</leafValues></_>
    <_>
      <internalNodes>
        0 -1 2315 -32771 -1 -1 -1 -1 -1 -1 2147385341</internalNodes>
      <leafValues>
        1.3795550167560577e-01 -1.2485028803348541e-01</leafValues></_>
    <_>
      <internalNodes>
        0 -1 408 -1 -1 -1 -1 -1 -1 -1 2012741623</internalNodes>
      <leafValues>
        -1.0469248890876770e-01 1.6687932610511780e-01</leafValues></_>
    <_>
      <internalNodes>
        0 -1 5570 -1 -268435457 -1 -16777217 -1 -1 -1 2013265919</internalNodes>
      <leafValues>
        1.1587594449520111e-01 -1.6632653772830963e-01</leafValues></_>
    <_>
      <internalNodes>
        0 -1 8012 106965504 174124834 1862205024 34107334 2139034692
        71597860 1450520576 19968</internalNodes>
      <leafValues>
        -7.3632460832595825e-01 3.2575931400060654e-02</leafValues></_>
    <_>
      <internalNodes>
        0 -1 5184 775163424 749502436 2130704944 674267060 1073502020
        779386749 1316257124 67114288</internalNodes>
      <leafValues>
        -6.5447378158569336e-01 3.3266764134168625e-02</leafValues></_>
    <_>
      <internalNodes>
        0 -1 8173 783158816 720306092 -302088352 8138736 1040088916
        654114800 486375280 1326164</internalNodes>
      <leafValues>
        -5.3121143579483032e-01 3.5835716873407364e-02</leafValues></_>
    <_>
      <internalNodes>
        0 -1 792 -1 -1 -1 -1 -1 -1 -1 2147418109</internalNodes>
      <leafValues>
        6.9083660840988159e-02 -2.9289886355400085e-01</leafValues></_>
    <_>
      <internalNodes>
        0 -1 5952 774649360 745828026 -16973834 216067940 234839824
        216301428 1156867156 5120</internalNodes>
      <leafValues>
        -8.7064647674560547e-01 2.8054600581526756e-02</leafValues></_>
    <_>
      <internalNodes>
        0 -1 4116 -32769 -1 -1 -1 -1 -1 -1 2147254268</internalNodes>
      <leafValues>
        1.4082130789756775e-01 -1.3582220673561096e-01</leafValues></_>
    <_>
      <internalNodes>
        0 -1 5568 786967080 2403880 -1358975836 2124968 351555072
        6846324 1686046756 96</internalNodes>
      <leafValues>
        -1.4509459733963013e+00 1.9714295864105225e-02</leafValues></_>
    <_>
      <internalNodes>
        0 -1 4838 -2 -1 -1 -16777217 -1 -1 -9 -50462729</internalNodes>
      <leafValues>
        -8.0290004611015320e-02 2.2831803560256958e-01</leafValues></_>
    <_>
      <internalNodes>
        0 -1 7467 784079920 788029180 -1342373892 775175408 2088533852
        1073119228 1039932924 67111936</internalNodes>
      <leafValues>
        -9.0031099319458008e-01 2.9651520773768425e-02</leafValues></_>
    <_>
      <internalNodes>
        0 -1 6232 -268500994 -285278209 -2 -285278210 -3 -1 -12 83165172</internalNodes>
      <leafValues>
        3.1889930367469788e-01 -6.3638061285018921e-02</leafValues></_>
    <_>
      <internalNodes>
        0 -1 3178 38538784 720141436 1828617764 113016828 352130320
        1199013751 2121561104 1077072</internalNodes>
      <leafValues>
        -7.4423748254776001e-01 3.1044954434037209e-02</leafValues></_>
    <_>
      <internalNodes>
        0 -1 4059 243401216 36318790 -286382560 167816864 343753984
        71335782 7627776 21508</internalNodes>
      <leafValues>
        -1.6613878011703491e+00 2.1043354645371437e-02</leafValues></_>
    <_>
      <internalNodes>
        0 -1 8122 -1073741825 -1 -1 -1 -1 -1 -1 1073676285</internalNodes>
      <leafValues>
        1.2844483554363251e-01 -1.6041800379753113e-01</leafValues></_>
    <_>
      <internalNodes>
        0 -1 1374 113124864 552398524 -1360878048 575171628 1156977728
        72646484 68158464 13824</internalNodes>
      <leafValues>
        -1.6652603149414062e+00 1.6849854961037636e-02</leafValues></_>
    <_>
      <internalNodes>
        0 -1 1100 179047936 740847140 -1092702688 113803208 2134513408
        917929828 1064578832 9280</internalNodes>
      <leafValues>
        -7.1218460798263550e-01 3.2317608594894409e-02</leafValues></_>
    <_>
      <internalNodes>
        0 -1 8463 774906368 70008608 653176416 294756 2146728960
        658276212 343151616 4195584</internalNodes>
      <leafValues>
        -9.5258581638336182e-01 2.6396626606583595e-02</leafValues></_>
    <_>
      <internalNodes>
        0 -1 1592 -98444 -2 -1 -65540 -32899 -1 -32907 1064599412</internalNodes>
      <leafValues>
        3.0035269260406494e-01 -5.9323690831661224e-02</leafValues></_>
    <_>
      <internalNodes>
        0 -1 29 -4 -2 -1 -65540 -3 -1 -140 2138341172</internalNodes>
      <leafValues>
        -2.4557183682918549e-01 8.0564364790916443e-02</leafValues></_>
    <_>
      <internalNodes>
        0 -1 8172 585378304 577413794 1727956480 14691456 1870483200
        7626749 1173779520 4457472</internalNodes>
      <leafValues>
        -1.1600625514984131e+00 2.3547606542706490e-02</leafValues></_>
    <_>
      <internalNodes>
        0 -1 5479 245367296 786989044 2139029360 212365172 1056202292
        1853128562 1425300564 17456</internalNodes>
      <leafValues>
        -7.3751205205917358e-01 3.1976465135812759e-02</leafValues></_></weakClassifiers></stage9>
</opencv_storage>
