<?xml version="1.0"?>
<opencv_storage>
<stage10>
  <maxWeakCount>68</maxWeakCount>
  <stageThreshold>-8.6848670244216919e-01</stageThreshold>
  <weakClassifiers>
    <_>
      <internalNodes>
        0 -1 1533 -1 -1 -1 -1 -1 2147483647 -1 2013265919</internalNodes>
      <leafValues>
        4.8901174217462540e-02 6.7469346523284912e-01</leafValues></_>
    <_>
      <internalNodes>
        0 -1 3298 -1 -1 -1 -1 -1 -1 -1 -50987017</internalNodes>
      <leafValues>
        -1.5106654167175293e-01 3.1169626116752625e-01</leafValues></_>
    <_>
      <internalNodes>
        0 -1 1885 -1 -1 -1 -1 -32771 -1 -3 2147450879</internalNodes>
      <leafValues>
        -1.1398588120937347e-01 3.4595099091529846e-01</leafValues></_>
    <_>
      <internalNodes>
        0 -1 81 -1 -1 -1 -1 -1 -1 -1 -3</internalNodes>
      <leafValues>
        3.6081340163946152e-02 -4.7160711884498596e-01</leafValues></_>
    <_>
      <internalNodes>
        0 -1 4744 645672736 49840124 -2 788463614 1971214164 125140862
        2147450708 3167860</internalNodes>
      <leafValues>
        8.8849323987960815e-01 -3.1786315143108368e-02</leafValues></_>
    <_>
      <internalNodes>
        0 -1 536 -1 -1 -1 -1 -129 -1 -9 2147483647</internalNodes>
      <leafValues>
        1.1496625095605850e-01 -2.3319137096405029e-01</leafValues></_>
    <_>
      <internalNodes>
        0 -1 6771 -2 -1073741825 -1 -65538 -1 -1 -1 -1</internalNodes>
      <leafValues>
        -6.8797968327999115e-02 3.8140672445297241e-01</leafValues></_>
    <_>
      <internalNodes>
        0 -1 1233 -2 -1 -1 -1 -1 -1 -3 -1</internalNodes>
      <leafValues>
        -4.4849392026662827e-02 6.1643683910369873e-01</leafValues></_>
    <_>
      <internalNodes>
        0 -1 7527 -285282322 -285278209 -2 -1359020034 -3 -1 -12
        83165172</internalNodes>
      <leafValues>
        3.4092986583709717e-01 -9.0490028262138367e-02</leafValues></_>
    <_>
      <internalNodes>
        0 -1 5367 -1 -1 -1 -1 -1 -1 -1 -1073774593</internalNodes>
      <leafValues>
        -8.1679940223693848e-02 2.9150009155273438e-01</leafValues></_>
    <_>
      <internalNodes>
        0 -1 2492 -114828 -1 -1 -65537 2147450740 -1 2147450740
        896827252</internalNodes>
      <leafValues>
        3.7709769606590271e-01 -6.7402027547359467e-02</leafValues></_>
    <_>
      <internalNodes>
        0 -1 366 -2 -1 -1 -1 -1 2147483647 -137 1979187188</internalNodes>
      <leafValues>
        -1.8687185645103455e-01 1.3491424918174744e-01</leafValues></_>
    <_>
      <internalNodes>
        0 -1 2194 -65676 -65538 -2 -285294604 -32908 -1 2147483508
        7370608</internalNodes>
      <leafValues>
        4.9954250454902649e-01 -5.7630538940429688e-02</leafValues></_>
    <_>
      <internalNodes>
        0 -1 6521 -2 -1 -2 -16777217 -129 -1 -9 -184549377</internalNodes>
      <leafValues>
        -1.2091856449842453e-01 2.3277394473552704e-01</leafValues></_>
    <_>
      <internalNodes>
        0 -1 7420 -285282436 -285278209 -2 -285278210 -32908 -1 -140
        1156874100</internalNodes>
      <leafValues>
        3.7052375078201294e-01 -7.6607346534729004e-02</leafValues></_>
    <_>
      <internalNodes>
        0 -1 637 -395416030 14483310 -1560286686 15138418 1971287872
        7667510 2013161056 3438420</internalNodes>
      <leafValues>
        -2.8446900844573975e+00 2.4232409894466400e-02</leafValues></_>
    <_>
      <internalNodes>
        0 -1 4193 748162320 729288508 -49292 678707040 259145040
        2138537909 208678480 70259984</internalNodes>
      <leafValues>
        -8.4985542297363281e-01 4.1737329214811325e-02</leafValues></_>
    <_>
      <internalNodes>
        0 -1 8374 -1073840132 -1 -1 -1 -1 -1 -1 1073512444</internalNodes>
      <leafValues>
        1.9019660353660583e-01 -1.3438452780246735e-01</leafValues></_>
    <_>
      <internalNodes>
        0 -1 8387 673196544 787233404 1056767848 184171644 773614592
        930447348 217859584 2098176</internalNodes>
      <leafValues>
        -7.1857136487960815e-01 4.1042555123567581e-02</leafValues></_>
    <_>
      <internalNodes>
        0 -1 8334 204999680 179056380 -285327620 581971052 83643476
        804569085 754724372 1056</internalNodes>
      <leafValues>
        -1.0563559532165527e+00 3.2257169485092163e-02</leafValues></_>
    <_>
      <internalNodes>
        0 -1 3107 1073692660 788529151 -1 1073676286 2147450740
        2147483647 2147450740 74743668</internalNodes>
      <leafValues>
        3.9032208919525146e-01 -6.1390995979309082e-02</leafValues></_>
    <_>
      <internalNodes>
        0 -1 639 -1 -1 -1 -1 -1 2147483647 -1 2147483647</internalNodes>
      <leafValues>
        -1.2504021823406219e-01 2.5584176182746887e-01</leafValues></_>
    <_>
      <internalNodes>
        0 -1 5623 -1 -268435457 -1 -16777217 -1 -1 -1 2013265919</internalNodes>
      <leafValues>
        1.2336993217468262e-01 -2.0358386635780334e-01</leafValues></_>
    <_>
      <internalNodes>
        0 -1 1782 235932688 1065107324 2147385340 1056718836 997202960
        1073643516 267918640 70259728</internalNodes>
      <leafValues>
        -1.0978307723999023e+00 3.4645378589630127e-02</leafValues></_>
    <_>
      <internalNodes>
        0 -1 4724 773851648 581729836 2130639904 3698492 343151680
        1031035764 338953760 1074704</internalNodes>
      <leafValues>
        -1.2538871765136719e+00 3.0408389866352081e-02</leafValues></_>
    <_>
      <internalNodes>
        0 -1 3231 169869312 732968496 1576828468 338711584 257972500
        1678773872 491787540 1040</internalNodes>
      <leafValues>
        -5.7564578056335449e+00 2.7275944128632545e-02</leafValues></_>
    <_>
      <internalNodes>
        0 -1 59 -2 -1 -1 -1 -1 -1 -1 -134217729</internalNodes>
      <leafValues>
        -2.5008559226989746e-02 4.9183833599090576e-01</leafValues></_>
    <_>
      <internalNodes>
        0 -1 1152 -1 -1 -1 -1 -1 -1 -1 -524289</internalNodes>
      <leafValues>
        -5.2729193121194839e-02 1.0188164710998535e+00</leafValues></_>
    <_>
      <internalNodes>
        0 -1 6581 -1073741828 -131073 -1 -1 -1 -1 -1 1862041588</internalNodes>
      <leafValues>
        -2.2842590510845184e-01 1.4273063838481903e-01</leafValues></_>
    <_>
      <internalNodes>
        0 -1 3991 -1 -1 -1 -1 -1 -1 -1 2147287029</internalNodes>
      <leafValues>
        1.5858200192451477e-01 -2.0640352368354797e-01</leafValues></_>
    <_>
      <internalNodes>
        0 -1 8461 706743808 612116272 1878801920 8453536 1870401344
        746344308 880039168 1024</internalNodes>
      <leafValues>
        -1.3120439052581787e+00 4.0812715888023376e-02</leafValues></_>
    <_>
      <internalNodes>
        0 -1 8090 788283388 -1073807362 -1 -1073807361 -65540 -1 -65540
        212872308</internalNodes>
      <leafValues>
        -4.5089277625083923e-01 6.7140169441699982e-02</leafValues></_>
    <_>
      <internalNodes>
        0 -1 6735 -2 -1 -1 -1 -1 -1 -1 -1</internalNodes>
      <leafValues>
        -3.4389272332191467e-02 1.5978734493255615e+00</leafValues></_>
    <_>
      <internalNodes>
        0 -1 7377 -1 -1 -1 -1 -1 -1 -3 -16777217</internalNodes>
      <leafValues>
        -4.5193482190370560e-02 7.6668906211853027e-01</leafValues></_>
    <_>
      <internalNodes>
        0 -1 8128 247205376 215941100 -1090588960 144850588 1073501508
        81723260 770987860 2102336</internalNodes>
      <leafValues>
        -7.3750525712966919e-01 5.3528036922216415e-02</leafValues></_>
    <_>
      <internalNodes>
        0 -1 4355 -1 -1 -1 -1 -1 -1 -1 2147483647</internalNodes>
      <leafValues>
        8.6926490068435669e-02 -3.4802284836769104e-01</leafValues></_>
    <_>
      <internalNodes>
        0 -1 7114 787230204 -1090879492 -131076 1056718844 1073545212
        -65539 -1107361796 136315952</internalNodes>
      <leafValues>
        -1.4393577575683594e+00 3.7447553128004074e-02</leafValues></_>
    <_>
      <internalNodes>
        0 -1 459 -98308 -1 -1 -1 -1 -1 -1 2147254269</internalNodes>
      <leafValues>
        1.9101767241954803e-01 -1.4414981007575989e-01</leafValues></_>
    <_>
      <internalNodes>
        0 -1 6860 -1 -1 -1 -16777217 -1 -1 -1 -16777217</internalNodes>
      <leafValues>
        -5.0814274698495865e-02 5.6975317001342773e-01</leafValues></_>
    <_>
      <internalNodes>
        0 -1 752 -1 -268435457 -1 -1 -1 -1 -1 -1</internalNodes>
      <leafValues>
        -3.8423825055360794e-02 1.1123670339584351e+00</leafValues></_>
    <_>
      <internalNodes>
        0 -1 3812 -1 -1 -1 -1 -1 -1 -1 -134217729</internalNodes>
      <leafValues>
        -4.7507759183645248e-02 6.7547965049743652e-01</leafValues></_>
    <_>
      <internalNodes>
        0 -1 8305 -1 -1 -1 -1 -1 -1 -1 -65539</internalNodes>
      <leafValues>
        9.1819837689399719e-02 -2.8570252656936646e-01</leafValues></_>
    <_>
      <internalNodes>
        0 -1 7770 178261264 715130936 1073659896 614469104 251412340
        1073544820 209063248 0</internalNodes>
      <leafValues>
        -1.6829339265823364e+00 3.1079784035682678e-02</leafValues></_>
    <_>
      <internalNodes>
        0 -1 8302 246416896 616316584 -814022940 149454500 659690832
        620641904 103832640 3072</internalNodes>
      <leafValues>
        -9.5189791917800903e-01 4.4480618089437485e-02</leafValues></_>
    <_>
      <internalNodes>
        0 -1 5320 -1073938436 -2 -1 -65540 -1 -1 -3 788291060</internalNodes>
      <leafValues>
        -2.7069169282913208e-01 1.0664560645818710e-01</leafValues></_>
    <_>
      <internalNodes>
        0 -1 2146 -4 -65537 -1 -65538 -32907 -1 -139 343179124</internalNodes>
      <leafValues>
        4.2080935835838318e-01 -7.4587494134902954e-02</leafValues></_>
    <_>
      <internalNodes>
        0 -1 1600 670973744 1073184762 -131204 2139012916 1065115412
        2138341244 2113687824 67110144</internalNodes>
      <leafValues>
        -1.0132249593734741e+00 4.4190332293510437e-02</leafValues></_>
    <_>
      <internalNodes>
        0 -1 5063 -1 1073676287 -1 -1073807361 -1 -1 -1 1056931838</internalNodes>
      <leafValues>
        -1.4014284312725067e-01 1.9898927211761475e-01</leafValues></_>
    <_>
      <internalNodes>
        0 -1 6991 -1 -268435457 -1 -65537 -1 -1 -1 2130640893</internalNodes>
      <leafValues>
        1.2503759562969208e-01 -2.4377974867820740e-01</leafValues></_>
    <_>
      <internalNodes>
        0 -1 4792 580914208 149094114 -1879130316 14724976 1434221920
        1693351796 1416910416 67109892</internalNodes>
      <leafValues>
        -7.7893626689910889e-01 4.7390367835760117e-02</leafValues></_>
    <_>
      <internalNodes>
        0 -1 2431 -32908 -1 -1 -1 -32907 -1 -32908 1072988020</internalNodes>
      <leafValues>
        3.7058556079864502e-01 -7.5052604079246521e-02</leafValues></_>
    <_>
      <internalNodes>
        0 -1 2931 524031760 1055948644 -163844 796800804 1299973204
        2142535548 1610351632 1056</internalNodes>
      <leafValues>
        -1.2153525352478027e+00 3.5862933844327927e-02</leafValues></_>
    <_>
      <internalNodes>
        0 -1 8357 216017920 615448188 -293699664 73707236 1065101140
        75431797 1593603876 7341428</internalNodes>
      <leafValues>
        -7.0985645055770874e-01 4.1988339275121689e-02</leafValues></_>
    <_>
      <internalNodes>
        0 -1 5448 -2 -285278210 -1 -1359020034 -1 -1 -3 218005502</internalNodes>
      <leafValues>
        -2.1807703375816345e-01 1.2158574163913727e-01</leafValues></_>
    <_>
      <internalNodes>
        0 -1 6938 -1359020036 788463615 -2 788463614 -4 2147483647 -140
        74727268</internalNodes>
      <leafValues>
        5.6504160165786743e-01 -6.0146916657686234e-02</leafValues></_>
    <_>
      <internalNodes>
        0 -1 6702 -1 -268435457 -1 -16777217 -1 -1 -1 2147483647</internalNodes>
      <leafValues>
        9.6387982368469238e-02 -2.9616758227348328e-01</leafValues></_>
    <_>
      <internalNodes>
        0 -1 3714 2147483630 788529151 -1 -65537 2147450741 2147483647
        -129 939524095</internalNodes>
      <leafValues>
        -1.6609257459640503e-01 1.6881719231605530e-01</leafValues></_>
    <_>
      <internalNodes>
        0 -1 4018 774385248 783089272 -285409308 578035696 1752595988
        1727823478 106186048 67109904</internalNodes>
      <leafValues>
        -1.1270120143890381e+00 3.4338340163230896e-02</leafValues></_>
    <_>
      <internalNodes>
        0 -1 5232 -1 -268435457 -1 -1 -1 2147483647 -1 2147483647</internalNodes>
      <leafValues>
        1.1345665901899338e-01 -2.7538490295410156e-01</leafValues></_>
    <_>
      <internalNodes>
        0 -1 64 207096832 245387044 1341935140 203427376 1870405200
        285146999 536635248 68157776</internalNodes>
      <leafValues>
        -7.9255837202072144e-01 4.4469989836215973e-02</leafValues></_>
    <_>
      <internalNodes>
        0 -1 728 249835044 786710246 -17944832 250670196 626267472
        905936884 527456004 4224576</internalNodes>
      <leafValues>
        -9.8657280206680298e-01 3.9749629795551300e-02</leafValues></_>
    <_>
      <internalNodes>
        0 -1 8443 639634432 720125624 -1342275996 580927164 234622580
        620658678 654052880 2098528</internalNodes>
      <leafValues>
        -9.8597341775894165e-01 3.6252647638320923e-02</leafValues></_>
    <_>
      <internalNodes>
        0 -1 4029 -32771 -1 -1 -1 -32769 -1 -32771 1073495932</internalNodes>
      <leafValues>
        3.0635863542556763e-01 -9.1806203126907349e-02</leafValues></_>
    <_>
      <internalNodes>
        0 -1 2302 -1 -1 -1 -1 -1 -1 -1 1962409974</internalNodes>
      <leafValues>
        -1.6018481552600861e-01 2.0048974454402924e-01</leafValues></_>
    <_>
      <internalNodes>
        0 -1 5826 -1 -1 -1 -16777217 -1 -1 -9 2130509821</internalNodes>
      <leafValues>
        1.5842720866203308e-01 -1.8840499222278595e-01</leafValues></_>
    <_>
      <internalNodes>
        0 -1 6412 1049600 11300476 1056800498 41971676 1073626996
        259293114 1014398836 5246036</internalNodes>
      <leafValues>
        -1.0867866277694702e+00 3.2813243567943573e-02</leafValues></_>
    <_>
      <internalNodes>
        0 -1 4758 -18 788463615 -2 -285278209 2147450743 2147483647 -137
        1744830463</internalNodes>
      <leafValues>
        -1.9009853899478912e-01 1.5475212037563324e-01</leafValues></_>
    <_>
      <internalNodes>
        0 -1 6854 144704592 750546676 -33751046 750546808 1043873396
        -1652752387 2096369648 1024</internalNodes>
      <leafValues>
        -1.2529859542846680e+00 3.4073323011398315e-02</leafValues></_></weakClassifiers></stage10>
</opencv_storage>
