<?xml version="1.0"?>
<opencv_storage>
<stage5>
  <maxWeakCount>44</maxWeakCount>
  <stageThreshold>-9.4155907630920410e-01</stageThreshold>
  <weakClassifiers>
    <_>
      <internalNodes>
        0 -1 62 -1 -1 -1 -1 -1 -1 -1 1979187199</internalNodes>
      <leafValues>
        -7.7914357185363770e-02 9.3160921335220337e-01</leafValues></_>
    <_>
      <internalNodes>
        0 -1 1570 -1 -1 -1 -1 -1 -1 -9 -185073673</internalNodes>
      <leafValues>
        -1.8352127075195312e-01 3.6890748143196106e-01</leafValues></_>
    <_>
      <internalNodes>
        0 -1 2537 -1 2147483647 -1 -1 2147483647 2147483647 -1
        2147483647</internalNodes>
      <leafValues>
        -1.4692679047584534e-01 3.3111086487770081e-01</leafValues></_>
    <_>
      <internalNodes>
        0 -1 576 -218 -16777217 -2 -16842754 -137 2013265919 -32908
        1954021367</internalNodes>
      <leafValues>
        -3.6200615763664246e-01 9.7238413989543915e-02</leafValues></_>
    <_>
      <internalNodes>
        0 -1 62 -1 -1 -1 -1 -1 -1 -1 2013265919</internalNodes>
      <leafValues>
        8.7230108678340912e-02 -3.9808559417724609e-01</leafValues></_>
    <_>
      <internalNodes>
        0 -1 322 -1 -1 -2 -1 -1 -1 -1 -134217729</internalNodes>
      <leafValues>
        -4.3324399739503860e-02 4.3278387188911438e-01</leafValues></_>
    <_>
      <internalNodes>
        0 -1 4349 -2 -1 -1 -1 -1 -1 -1 -50462729</internalNodes>
      <leafValues>
        -1.1791462451219559e-01 3.4382668137550354e-01</leafValues></_>
    <_>
      <internalNodes>
        0 -1 236 -98308 -1 -1 -1 -1 -1 -1 1073512444</internalNodes>
      <leafValues>
        2.4524094164371490e-01 -1.4532780647277832e-01</leafValues></_>
    <_>
      <internalNodes>
        0 -1 491 -1 -1 -2 -16777217 -1 -1 -9 -134217729</internalNodes>
      <leafValues>
        -1.2432816624641418e-01 2.2359843552112579e-01</leafValues></_>
    <_>
      <internalNodes>
        0 -1 8058 -1 -1 -1 -1 -1 -1 -1 -65539</internalNodes>
      <leafValues>
        8.2921884953975677e-02 -3.6080014705657959e-01</leafValues></_>
    <_>
      <internalNodes>
        0 -1 1856 -1 -1 -1 -1 -129 -1 -9 2147483647</internalNodes>
      <leafValues>
        9.7207315266132355e-02 -3.0866596102714539e-01</leafValues></_>
    <_>
      <internalNodes>
        0 -1 601 -268521696 720306158 -16777440 553058278 1979676420
        1196851031 1953986368 74741622</internalNodes>
      <leafValues>
        -8.3039122819900513e-01 2.7430338785052299e-02</leafValues></_>
    <_>
      <internalNodes>
        0 -1 6969 1862184480 237961062 -16879904 15511336 520060692
        1145339492 1693736512 4469776</internalNodes>
      <leafValues>
        -7.2321349382400513e-01 4.1877184063196182e-02</leafValues></_>
    <_>
      <internalNodes>
        0 -1 728 -1 -268435457 -1 -285278209 -32897 -1 -139 2146762740</internalNodes>
      <leafValues>
        -1.4794623851776123e-01 1.4860428869724274e-01</leafValues></_>
    <_>
      <internalNodes>
        0 -1 6494 -2 -1 -1 -16777217 -129 -1 -4 -16777217</internalNodes>
      <leafValues>
        -7.9607300460338593e-02 2.8777810931205750e-01</leafValues></_>
    <_>
      <internalNodes>
        0 -1 6320 787221536 788430820 -16859654 685014764 2137808196
        1341980668 -546013420 4211808</internalNodes>
      <leafValues>
        -6.9985008239746094e-01 3.3901229500770569e-02</leafValues></_>
    <_>
      <internalNodes>
        0 -1 3450 -1 -1 -1 -1 -1 -1 -1 -16908297</internalNodes>
      <leafValues>
        -5.7344131171703339e-02 3.5419955849647522e-01</leafValues></_>
    <_>
      <internalNodes>
        0 -1 3235 -1 -1 -1 -1 -1 -1 -1 -32771</internalNodes>
      <leafValues>
        9.6576958894729614e-02 -2.5114262104034424e-01</leafValues></_>
    <_>
      <internalNodes>
        0 -1 6643 -1360105984 149618410 -420043232 15642350 1154896964
        1147432798 1970667584 1077963840</internalNodes>
      <leafValues>
        -1.3761411905288696e+00 2.8124691918492317e-02</leafValues></_>
    <_>
      <internalNodes>
        0 -1 2947 806287876 61282 -29442412 539009568 1157067808
        72448112 78663680 1073216</internalNodes>
      <leafValues>
        -1.8547641038894653e+00 2.1782437339425087e-02</leafValues></_>
    <_>
      <internalNodes>
        0 -1 509 -1 -1 -1 -1 -129 -1 -9 2147483647</internalNodes>
      <leafValues>
        8.8505491614341736e-02 -2.1495780348777771e-01</leafValues></_>
    <_>
      <internalNodes>
        0 -1 1237 -2 -1 -1 -1 -32771 -1 -4 2147483647</internalNodes>
      <leafValues>
        -8.2277178764343262e-02 2.5467130541801453e-01</leafValues></_>
    <_>
      <internalNodes>
        0 -1 3691 -1358977534 45809482 -285282784 585808498 930960896
        74774340 1156863040 5534560</internalNodes>
      <leafValues>
        -1.0002747774124146e+00 2.4465849623084068e-02</leafValues></_>
    <_>
      <internalNodes>
        0 -1 5236 -1 -268435457 -1 -16777217 -129 -1 -9 2147483647</internalNodes>
      <leafValues>
        9.7287893295288086e-02 -1.9685153663158417e-01</leafValues></_>
    <_>
      <internalNodes>
        0 -1 1110 615321344 579518178 -1359043040 577044322 1466377984
        68482933 24511488 4486976</internalNodes>
      <leafValues>
        -1.2983887195587158e+00 2.0107524469494820e-02</leafValues></_>
    <_>
      <internalNodes>
        0 -1 3978 1626269728 149618402 -151067932 14854690 1425927492
        74772464 1291060292 0</internalNodes>
      <leafValues>
        -1.6066424846649170e+00 2.2171335294842720e-02</leafValues></_>
    <_>
      <internalNodes>
        0 -1 5947 -1 -268435457 -1 -16777217 -1 -1 -1 2147483647</internalNodes>
      <leafValues>
        8.6512632668018341e-02 -2.2329658269882202e-01</leafValues></_>
    <_>
      <internalNodes>
        0 -1 3982 78120448 237002272 -285245724 748744496 771051076
        75267964 338969904 1056</internalNodes>
      <leafValues>
        -9.3058818578720093e-01 2.6501560583710670e-02</leafValues></_>
    <_>
      <internalNodes>
        0 -1 8177 112069632 640204448 -16875760 581713696 796358468
        133595134 1417479520 1330224</internalNodes>
      <leafValues>
        -6.9584941864013672e-01 3.1309951096773148e-02</leafValues></_>
    <_>
      <internalNodes>
        0 -1 4488 -2 -1 -1 -16777217 -1 -1 -1 -50462730</internalNodes>
      <leafValues>
        -8.8843986392021179e-02 2.1607656776905060e-01</leafValues></_>
    <_>
      <internalNodes>
        0 -1 6850 -1 -1 -1 -1 -1 -1 -1 -65539</internalNodes>
      <leafValues>
        7.1170426905155182e-02 -2.7544170618057251e-01</leafValues></_>
    <_>
      <internalNodes>
        0 -1 4017 749272596 15269416 469433914 673869472 2122211288
        141851984 112491520 1088</internalNodes>
      <leafValues>
        -1.1710844039916992e+00 2.6830814778804779e-02</leafValues></_>
    <_>
      <internalNodes>
        0 -1 8391 204997632 -1090899972 -1610682370 754466812 1056734580
        -163843 788268404 1040</internalNodes>
      <leafValues>
        -8.9466333389282227e-01 2.7420395985245705e-02</leafValues></_>
    <_>
      <internalNodes>
        0 -1 1589 212609536 572587562 -319115776 102821664 402331396
        71597668 1961758720 5120</internalNodes>
      <leafValues>
        -1.2217859029769897e+00 2.2825470194220543e-02</leafValues></_>
    <_>
      <internalNodes>
        0 -1 6442 213392436 1056734716 -2 788283388 796671996 -65537
        536624636 68158480</internalNodes>
      <leafValues>
        -7.1724951267242432e-01 3.2145608216524124e-02</leafValues></_>
    <_>
      <internalNodes>
        0 -1 6994 619588640 788447204 -16781324 754515548 2147385156
        930938748 2013027444 19536</internalNodes>
      <leafValues>
        -5.6792008876800537e-01 3.6399669945240021e-02</leafValues></_>
    <_>
      <internalNodes>
        0 -1 4525 -2 -1 -1 -268435457 -1 -1 -1 2097020919</internalNodes>
      <leafValues>
        -9.1534219682216644e-02 2.1474516391754150e-01</leafValues></_>
    <_>
      <internalNodes>
        0 -1 3329 -1 -1 -1 -1 -1 -1 -1 2147385333</internalNodes>
      <leafValues>
        1.3019266724586487e-01 -1.6058745980262756e-01</leafValues></_>
    <_>
      <internalNodes>
        0 -1 176 -1 -1 -1 -1 -1 -1 -1 2147418109</internalNodes>
      <leafValues>
        7.1445494890213013e-02 -2.8937026858329773e-01</leafValues></_>
    <_>
      <internalNodes>
        0 -1 6494 105416704 74383206 1996140068 10546784 1148458496
        75358068 1815485440 4195876</internalNodes>
      <leafValues>
        -9.9245262145996094e-01 2.5562992319464684e-02</leafValues></_>
    <_>
      <internalNodes>
        0 -1 5606 -286478816 10940014 -1359040896 10663074 1423402820
        74839636 1953981504 7632468</internalNodes>
      <leafValues>
        -1.4889497756958008e+00 2.3602353408932686e-02</leafValues></_>
    <_>
      <internalNodes>
        0 -1 6736 204213792 69218284 2130624480 148651128 1550599168
        1161068407 351536896 1088</internalNodes>
      <leafValues>
        -1.0310759544372559e+00 2.4574514478445053e-02</leafValues></_>
    <_>
      <internalNodes>
        0 -1 7626 -1 -268435457 -1 -16777217 -1 -1 -1 2147483647</internalNodes>
      <leafValues>
        6.4639925956726074e-02 -2.8265637159347534e-01</leafValues></_>
    <_>
      <internalNodes>
        0 -1 2654 776471552 720256598 -1344372868 2670572 2121536784
        989233012 879768944 1792</internalNodes>
      <leafValues>
        -8.1227999925613403e-01 2.6050312444567680e-02</leafValues></_></weakClassifiers></stage5>
</opencv_storage>
