<?xml version="1.0"?>
<opencv_storage>
<stage2>
  <maxWeakCount>24</maxWeakCount>
  <stageThreshold>-1.1276371479034424e+00</stageThreshold>
  <weakClassifiers>
    <_>
      <internalNodes>
        0 -1 231 -1 -1 -1 -1 -1 2147483647 -1 2012708863</internalNodes>
      <leafValues>
        -1.7559854686260223e-01 1.1228423118591309e+00</leafValues></_>
    <_>
      <internalNodes>
        0 -1 4207 2147483647 1073741823 -1 -1 2147450879 2147483647 -1
        1073709055</internalNodes>
      <leafValues>
        -1.9583673775196075e-01 5.5625301599502563e-01</leafValues></_>
    <_>
      <internalNodes>
        0 -1 3254 -2 -1 -1 -1 -1 -1 -1 -50987017</internalNodes>
      <leafValues>
        -1.6531361639499664e-01 5.1127445697784424e-01</leafValues></_>
    <_>
      <internalNodes>
        0 -1 696 -32769 -268435457 -1 -285278210 -32905 -1 -139
        2129985396</internalNodes>
      <leafValues>
        -2.7547082304954529e-01 1.5737380087375641e-01</leafValues></_>
    <_>
      <internalNodes>
        0 -1 6472 -1 -1 -1 -1 -1 -1 -1 -196611</internalNodes>
      <leafValues>
        -9.2839717864990234e-02 5.2265542745590210e-01</leafValues></_>
    <_>
      <internalNodes>
        0 -1 8000 773852704 552517366 -1090584604 40169212 1333673844
        268435317 502626116 70276176</internalNodes>
      <leafValues>
        -8.4049099683761597e-01 5.0647035241127014e-02</leafValues></_>
    <_>
      <internalNodes>
        0 -1 7657 212599880 1023164284 -458755 754759644 796426236
        -229380 1073545084 203425792</internalNodes>
      <leafValues>
        -1.4633188247680664e+00 5.5583048611879349e-02</leafValues></_>
    <_>
      <internalNodes>
        0 -1 5984 1073709052 -1342177281 -2 -285278210 -32907 -1 -32908
        1819574132</internalNodes>
      <leafValues>
        -3.2331812381744385e-01 1.3369162380695343e-01</leafValues></_>
    <_>
      <internalNodes>
        0 -1 2654 788492156 1862270975 -1 -1359020033 -32907 -1 -32908
        477396852</internalNodes>
      <leafValues>
        -3.4858980774879456e-01 1.0377035290002823e-01</leafValues></_>
    <_>
      <internalNodes>
        0 -1 8023 237505540 1073283068 -1073807364 418705396 1048075736
        -163841 268205752 67109904</internalNodes>
      <leafValues>
        -9.0290391445159912e-01 5.4397646337747574e-02</leafValues></_>
    <_>
      <internalNodes>
        0 -1 543 -2 -1 -1 -1 -32899 -1 -132 2146926583</internalNodes>
      <leafValues>
        -1.2996688485145569e-01 2.8171604871749878e-01</leafValues></_>
    <_>
      <internalNodes>
        0 -1 8457 788279072 251199228 -25231440 150765304 1878884148
        117243767 2146703220 5508160</internalNodes>
      <leafValues>
        -6.6720455884933472e-01 5.6080508977174759e-02</leafValues></_>
    <_>
      <internalNodes>
        0 -1 7351 236989984 774438508 -1359183968 216580080 804679508
        218038270 368846644 5269104</internalNodes>
      <leafValues>
        -8.1226938962936401e-01 5.2413415163755417e-02</leafValues></_>
    <_>
      <internalNodes>
        0 -1 5389 -1 -1 -1 -1 -1 -1 -1 -65539</internalNodes>
      <leafValues>
        -7.0675887167453766e-02 4.8641744256019592e-01</leafValues></_>
    <_>
      <internalNodes>
        0 -1 7324 240657952 707706808 -285313776 44457520 243022864
        209485684 1303919732 67380288</internalNodes>
      <leafValues>
        -9.9420750141143799e-01 4.4983558356761932e-02</leafValues></_>
    <_>
      <internalNodes>
        0 -1 147 640823072 1073520636 -65676 -1084162272 -160148448
        1593188196 1068899344 5120</internalNodes>
      <leafValues>
        -1.5006020069122314e+00 3.4658186137676239e-02</leafValues></_>
    <_>
      <internalNodes>
        0 -1 6441 217848880 805240700 -3 1056767996 -32899 -1 -229380
        137379188</internalNodes>
      <leafValues>
        -4.6958214044570923e-01 7.2772055864334106e-02</leafValues></_>
    <_>
      <internalNodes>
        0 -1 735 -1 -1 -2 -1 -1 2147483647 -1 -1</internalNodes>
      <leafValues>
        -7.2162277996540070e-02 4.7539079189300537e-01</leafValues></_>
    <_>
      <internalNodes>
        0 -1 8019 -1430778848 1018215996 -196612 238829432 -1364578956
        -268632067 771520508 2098176</internalNodes>
      <leafValues>
        -1.1429527997970581e+00 4.0685761719942093e-02</leafValues></_>
    <_>
      <internalNodes>
        0 -1 4985 -2 -1 -1 -268435457 -1 -1 -3 2097151991</internalNodes>
      <leafValues>
        -1.0779532045125961e-01 3.0908238887786865e-01</leafValues></_>
    <_>
      <internalNodes>
        0 -1 1254 782502432 216824622 2130640608 618954492 1064795716
        1300201334 536098052 69229584</internalNodes>
      <leafValues>
        -8.0830591917037964e-01 4.5242428779602051e-02</leafValues></_>
    <_>
      <internalNodes>
        0 -1 720 215756320 753827830 -268501004 251588198 1602117136
        1568079861 2138863476 71316820</internalNodes>
      <leafValues>
        -6.2608939409255981e-01 5.4239384829998016e-02</leafValues></_>
    <_>
      <internalNodes>
        0 -1 44 -268763536 -403374174 -17367564 -1499398176 1842370324
        1949597556 -856400012 5936</internalNodes>
      <leafValues>
        -8.1935298442840576e-01 4.6766959130764008e-02</leafValues></_>
    <_>
      <internalNodes>
        0 -1 7814 774649376 648834940 -4259868 783073276 1073637236
        1072988031 1056798484 73690164</internalNodes>
      <leafValues>
        -5.8268678188323975e-01 5.9540845453739166e-02</leafValues></_></weakClassifiers></stage2>
</opencv_storage>
