<?xml version="1.0"?>
<opencv_storage>
<stage14>
  <maxWeakCount>9</maxWeakCount>
  <stageThreshold>-1.2541720867156982e+00</stageThreshold>
  <weakClassifiers>
    <_>
      <internalNodes>
        0 -1 535 -65540 -1 -1 -1 -32771 -1 -32772 2147385332</internalNodes>
      <leafValues>
        -2.1710300818085670e-02 1.5155588388442993e+00</leafValues></_>
    <_>
      <internalNodes>
        0 -1 1431 -1 -1 -1 -1 -1 -1 -1 -168296449</internalNodes>
      <leafValues>
        -2.6646038889884949e-01 5.7564578056335449e+00</leafValues></_>
    <_>
      <internalNodes>
        0 -1 6958 -1 -1 -1 -65537 -1 -1 -1 805208061</internalNodes>
      <leafValues>
        9.2151772975921631e-01 -3.6268511414527893e-01</leafValues></_>
    <_>
      <internalNodes>
        0 -1 2010 -32898 -268435457 -1 -285278209 -32899 -1 -139
        2146729844</internalNodes>
      <leafValues>
        -4.5155957341194153e-01 7.1771490573883057e-01</leafValues></_>
    <_>
      <internalNodes>
        0 -1 1229 -1342291972 -1 -1 -65537 -3 -1 -32771 1073512316</internalNodes>
      <leafValues>
        -4.9040287733078003e-01 7.1811914443969727e-01</leafValues></_>
    <_>
      <internalNodes>
        0 -1 3641 2147385204 -1 -1 -1 -32907 -1 -32908 1064337268</internalNodes>
      <leafValues>
        -6.0880887508392334e-01 5.5154252052307129e-01</leafValues></_>
    <_>
      <internalNodes>
        0 -1 713 -1 -268435457 -1 -1 -129 -1 -137 2147483647</internalNodes>
      <leafValues>
        5.6269723176956177e-01 -4.9997630715370178e-01</leafValues></_>
    <_>
      <internalNodes>
        0 -1 165 -65562 -285802633 -131076 -291438594 -42 2013233143
        -838994060 3175796</internalNodes>
      <leafValues>
        -1.2181817293167114e+00 3.4785568714141846e-01</leafValues></_>
    <_>
      <internalNodes>
        0 -1 4881 -1 -1 -1 -16842753 -1 -1 -1 2130509821</internalNodes>
      <leafValues>
        7.3424667119979858e-01 -4.3769353628158569e-01</leafValues></_></weakClassifiers></stage14>
</opencv_storage>
