<?xml version="1.0"?>
<opencv_storage>
<stage8>
  <maxWeakCount>73</maxWeakCount>
  <stageThreshold>-7.4035263061523438e-01</stageThreshold>
  <weakClassifiers>
    <_>
      <internalNodes>
        0 -1 171 -1 -1 -1 -1 -1 -1 -1 -134742017</internalNodes>
      <leafValues>
        1.4178583025932312e-01 8.8815426826477051e-01</leafValues></_>
    <_>
      <internalNodes>
        0 -1 3034 -1 2147483647 -1 -1 2147450879 2147483647 -1
        1073709055</internalNodes>
      <leafValues>
        -2.1832703053951263e-01 2.5586646795272827e-01</leafValues></_>
    <_>
      <internalNodes>
        0 -1 3340 -1 -1 -1 -1 -1 -1 -1 -50987017</internalNodes>
      <leafValues>
        -1.1425810307264328e-01 2.7037200331687927e-01</leafValues></_>
    <_>
      <internalNodes>
        0 -1 333 -65537 -1 -1 -1 -1 -1 -1 -1</internalNodes>
      <leafValues>
        -8.8729657232761383e-02 6.7375057935714722e-01</leafValues></_>
    <_>
      <internalNodes>
        0 -1 5534 -1 -1 -1 -1 -1 -1 -1 2147483647</internalNodes>
      <leafValues>
        9.9026493728160858e-02 -3.3339402079582214e-01</leafValues></_>
    <_>
      <internalNodes>
        0 -1 713 -268439570 -285212673 -2 -285278210 -32907 2147483647
        -32908 1987379060</internalNodes>
      <leafValues>
        -2.8069245815277100e-01 3.4022171050310135e-02</leafValues></_>
    <_>
      <internalNodes>
        0 -1 1004 -4 -1 -1 -1 -11 -1 -3 2138406773</internalNodes>
      <leafValues>
        -1.4127902686595917e-01 1.2423192709684372e-01</leafValues></_>
    <_>
      <internalNodes>
        0 -1 4889 -1 -1 -1 -16777217 -1 -1 -3 1962737661</internalNodes>
      <leafValues>
        1.4138285815715790e-01 -1.2820227444171906e-01</leafValues></_>
    <_>
      <internalNodes>
        0 -1 6181 -1 -1 -2 -16777217 -129 -1 -10 1962934271</internalNodes>
      <leafValues>
        -1.1454248428344727e-01 1.5803602337837219e-01</leafValues></_>
    <_>
      <internalNodes>
        0 -1 2993 -32899 -1 -1 -1 -32907 -1 2147450740 1064599412</internalNodes>
      <leafValues>
        2.0813155174255371e-01 -7.7083639800548553e-02</leafValues></_>
    <_>
      <internalNodes>
        0 -1 5417 -1 -1 -1 -268500993 -1 -1 -1 754974719</internalNodes>
      <leafValues>
        -9.1532908380031586e-02 1.7481566965579987e-01</leafValues></_>
    <_>
      <internalNodes>
        0 -1 7500 -2 -1 -1 -1 -1 -1 -1 -1</internalNodes>
      <leafValues>
        -3.4443657845258713e-02 6.3396012783050537e-01</leafValues></_>
    <_>
      <internalNodes>
        0 -1 6382 1024 783822340 1072578557 230178804 645144180
        1069318141 1022106992 1024</internalNodes>
      <leafValues>
        -1.4157904386520386e+00 1.6734845936298370e-02</leafValues></_>
    <_>
      <internalNodes>
        0 -1 5889 -1 -268435457 -1 -285278209 -1 -1 -1 1828519933</internalNodes>
      <leafValues>
        1.3912811875343323e-01 -1.2035518139600754e-01</leafValues></_>
    <_>
      <internalNodes>
        0 -1 5845 -1 -1 -1 -1 -1 -1 -1 -196611</internalNodes>
      <leafValues>
        -9.3151241540908813e-02 1.7333099246025085e-01</leafValues></_>
    <_>
      <internalNodes>
        0 -1 695 -1 -1 -1 -1 -1 2147483647 -1 2147483647</internalNodes>
      <leafValues>
        -8.6992584168910980e-02 1.9159236550331116e-01</leafValues></_>
    <_>
      <internalNodes>
        0 -1 1457 69217792 102940192 -1497453024 547401344 1148322816
        1146386292 611647488 71320640</internalNodes>
      <leafValues>
        -1.3881129026412964e+00 1.6236845403909683e-02</leafValues></_>
    <_>
      <internalNodes>
        0 -1 8375 -1 -1 -1 -1 -1 -1 -1 -65539</internalNodes>
      <leafValues>
        7.0085190236568451e-02 -2.2669874131679535e-01</leafValues></_>
    <_>
      <internalNodes>
        0 -1 2181 204998960 1043877744 -1073741835 800341044 1877229424
        -1619197991 531896112 2098176</internalNodes>
      <leafValues>
        -1.1734629869461060e+00 1.9675981253385544e-02</leafValues></_>
    <_>
      <internalNodes>
        0 -1 8370 -1073774724 -1359020033 -1 -1359020034 -32905 -1
        -32908 74743668</internalNodes>
      <leafValues>
        -2.0213478803634644e-01 7.7133573591709137e-02</leafValues></_>
    <_>
      <internalNodes>
        0 -1 2355 -32769 -1 -1 -1 -1 -1 -1 2147385341</internalNodes>
      <leafValues>
        1.0182245075702667e-01 -1.5923944115638733e-01</leafValues></_>
    <_>
      <internalNodes>
        0 -1 7862 682101776 740863532 -1073955076 673721532 -1392723924
        787787252 217845376 1024</internalNodes>
      <leafValues>
        -1.4645180702209473e+00 1.7087591812014580e-02</leafValues></_>
    <_>
      <internalNodes>
        0 -1 5285 -1 -1 -1 -1 -1 -1 -1 -65539</internalNodes>
      <leafValues>
        -7.8387722373008728e-02 1.9479335844516754e-01</leafValues></_>
    <_>
      <internalNodes>
        0 -1 5989 11274240 14694584 804010528 11036744 208930144
        619977012 73401344 0</internalNodes>
      <leafValues>
        -1.8381909132003784e+00 1.5373031608760357e-02</leafValues></_>
    <_>
      <internalNodes>
        0 -1 5169 78908928 241991478 2130671460 577830514 1316226048
        125599573 1585202448 1066608</internalNodes>
      <leafValues>
        -7.6889181137084961e-01 2.7427755296230316e-02</leafValues></_>
    <_>
      <internalNodes>
        0 -1 890 -1 -1 -1 -1 -1 -1 -1 2147483645</internalNodes>
      <leafValues>
        5.1124975085258484e-02 -2.9590830206871033e-01</leafValues></_>
    <_>
      <internalNodes>
        0 -1 5948 -1360105984 2424424 -1392579040 10520292 1551858708
        74870644 1148473360 287808</internalNodes>
      <leafValues>
        -1.1833809614181519e+00 1.6630394384264946e-02</leafValues></_>
    <_>
      <internalNodes>
        0 -1 3760 36701184 35929712 1860972048 112738080 642782208
        670201716 606344448 1024</internalNodes>
      <leafValues>
        -1.0268727540969849e+00 1.9792415201663971e-02</leafValues></_>
    <_>
      <internalNodes>
        0 -1 7615 11013120 44707576 1862116984 75525336 913139028
        70254580 217864032 1053728</internalNodes>
      <leafValues>
        -7.3856139183044434e-01 2.5528138503432274e-02</leafValues></_>
    <_>
      <internalNodes>
        0 -1 30 -4 -1 -1 -65538 -3 -1 -4 2138341172</internalNodes>
      <leafValues>
        -1.9629631936550140e-01 8.2619875669479370e-02</leafValues></_>
    <_>
      <internalNodes>
        0 -1 3233 -1 -1 -1 -1 -1 -1 -1 2147254132</internalNodes>
      <leafValues>
        1.6970942914485931e-01 -1.0081200301647186e-01</leafValues></_>
    <_>
      <internalNodes>
        0 -1 197 1793650208 673873450 -286329312 551612128 1994741508
        1162145604 1886737664 21504</internalNodes>
      <leafValues>
        -1.1149173974990845e+00 2.0996229723095894e-02</leafValues></_>
    <_>
      <internalNodes>
        0 -1 6587 212471312 213427732 1056865908 141069924 477900112
        206884212 78663680 1024</internalNodes>
      <leafValues>
        -1.1655315160751343e+00 2.0497385412454605e-02</leafValues></_>
    <_>
      <internalNodes>
        0 -1 5596 2100240 775436656 -1342423812 201337876 758387728
        259791676 607260016 1072</internalNodes>
      <leafValues>
        -3.0332195758819580e+00 1.5355539508163929e-02</leafValues></_>
    <_>
      <internalNodes>
        0 -1 848 -2 -268435457 -1 -1 -1 -1 -9 -9</internalNodes>
      <leafValues>
        -4.9700144678354263e-02 2.7973103523254395e-01</leafValues></_>
    <_>
      <internalNodes>
        0 -1 137 -1 -1 -1 -1 -1 -1 -1 -3</internalNodes>
      <leafValues>
        4.4256277382373810e-02 -3.4478116035461426e-01</leafValues></_>
    <_>
      <internalNodes>
        0 -1 4818 -1 -1 -1 -1 -1 -1 -3 -50331649</internalNodes>
      <leafValues>
        -5.8396439999341965e-02 3.0977112054824829e-01</leafValues></_>
    <_>
      <internalNodes>
        0 -1 4008 -1 -1 -1 -1 -1 -1 -1 -16777225</internalNodes>
      <leafValues>
        -4.8436291515827179e-02 3.6769163608551025e-01</leafValues></_>
    <_>
      <internalNodes>
        0 -1 5594 265216 774684348 1878981424 39857192 242221376
        1180991300 1416651776 3072</internalNodes>
      <leafValues>
        -1.3563416004180908e+00 1.7232162877917290e-02</leafValues></_>
    <_>
      <internalNodes>
        0 -1 8446 237766144 581484072 1862069856 141045472 1308380672
        75267956 217851392 6554628</internalNodes>
      <leafValues>
        -7.6250338554382324e-01 2.3323079571127892e-02</leafValues></_>
    <_>
      <internalNodes>
        0 -1 421 778579456 178450208 754888192 576775680 2004186880
        74874706 1417024768 2106880</internalNodes>
      <leafValues>
        -8.4285366535186768e-01 2.1383281797170639e-02</leafValues></_>
    <_>
      <internalNodes>
        0 -1 6052 136315904 206077796 -304119946 179858940 1043598352
        796671869 376730880 1053700</internalNodes>
      <leafValues>
        -7.5165325403213501e-01 2.4402732029557228e-02</leafValues></_>
    <_>
      <internalNodes>
        0 -1 6927 -285278484 -1359020034 -2 -1359020034 -12 -65537
        -65540 83131508</internalNodes>
      <leafValues>
        3.1460601091384888e-01 -4.8047747462987900e-02</leafValues></_>
    <_>
      <internalNodes>
        0 -1 8044 -1900540928 -1397194756 -16842756 212889276 1291078740
        -1124663299 -856417020 1028</internalNodes>
      <leafValues>
        -5.6858462095260620e-01 3.0130881816148758e-02</leafValues></_>
    <_>
      <internalNodes>
        0 -1 4633 -1 1073676287 -1 -1073807361 -1 -1 -1 1056931838</internalNodes>
      <leafValues>
        -1.0024774819612503e-01 1.5267851948738098e-01</leafValues></_>
    <_>
      <internalNodes>
        0 -1 6735 170142720 2107296 1862188640 10496544 643776374
        146173802 2122218868 2106400</internalNodes>
      <leafValues>
        -9.0889322757720947e-01 1.9971603527665138e-02</leafValues></_>
    <_>
      <internalNodes>
        0 -1 2456 -2 788529151 -1 788463614 2147450743 1711276031 -140
        16023412</internalNodes>
      <leafValues>
        2.8131932020187378e-01 -5.3942359983921051e-02</leafValues></_>
    <_>
      <internalNodes>
        0 -1 3073 1853623040 576912998 788167200 548466360 527700992
        1683255072 74728704 13312</internalNodes>
      <leafValues>
        -1.1011040210723877e+00 2.2247526794672012e-02</leafValues></_>
    <_>
      <internalNodes>
        0 -1 461 -1 -1 -1 -1 -129 -1 -9 2147483647</internalNodes>
      <leafValues>
        6.9646805524826050e-02 -2.2067208588123322e-01</leafValues></_>
    <_>
      <internalNodes>
        0 -1 8415 -1 -1 -1 -1 -1 -1 -1 -65537</internalNodes>
      <leafValues>
        4.4100239872932434e-02 -3.5375723242759705e-01</leafValues></_>
    <_>
      <internalNodes>
        0 -1 7971 212601376 573107048 -1359057888 6450728 1870487296
        72515557 83653632 292352</internalNodes>
      <leafValues>
        -1.0351480245590210e+00 1.9554363563656807e-02</leafValues></_>
    <_>
      <internalNodes>
        0 -1 475 805184768 1862172582 -65548 -1073807620 645137668
        796884852 511591424 6292224</internalNodes>
      <leafValues>
        -6.6075474023818970e-01 2.6899827644228935e-02</leafValues></_>
    <_>
      <internalNodes>
        0 -1 4349 -2 -1 -1 -1 -1 -1 -1 -50462729</internalNodes>
      <leafValues>
        -6.3065886497497559e-02 2.3698498308658600e-01</leafValues></_>
    <_>
      <internalNodes>
        0 -1 4349 -2 -1 -1 -16777217 -1 -1 -1 -16973827</internalNodes>
      <leafValues>
        8.6544394493103027e-02 -2.0680411159992218e-01</leafValues></_>
    <_>
      <internalNodes>
        0 -1 7391 708578816 136637922 1794026532 15363680 1182010368
        4489057 1416893440 17408</internalNodes>
      <leafValues>
        -9.5890265703201294e-01 2.3636654019355774e-02</leafValues></_>
    <_>
      <internalNodes>
        0 -1 939 203425792 212499502 -16879648 213974960 385097556
        385220215 92014192 67109888</internalNodes>
      <leafValues>
        -6.4765119552612305e-01 3.0928347259759903e-02</leafValues></_>
    <_>
      <internalNodes>
        0 -1 4787 447765300 775716856 -197123 687357884 783841148
        -302223367 1777090428 1040</internalNodes>
      <leafValues>
        -1.0908417701721191e+00 2.2013004869222641e-02</leafValues></_>
    <_>
      <internalNodes>
        0 -1 4685 805191540 805240831 -1 1073676287 2147450741
        2147483647 2147450868 74727284</internalNodes>
      <leafValues>
        3.0101844668388367e-01 -5.3360149264335632e-02</leafValues></_>
    <_>
      <internalNodes>
        0 -1 8365 212872704 6336108 -1359082208 2686688 234770004
        112656229 1735152708 9216</internalNodes>
      <leafValues>
        -8.0009931325912476e-01 2.3827515542507172e-02</leafValues></_>
    <_>
      <internalNodes>
        0 -1 60 -252379432 250937060 2013061856 2162208 1685895108
        74776532 -1057729456 1064960</internalNodes>
      <leafValues>
        -1.2682853937149048e+00 1.9187813624739647e-02</leafValues></_>
    <_>
      <internalNodes>
        0 -1 6605 109052928 105131188 -1124696460 615791952 914102352
        2146713468 250613328 0</internalNodes>
      <leafValues>
        -1.4085209369659424e+00 1.6156066209077835e-02</leafValues></_>
    <_>
      <internalNodes>
        0 -1 2777 -1 -1 -1 -1 -1 -1 -1 2147483645</internalNodes>
      <leafValues>
        6.7255377769470215e-02 -2.2216944396495819e-01</leafValues></_>
    <_>
      <internalNodes>
        0 -1 307 -1 -1 -1 -1 -1 -1 -129 2146959223</internalNodes>
      <leafValues>
        -9.0826705098152161e-02 1.8626751005649567e-01</leafValues></_>
    <_>
      <internalNodes>
        0 -1 8315 -1 -1 -1 -1 -1 -1 -1 2147483645</internalNodes>
      <leafValues>
        4.8323348164558411e-02 -3.2794222235679626e-01</leafValues></_>
    <_>
      <internalNodes>
        0 -1 7547 10486816 617096940 -1124712468 2100340 494672980
        91258740 208931952 1024</internalNodes>
      <leafValues>
        -1.3308060169219971e+00 1.7877744510769844e-02</leafValues></_>
    <_>
      <internalNodes>
        0 -1 7997 35651584 570437168 1023162884 11424 1719557380
        74743600 82199552 2097152</internalNodes>
      <leafValues>
        -1.2240447998046875e+00 2.0037181675434113e-02</leafValues></_>
    <_>
      <internalNodes>
        0 -1 5084 1821355008 145419822 -21041664 543221472 1206869508
        4587348 1345586176 4215808</internalNodes>
      <leafValues>
        -1.6315553188323975e+00 1.8443547189235687e-02</leafValues></_>
    <_>
      <internalNodes>
        0 -1 4174 640682496 880050042 2147385140 104087416 1029442612
        1610497846 760487232 3146768</internalNodes>
      <leafValues>
        -6.8631911277770996e-01 2.7952067553997040e-02</leafValues></_>
    <_>
      <internalNodes>
        0 -1 5112 749644328 2123296 1862184480 11053600 679432004
        6649713 75238512 1140</internalNodes>
      <leafValues>
        -1.4808889627456665e+00 1.7295520752668381e-02</leafValues></_>
    <_>
      <internalNodes>
        0 -1 6297 -1 -268435457 -1 -16777217 -1 -1 -1 2130706431</internalNodes>
      <leafValues>
        8.1745900213718414e-02 -2.1410241723060608e-01</leafValues></_>
    <_>
      <internalNodes>
        0 -1 1961 787228160 787283836 2130608100 46022380 1853781572
        1601994620 485770560 70261776</internalNodes>
      <leafValues>
        -5.8529591560363770e-01 3.3223215490579605e-02</leafValues></_>
    <_>
      <internalNodes>
        0 -1 2105 2002812448 911261460 2147153776 384843440 401620244
        1593605488 1861244176 1048576</internalNodes>
      <leafValues>
        -1.6983100175857544e+00 1.6499217599630356e-02</leafValues></_>
    <_>
      <internalNodes>
        0 -1 6164 -1 -1 -1 -1 -1 -1 -1 2147287037</internalNodes>
      <leafValues>
        1.4217069745063782e-01 -1.1246766149997711e-01</leafValues></_></weakClassifiers></stage8>
</opencv_storage>
