<?xml version="1.0"?>
<opencv_storage>
<stage1>
  <maxWeakCount>19</maxWeakCount>
  <stageThreshold>-1.1702688932418823e+00</stageThreshold>
  <weakClassifiers>
    <_>
      <internalNodes>
        0 -1 62 -1 -1 -1 -1 -1 2147483647 -1 1962246007</internalNodes>
      <leafValues>
        -2.8254622220993042e-01 1.1836444139480591e+00</leafValues></_>
    <_>
      <internalNodes>
        0 -1 615 -1 2147483647 -2 -1 2147483519 2013265919 -1 2013265919</internalNodes>
      <leafValues>
        -3.0124467611312866e-01 5.4951483011245728e-01</leafValues></_>
    <_>
      <internalNodes>
        0 -1 5285 -65537 -1 -1 -1 -1 -1 -1 -196611</internalNodes>
      <leafValues>
        -1.9825963675975800e-01 4.7125601768493652e-01</leafValues></_>
    <_>
      <internalNodes>
        0 -1 728 1879015295 -268435457 -1 -285278209 -32905 -1 -140
        2138341236</internalNodes>
      <leafValues>
        -3.6454087495803833e-01 1.8927934765815735e-01</leafValues></_>
    <_>
      <internalNodes>
        0 -1 6336 1073741822 -1358954497 -1 -285278210 -32900 -1 -140
        1156874100</internalNodes>
      <leafValues>
        -3.4284174442291260e-01 1.6524559259414673e-01</leafValues></_>
    <_>
      <internalNodes>
        0 -1 713 -285216914 -1358954497 -2 -1359020034 2147450741
        2013265919 -32908 1953824628</internalNodes>
      <leafValues>
        -3.7118908762931824e-01 1.3573162257671356e-01</leafValues></_>
    <_>
      <internalNodes>
        0 -1 1423 -2 -1 -1 -1 -1 -1 -1 -151650313</internalNodes>
      <leafValues>
        -1.2957510352134705e-01 4.3241283297538757e-01</leafValues></_>
    <_>
      <internalNodes>
        0 -1 7241 -1 -1 -1 -1 -1 -1 -1 -196612</internalNodes>
      <leafValues>
        -1.3866205513477325e-01 3.8098034262657166e-01</leafValues></_>
    <_>
      <internalNodes>
        0 -1 7075 1073643390 788463614 -2 -1359020036 -32905 -1
        2147450740 217874292</internalNodes>
      <leafValues>
        -3.5063773393630981e-01 1.4118514955043793e-01</leafValues></_>
    <_>
      <internalNodes>
        0 -1 4779 140774400 619605996 -1361805450 145522550 1031543828
        1878807605 91520832 70269956</internalNodes>
      <leafValues>
        -9.9673020839691162e-01 6.6626489162445068e-02</leafValues></_>
    <_>
      <internalNodes>
        0 -1 3208 243010560 788430846 -1102118924 587104252 2113699444
        2013036405 1878425424 3157364</internalNodes>
      <leafValues>
        -7.3132944107055664e-01 6.3709922134876251e-02</leafValues></_>
    <_>
      <internalNodes>
        0 -1 5252 -1 -1 -1 -1 -1 -1 -1 2147483647</internalNodes>
      <leafValues>
        8.1824086606502533e-02 -6.6499972343444824e-01</leafValues></_>
    <_>
      <internalNodes>
        0 -1 5169 104074752 267190076 2130669540 711229106 2147225088
        1195343189 1584662288 1066576</internalNodes>
      <leafValues>
        -1.1543314456939697e+00 5.0474122166633606e-02</leafValues></_>
    <_>
      <internalNodes>
        0 -1 479 -2 -1 -1 -1 -3 -1 -3 2004221943</internalNodes>
      <leafValues>
        -1.1653070151805878e-01 3.5382041335105896e-01</leafValues></_>
    <_>
      <internalNodes>
        0 -1 190 -1 -268435457 -2 -1 -1 -1 -9 -134217729</internalNodes>
      <leafValues>
        -9.5151267945766449e-02 4.3403345346450806e-01</leafValues></_>
    <_>
      <internalNodes>
        0 -1 5534 1879043950 788463615 -2 -1359020034 2147450724
        2147483647 -140 1148518260</internalNodes>
      <leafValues>
        -4.0863427519798279e-01 1.0594132542610168e-01</leafValues></_>
    <_>
      <internalNodes>
        0 -1 5689 2360320 180387696 1056951072 712536040 125054756
        427065204 1064570672 67113040</internalNodes>
      <leafValues>
        -1.2095675468444824e+00 4.6299390494823456e-02</leafValues></_>
    <_>
      <internalNodes>
        0 -1 39 -134414412 1073610612 -65540 1073545212 2130081364
        2146760565 -17664236 3147056</internalNodes>
      <leafValues>
        -8.1993418931961060e-01 6.3436470925807953e-02</leafValues></_>
    <_>
      <internalNodes>
        0 -1 6160 741870592 654229374 -1342210060 779124732 1065123376
        805109630 2146844500 1108</internalNodes>
      <leafValues>
        -6.9533157348632812e-01 6.4460016787052155e-02</leafValues></_></weakClassifiers></stage1>
</opencv_storage>
