<?xml version="1.0"?>
<opencv_storage>
<stage11>
  <maxWeakCount>100</maxWeakCount>
  <stageThreshold>-1.1288444995880127e+00</stageThreshold>
  <weakClassifiers>
    <_>
      <internalNodes>
        0 -1 80 3.8638342171907425e-02</internalNodes>
      <leafValues>
        1.5506157279014587e-01 6.3947135210037231e-01</leafValues></_>
    <_>
      <internalNodes>
        0 -1 297 4.0061209350824356e-02</internalNodes>
      <leafValues>
        -1.4204820990562439e-01 2.9898616671562195e-01</leafValues></_>
    <_>
      <internalNodes>
        0 -1 1 4.3518148362636566e-02</internalNodes>
      <leafValues>
        -1.2334725260734558e-01 2.8964367508888245e-01</leafValues></_>
    <_>
      <internalNodes>
        0 -1 122 3.5898953676223755e-02</internalNodes>
      <leafValues>
        -1.5291246771812439e-01 1.4433297514915466e-01</leafValues></_>
    <_>
      <internalNodes>
        0 -1 224 1.2785556726157665e-02</internalNodes>
      <leafValues>
        1.3926005363464355e-01 -1.3089178502559662e-01</leafValues></_>
    <_>
      <internalNodes>
        0 -1 31 5.2226400002837181e-03</internalNodes>
      <leafValues>
        2.3678150773048401e-01 -8.3905026316642761e-02</leafValues></_>
    <_>
      <internalNodes>
        0 -1 300 2.4213436990976334e-02</internalNodes>
      <leafValues>
        -1.5505228936672211e-01 1.1439999938011169e-01</leafValues></_>
    <_>
      <internalNodes>
        0 -1 304 4.3327420949935913e-02</internalNodes>
      <leafValues>
        -8.1679753959178925e-02 2.0565004646778107e-01</leafValues></_>
    <_>
      <internalNodes>
        0 -1 75 2.6218025013804436e-02</internalNodes>
      <leafValues>
        -1.3862048089504242e-01 9.9391721189022064e-02</leafValues></_>
    <_>
      <internalNodes>
        0 -1 208 3.1078929081559181e-02</internalNodes>
      <leafValues>
        -8.2846023142337799e-02 1.7724230885505676e-01</leafValues></_>
    <_>
      <internalNodes>
        0 -1 60 5.9548825025558472e-02</internalNodes>
      <leafValues>
        -4.1967786848545074e-02 2.8470304608345032e-01</leafValues></_>
    <_>
      <internalNodes>
        0 -1 301 4.3550051748752594e-02</internalNodes>
      <leafValues>
        -9.2544287443161011e-02 1.3063168525695801e-01</leafValues></_>
    <_>
      <internalNodes>
        0 -1 147 3.8719393312931061e-02</internalNodes>
      <leafValues>
        -8.1780456006526947e-02 1.1720930039882660e-01</leafValues></_>
    <_>
      <internalNodes>
        0 -1 133 3.4873135387897491e-02</internalNodes>
      <leafValues>
        -5.3810484707355499e-02 1.7562241852283478e-01</leafValues></_>
    <_>
      <internalNodes>
        0 -1 303 1.8273830413818359e-02</internalNodes>
      <leafValues>
        -1.2365966290235519e-01 8.1539615988731384e-02</leafValues></_>
    <_>
      <internalNodes>
        0 -1 315 6.7351341247558594e-02</internalNodes>
      <leafValues>
        -2.9057499021291733e-02 3.4690743684768677e-01</leafValues></_>
    <_>
      <internalNodes>
        0 -1 144 6.9067880511283875e-02</internalNodes>
      <leafValues>
        -3.3407114446163177e-02 2.7949523925781250e-01</leafValues></_>
    <_>
      <internalNodes>
        0 -1 80 3.8815423846244812e-02</internalNodes>
      <leafValues>
        7.1600750088691711e-02 -1.2817935645580292e-01</leafValues></_>
    <_>
      <internalNodes>
        0 -1 298 4.9250364303588867e-02</internalNodes>
      <leafValues>
        -4.4284027069807053e-02 1.7454215884208679e-01</leafValues></_>
    <_>
      <internalNodes>
        0 -1 44 6.8898210301995277e-03</internalNodes>
      <leafValues>
        -1.7872013151645660e-01 4.3970365077257156e-02</leafValues></_>
    <_>
      <internalNodes>
        0 -1 210 1.4457726851105690e-02</internalNodes>
      <leafValues>
        -1.1457495391368866e-01 7.1381397545337677e-02</leafValues></_>
    <_>
      <internalNodes>
        0 -1 273 2.2691223770380020e-02</internalNodes>
      <leafValues>
        6.9516658782958984e-02 -1.5319778025150299e-01</leafValues></_>
    <_>
      <internalNodes>
        0 -1 297 3.9880640804767609e-02</internalNodes>
      <leafValues>
        5.3872197866439819e-02 -1.4555887877941132e-01</leafValues></_>
    <_>
      <internalNodes>
        0 -1 189 6.8703457713127136e-02</internalNodes>
      <leafValues>
        -2.3944195359945297e-02 2.9753282666206360e-01</leafValues></_>
    <_>
      <internalNodes>
        0 -1 89 3.6872709169983864e-03</internalNodes>
      <leafValues>
        2.0483109354972839e-01 -4.0568910539150238e-02</leafValues></_>
    <_>
      <internalNodes>
        0 -1 13 1.6850429773330688e-01</internalNodes>
      <leafValues>
        1.0831335559487343e-02 -6.8456131219863892e-01</leafValues></_>
    <_>
      <internalNodes>
        0 -1 115 2.0887747406959534e-02</internalNodes>
      <leafValues>
        5.6922789663076401e-02 -1.2504884600639343e-01</leafValues></_>
    <_>
      <internalNodes>
        0 -1 1 1.1913721263408661e-01</internalNodes>
      <leafValues>
        1.6549183055758476e-02 -4.4228252768516541e-01</leafValues></_>
    <_>
      <internalNodes>
        0 -1 31 3.8784593343734741e-02</internalNodes>
      <leafValues>
        4.9307148903608322e-02 -1.6943532228469849e-01</leafValues></_>
    <_>
      <internalNodes>
        0 -1 199 1.2888357043266296e-02</internalNodes>
      <leafValues>
        8.6022920906543732e-02 -9.2630475759506226e-02</leafValues></_>
    <_>
      <internalNodes>
        0 -1 214 3.9630800485610962e-02</internalNodes>
      <leafValues>
        2.6867410168051720e-02 -2.6519984006881714e-01</leafValues></_>
    <_>
      <internalNodes>
        0 -1 147 9.5544499345123768e-05</internalNodes>
      <leafValues>
        -4.5272034406661987e-01 1.5168021433055401e-02</leafValues></_>
    <_>
      <internalNodes>
        0 -1 123 1.7359610646963120e-02</internalNodes>
      <leafValues>
        -9.3626961112022400e-02 6.8119138479232788e-02</leafValues></_>
    <_>
      <internalNodes>
        0 -1 246 7.5666040182113647e-02</internalNodes>
      <leafValues>
        -3.0516671016812325e-02 2.3522047698497772e-01</leafValues></_>
    <_>
      <internalNodes>
        0 -1 109 2.3067656904459000e-02</internalNodes>
      <leafValues>
        -8.0150790512561798e-02 7.5583942234516144e-02</leafValues></_>
    <_>
      <internalNodes>
        0 -1 1 4.3440610170364380e-02</internalNodes>
      <leafValues>
        4.6424388885498047e-02 -1.4408241212368011e-01</leafValues></_>
    <_>
      <internalNodes>
        0 -1 8 2.1513547748327255e-02</internalNodes>
      <leafValues>
        -6.9179527461528778e-02 9.4813190400600433e-02</leafValues></_>
    <_>
      <internalNodes>
        0 -1 16 1.6857159789651632e-03</internalNodes>
      <leafValues>
        1.9854214787483215e-01 -3.5039577633142471e-02</leafValues></_>
    <_>
      <internalNodes>
        0 -1 31 2.8790576834580861e-05</internalNodes>
      <leafValues>
        -7.8167057037353516e-01 7.8330282121896744e-03</leafValues></_>
    <_>
      <internalNodes>
        0 -1 288 2.9985949397087097e-02</internalNodes>
      <leafValues>
        -4.9382649362087250e-02 1.1522275209426880e-01</leafValues></_>
    <_>
      <internalNodes>
        0 -1 111 5.0659231841564178e-02</internalNodes>
      <leafValues>
        -5.1161073148250580e-02 1.1509636789560318e-01</leafValues></_>
    <_>
      <internalNodes>
        0 -1 147 1.4140336215496063e-01</internalNodes>
      <leafValues>
        1.4887612313032150e-02 -4.5249176025390625e-01</leafValues></_>
    <_>
      <internalNodes>
        0 -1 233 1.0951418429613113e-02</internalNodes>
      <leafValues>
        -1.0315720736980438e-01 5.3576290607452393e-02</leafValues></_>
    <_>
      <internalNodes>
        0 -1 117 1.4544655568897724e-02</internalNodes>
      <leafValues>
        8.1293329596519470e-02 -9.0243466198444366e-02</leafValues></_>
    <_>
      <internalNodes>
        0 -1 226 5.3222693502902985e-02</internalNodes>
      <leafValues>
        -3.0580282211303711e-02 1.9952973723411560e-01</leafValues></_>
    <_>
      <internalNodes>
        0 -1 119 7.4998050928115845e-02</internalNodes>
      <leafValues>
        2.0143507048487663e-02 -3.1217953562736511e-01</leafValues></_>
    <_>
      <internalNodes>
        0 -1 162 1.1297374730929732e-03</internalNodes>
      <leafValues>
        2.4145700037479401e-01 -2.4619301781058311e-02</leafValues></_>
    <_>
      <internalNodes>
        0 -1 98 1.8164727091789246e-01</internalNodes>
      <leafValues>
        7.1135507896542549e-03 -8.9625376462936401e-01</leafValues></_>
    <_>
      <internalNodes>
        0 -1 273 9.4945207238197327e-02</internalNodes>
      <leafValues>
        8.6578559130430222e-03 -7.1672922372817993e-01</leafValues></_>
    <_>
      <internalNodes>
        0 -1 178 5.1773583982139826e-04</internalNodes>
      <leafValues>
        2.6249393820762634e-01 -2.0829197019338608e-02</leafValues></_>
    <_>
      <internalNodes>
        0 -1 229 1.4946305751800537e-01</internalNodes>
      <leafValues>
        1.0471546091139317e-02 -4.8877155780792236e-01</leafValues></_>
    <_>
      <internalNodes>
        0 -1 65 1.8087647855281830e-02</internalNodes>
      <leafValues>
        5.5868830531835556e-02 -9.0116664767265320e-02</leafValues></_>
    <_>
      <internalNodes>
        0 -1 156 2.1376879885792732e-04</internalNodes>
      <leafValues>
        -4.6275761723518372e-01 1.1587080545723438e-02</leafValues></_>
    <_>
      <internalNodes>
        0 -1 93 1.1003710329532623e-02</internalNodes>
      <leafValues>
        -9.3565694987773895e-02 5.8597270399332047e-02</leafValues></_>
    <_>
      <internalNodes>
        0 -1 230 1.3036563061177731e-02</internalNodes>
      <leafValues>
        9.4377025961875916e-02 -4.8567563295364380e-02</leafValues></_>
    <_>
      <internalNodes>
        0 -1 305 2.6232521981000900e-02</internalNodes>
      <leafValues>
        -7.1960821747779846e-02 7.1529269218444824e-02</leafValues></_>
    <_>
      <internalNodes>
        0 -1 287 1.1520372331142426e-01</internalNodes>
      <leafValues>
        8.5876556113362312e-03 -5.7646715641021729e-01</leafValues></_>
    <_>
      <internalNodes>
        0 -1 128 1.2817739043384790e-03</internalNodes>
      <leafValues>
        2.2001244127750397e-01 -2.0289326086640358e-02</leafValues></_>
    <_>
      <internalNodes>
        0 -1 19 2.3232012987136841e-02</internalNodes>
      <leafValues>
        -6.6479466855525970e-02 7.4647575616836548e-02</leafValues></_>
    <_>
      <internalNodes>
        0 -1 321 1.4494003728032112e-02</internalNodes>
      <leafValues>
        5.8534558862447739e-02 -7.7569216489791870e-02</leafValues></_>
    <_>
      <internalNodes>
        0 -1 77 3.7819683551788330e-02</internalNodes>
      <leafValues>
        -4.0700290352106094e-02 1.1481528729200363e-01</leafValues></_>
    <_>
      <internalNodes>
        0 -1 134 7.3225310188718140e-05</internalNodes>
      <leafValues>
        -4.8607146739959717e-01 1.0709142312407494e-02</leafValues></_>
    <_>
      <internalNodes>
        0 -1 39 8.6431719362735748e-02</internalNodes>
      <leafValues>
        -3.0311057344079018e-02 1.5735825896263123e-01</leafValues></_>
    <_>
      <internalNodes>
        0 -1 95 3.4200377762317657e-02</internalNodes>
      <leafValues>
        -3.9901264011859894e-02 1.2323152273893356e-01</leafValues></_>
    <_>
      <internalNodes>
        0 -1 34 5.0268866121768951e-02</internalNodes>
      <leafValues>
        -1.9631899893283844e-02 2.5195816159248352e-01</leafValues></_>
    <_>
      <internalNodes>
        0 -1 72 7.8576892614364624e-02</internalNodes>
      <leafValues>
        -2.1161442622542381e-02 2.2955812513828278e-01</leafValues></_>
    <_>
      <internalNodes>
        0 -1 192 1.1939864605665207e-02</internalNodes>
      <leafValues>
        -1.1874409765005112e-01 4.0425632148981094e-02</leafValues></_>
    <_>
      <internalNodes>
        0 -1 286 5.6334212422370911e-03</internalNodes>
      <leafValues>
        -1.1974968016147614e-01 4.1483689099550247e-02</leafValues></_>
    <_>
      <internalNodes>
        0 -1 110 2.7362609282135963e-02</internalNodes>
      <leafValues>
        -6.8943373858928680e-02 6.9391898810863495e-02</leafValues></_>
    <_>
      <internalNodes>
        0 -1 140 6.0470804572105408e-02</internalNodes>
      <leafValues>
        -2.2920308634638786e-02 2.5294622778892517e-01</leafValues></_>
    <_>
      <internalNodes>
        0 -1 63 3.5702772438526154e-02</internalNodes>
      <leafValues>
        -3.1299795955419540e-02 1.4488437771797180e-01</leafValues></_>
    <_>
      <internalNodes>
        0 -1 42 3.3273056149482727e-02</internalNodes>
      <leafValues>
        -4.2597755789756775e-02 1.2699992954730988e-01</leafValues></_>
    <_>
      <internalNodes>
        0 -1 196 2.3497219663113356e-03</internalNodes>
      <leafValues>
        1.7984335124492645e-01 -2.8124738484621048e-02</leafValues></_>
    <_>
      <internalNodes>
        0 -1 160 3.4461554139852524e-02</internalNodes>
      <leafValues>
        -4.8568185418844223e-02 1.2408925592899323e-01</leafValues></_>
    <_>
      <internalNodes>
        0 -1 109 7.2133339941501617e-02</internalNodes>
      <leafValues>
        -2.9363494366407394e-02 1.7116414010524750e-01</leafValues></_>
    <_>
      <internalNodes>
        0 -1 175 3.1200252124108374e-05</internalNodes>
      <leafValues>
        -9.1158664226531982e-01 4.7151460312306881e-03</leafValues></_>
    <_>
      <internalNodes>
        0 -1 209 1.3343587517738342e-01</internalNodes>
      <leafValues>
        6.7305103875696659e-03 -8.1512564420700073e-01</leafValues></_>
    <_>
      <internalNodes>
        0 -1 150 4.5299332588911057e-02</internalNodes>
      <leafValues>
        2.6228219270706177e-02 -1.5434522926807404e-01</leafValues></_>
    <_>
      <internalNodes>
        0 -1 38 1.4135673642158508e-01</internalNodes>
      <leafValues>
        9.5236953347921371e-03 -4.1404160857200623e-01</leafValues></_>
    <_>
      <internalNodes>
        0 -1 182 5.4704703390598297e-02</internalNodes>
      <leafValues>
        -3.2656691968441010e-02 1.3411585986614227e-01</leafValues></_>
    <_>
      <internalNodes>
        0 -1 144 1.6269517363980412e-03</internalNodes>
      <leafValues>
        1.9096347689628601e-01 -2.1889666095376015e-02</leafValues></_>
    <_>
      <internalNodes>
        0 -1 134 9.0918708592653275e-03</internalNodes>
      <leafValues>
        -1.0691273957490921e-01 4.8498913645744324e-02</leafValues></_>
    <_>
      <internalNodes>
        0 -1 132 1.2555555440485477e-03</internalNodes>
      <leafValues>
        1.9131951034069061e-01 -2.2626118734478951e-02</leafValues></_>
    <_>
      <internalNodes>
        0 -1 78 2.5640618056058884e-02</internalNodes>
      <leafValues>
        -5.7387188076972961e-02 7.5107276439666748e-02</leafValues></_>
    <_>
      <internalNodes>
        0 -1 158 9.2472452670335770e-03</internalNodes>
      <leafValues>
        -1.2364362180233002e-01 3.2438959926366806e-02</leafValues></_>
    <_>
      <internalNodes>
        0 -1 302 1.7848390340805054e-01</internalNodes>
      <leafValues>
        6.3995895907282829e-03 -7.3479175567626953e-01</leafValues></_>
    <_>
      <internalNodes>
        0 -1 274 4.4533133506774902e-02</internalNodes>
      <leafValues>
        2.5158299133181572e-02 -1.5745107829570770e-01</leafValues></_>
    <_>
      <internalNodes>
        0 -1 8 5.0941802561283112e-02</internalNodes>
      <leafValues>
        -2.9872467741370201e-02 1.3368153572082520e-01</leafValues></_>
    <_>
      <internalNodes>
        0 -1 219 2.1251279860734940e-02</internalNodes>
      <leafValues>
        -9.0772017836570740e-02 4.9201928079128265e-02</leafValues></_>
    <_>
      <internalNodes>
        0 -1 210 2.7260631322860718e-03</internalNodes>
      <leafValues>
        -1.6749811172485352e-01 2.2638723254203796e-02</leafValues></_>
    <_>
      <internalNodes>
        0 -1 208 1.0090026771649718e-03</internalNodes>
      <leafValues>
        2.8218051791191101e-01 -1.8097300082445145e-02</leafValues></_>
    <_>
      <internalNodes>
        0 -1 320 1.3994842767715454e-02</internalNodes>
      <leafValues>
        6.3955105841159821e-02 -7.2849214076995850e-02</leafValues></_>
    <_>
      <internalNodes>
        0 -1 6 4.8504903912544250e-02</internalNodes>
      <leafValues>
        -2.4095598608255386e-02 1.6521330177783966e-01</leafValues></_>
    <_>
      <internalNodes>
        0 -1 114 5.8484741020947695e-04</internalNodes>
      <leafValues>
        2.1938927471637726e-01 -1.8464216962456703e-02</leafValues></_>
    <_>
      <internalNodes>
        0 -1 21 1.0012535005807877e-01</internalNodes>
      <leafValues>
        -1.7693692818284035e-02 2.2282391786575317e-01</leafValues></_>
    <_>
      <internalNodes>
        0 -1 156 1.7174348235130310e-01</internalNodes>
      <leafValues>
        8.4901237860321999e-03 -5.3807210922241211e-01</leafValues></_>
    <_>
      <internalNodes>
        0 -1 228 3.5691726952791214e-02</internalNodes>
      <leafValues>
        -5.3597640246152878e-02 8.1043981015682220e-02</leafValues></_>
    <_>
      <internalNodes>
        0 -1 227 1.8124271184206009e-02</internalNodes>
      <leafValues>
        6.3016496598720551e-02 -6.9166958332061768e-02</leafValues></_>
    <_>
      <internalNodes>
        0 -1 179 2.5220859242836013e-05</internalNodes>
      <leafValues>
        -4.5417830348014832e-01 1.0073004290461540e-02</leafValues></_>
    <_>
      <internalNodes>
        0 -1 225 3.7911798804998398e-02</internalNodes>
      <leafValues>
        -2.9521873220801353e-02 1.3351728022098541e-01</leafValues></_></weakClassifiers></stage11>
</opencv_storage>
