<?xml version="1.0"?>
<opencv_storage>
<stage14>
  <maxWeakCount>100</maxWeakCount>
  <stageThreshold>-1.1064265966415405e+00</stageThreshold>
  <weakClassifiers>
    <_>
      <internalNodes>
        0 -1 236 1.0094651021063328e-02</internalNodes>
      <leafValues>
        6.1806970834732056e-01 1.5003851056098938e-01</leafValues></_>
    <_>
      <internalNodes>
        0 -1 34 4.5185405761003494e-03</internalNodes>
      <leafValues>
        3.0785632133483887e-01 -1.3986639678478241e-01</leafValues></_>
    <_>
      <internalNodes>
        0 -1 80 2.4126993492245674e-02</internalNodes>
      <leafValues>
        -2.0960052311420441e-01 1.3293910026550293e-01</leafValues></_>
    <_>
      <internalNodes>
        0 -1 297 3.9978623390197754e-02</internalNodes>
      <leafValues>
        -1.0676784068346024e-01 2.2179695963859558e-01</leafValues></_>
    <_>
      <internalNodes>
        0 -1 109 4.8316754400730133e-02</internalNodes>
      <leafValues>
        -1.2407033145427704e-01 1.8175189197063446e-01</leafValues></_>
    <_>
      <internalNodes>
        0 -1 17 1.6642767935991287e-02</internalNodes>
      <leafValues>
        9.3101717531681061e-02 -1.6746275126934052e-01</leafValues></_>
    <_>
      <internalNodes>
        0 -1 123 2.2743307054042816e-02</internalNodes>
      <leafValues>
        -1.3955767452716827e-01 1.2407375872135162e-01</leafValues></_>
    <_>
      <internalNodes>
        0 -1 236 1.0055083781480789e-02</internalNodes>
      <leafValues>
        -1.4694845676422119e-01 9.4225041568279266e-02</leafValues></_>
    <_>
      <internalNodes>
        0 -1 34 4.5242467895150185e-03</internalNodes>
      <leafValues>
        -1.7151494324207306e-01 7.2653815150260925e-02</leafValues></_>
    <_>
      <internalNodes>
        0 -1 314 1.9514229148626328e-02</internalNodes>
      <leafValues>
        1.0746572166681290e-01 -1.3305957615375519e-01</leafValues></_>
    <_>
      <internalNodes>
        0 -1 274 2.9766134917736053e-02</internalNodes>
      <leafValues>
        6.5682053565979004e-02 -1.9698259234428406e-01</leafValues></_>
    <_>
      <internalNodes>
        0 -1 111 3.6259900778532028e-02</internalNodes>
      <leafValues>
        -9.9647462368011475e-02 1.0876331478357315e-01</leafValues></_>
    <_>
      <internalNodes>
        0 -1 24 3.2112143933773041e-02</internalNodes>
      <leafValues>
        -6.9982312619686127e-02 1.6846176981925964e-01</leafValues></_>
    <_>
      <internalNodes>
        0 -1 75 3.9090059697628021e-02</internalNodes>
      <leafValues>
        -9.1784693300724030e-02 1.1729343235492706e-01</leafValues></_>
    <_>
      <internalNodes>
        0 -1 303 1.1335862800478935e-02</internalNodes>
      <leafValues>
        -1.6396586596965790e-01 6.0363244265317917e-02</leafValues></_>
    <_>
      <internalNodes>
        0 -1 246 5.3023360669612885e-02</internalNodes>
      <leafValues>
        -5.5237468332052231e-02 2.2207766771316528e-01</leafValues></_>
    <_>
      <internalNodes>
        0 -1 280 2.8473183512687683e-02</internalNodes>
      <leafValues>
        -8.0120064318180084e-02 1.3254506886005402e-01</leafValues></_>
    <_>
      <internalNodes>
        0 -1 72 5.8304648846387863e-02</internalNodes>
      <leafValues>
        -5.2075285464525223e-02 2.1244837343692780e-01</leafValues></_>
    <_>
      <internalNodes>
        0 -1 95 4.2575143277645111e-02</internalNodes>
      <leafValues>
        -4.2344134300947189e-02 1.8059441447257996e-01</leafValues></_>
    <_>
      <internalNodes>
        0 -1 213 3.2269407063722610e-02</internalNodes>
      <leafValues>
        3.7966176867485046e-02 -2.0409671962261200e-01</leafValues></_>
    <_>
      <internalNodes>
        0 -1 287 1.1929401010274887e-01</internalNodes>
      <leafValues>
        1.2965327128767967e-02 -6.6391175985336304e-01</leafValues></_>
    <_>
      <internalNodes>
        0 -1 272 3.7054028362035751e-02</internalNodes>
      <leafValues>
        3.5911988466978073e-02 -2.1579475700855255e-01</leafValues></_>
    <_>
      <internalNodes>
        0 -1 16 3.5105452407151461e-03</internalNodes>
      <leafValues>
        1.5519246459007263e-01 -4.6975623816251755e-02</leafValues></_>
    <_>
      <internalNodes>
        0 -1 8 9.5389625057578087e-03</internalNodes>
      <leafValues>
        -1.3448111712932587e-01 5.7415679097175598e-02</leafValues></_>
    <_>
      <internalNodes>
        0 -1 122 2.0234026014804840e-02</internalNodes>
      <leafValues>
        -1.0482698678970337e-01 6.9681361317634583e-02</leafValues></_>
    <_>
      <internalNodes>
        0 -1 114 3.3421106636524200e-02</internalNodes>
      <leafValues>
        3.9626866579055786e-02 -1.6733156144618988e-01</leafValues></_>
    <_>
      <internalNodes>
        0 -1 288 4.7115355730056763e-02</internalNodes>
      <leafValues>
        -3.4232955425977707e-02 1.9226685166358948e-01</leafValues></_>
    <_>
      <internalNodes>
        0 -1 199 5.9721353463828564e-03</internalNodes>
      <leafValues>
        1.3465902209281921e-01 -5.0076846033334732e-02</leafValues></_>
    <_>
      <internalNodes>
        0 -1 169 2.8483105823397636e-02</internalNodes>
      <leafValues>
        -6.1287932097911835e-02 1.1453692615032196e-01</leafValues></_>
    <_>
      <internalNodes>
        0 -1 134 2.1858620457351208e-03</internalNodes>
      <leafValues>
        2.2941392660140991e-01 -2.9702534899115562e-02</leafValues></_>
    <_>
      <internalNodes>
        0 -1 233 1.1552220210433006e-02</internalNodes>
      <leafValues>
        -1.0903381556272507e-01 6.1005324125289917e-02</leafValues></_>
    <_>
      <internalNodes>
        0 -1 117 9.2348055914044380e-03</internalNodes>
      <leafValues>
        9.9804513156414032e-02 -6.6934399306774139e-02</leafValues></_>
    <_>
      <internalNodes>
        0 -1 256 1.3133242726325989e-01</internalNodes>
      <leafValues>
        1.4048544690012932e-02 -4.4894340634346008e-01</leafValues></_>
    <_>
      <internalNodes>
        0 -1 264 3.2361239194869995e-02</internalNodes>
      <leafValues>
        -7.7107667922973633e-02 7.8325480222702026e-02</leafValues></_>
    <_>
      <internalNodes>
        0 -1 251 1.1024487204849720e-02</internalNodes>
      <leafValues>
        -1.1386030167341232e-01 5.0387989729642868e-02</leafValues></_>
    <_>
      <internalNodes>
        0 -1 98 1.0265722870826721e-01</internalNodes>
      <leafValues>
        1.6622606664896011e-02 -3.4129610657691956e-01</leafValues></_>
    <_>
      <internalNodes>
        0 -1 60 9.3543517868965864e-04</internalNodes>
      <leafValues>
        2.9393270611763000e-01 -2.0285116508603096e-02</leafValues></_>
    <_>
      <internalNodes>
        0 -1 134 6.3159095589071512e-05</internalNodes>
      <leafValues>
        -5.7772111892700195e-01 1.1990220285952091e-02</leafValues></_>
    <_>
      <internalNodes>
        0 -1 214 4.0307179093360901e-02</internalNodes>
      <leafValues>
        2.3281829431653023e-02 -2.5553429126739502e-01</leafValues></_>
    <_>
      <internalNodes>
        0 -1 252 1.5854358207434416e-03</internalNodes>
      <leafValues>
        1.8549522757530212e-01 -2.6446063071489334e-02</leafValues></_>
    <_>
      <internalNodes>
        0 -1 269 1.3928163051605225e-01</internalNodes>
      <leafValues>
        9.8415436223149300e-03 -5.5454027652740479e-01</leafValues></_>
    <_>
      <internalNodes>
        0 -1 238 2.7436157688498497e-02</internalNodes>
      <leafValues>
        5.5613238364458084e-02 -1.0273785889148712e-01</leafValues></_>
    <_>
      <internalNodes>
        0 -1 225 4.9675814807415009e-02</internalNodes>
      <leafValues>
        -2.7751928195357323e-02 1.9755142927169800e-01</leafValues></_>
    <_>
      <internalNodes>
        0 -1 147 9.5544499345123768e-05</internalNodes>
      <leafValues>
        -4.6225196123123169e-01 1.2827225029468536e-02</leafValues></_>
    <_>
      <internalNodes>
        0 -1 302 2.8880679979920387e-02</internalNodes>
      <leafValues>
        -6.1811510473489761e-02 7.8917436301708221e-02</leafValues></_>
    <_>
      <internalNodes>
        0 -1 210 3.5673794336616993e-03</internalNodes>
      <leafValues>
        -1.8481086194515228e-01 2.8975961729884148e-02</leafValues></_>
    <_>
      <internalNodes>
        0 -1 108 5.2466347813606262e-02</internalNodes>
      <leafValues>
        -3.0894787982106209e-02 1.7430989444255829e-01</leafValues></_>
    <_>
      <internalNodes>
        0 -1 316 3.5704631591215730e-04</internalNodes>
      <leafValues>
        3.7339997291564941e-01 -1.5414304099977016e-02</leafValues></_>
    <_>
      <internalNodes>
        0 -1 320 9.8449727520346642e-03</internalNodes>
      <leafValues>
        8.7501958012580872e-02 -6.1835546046495438e-02</leafValues></_>
    <_>
      <internalNodes>
        0 -1 171 3.1351558864116669e-02</internalNodes>
      <leafValues>
        -5.1196131855249405e-02 1.0989601910114288e-01</leafValues></_>
    <_>
      <internalNodes>
        0 -1 197 4.7673992812633514e-03</internalNodes>
      <leafValues>
        1.6180606186389923e-01 -3.5379499197006226e-02</leafValues></_>
    <_>
      <internalNodes>
        0 -1 48 1.3905081152915955e-01</internalNodes>
      <leafValues>
        1.3164361007511616e-02 -4.4587203860282898e-01</leafValues></_>
    <_>
      <internalNodes>
        0 -1 170 8.4877163171768188e-02</internalNodes>
      <leafValues>
        1.4564367942512035e-02 -3.6856764554977417e-01</leafValues></_>
    <_>
      <internalNodes>
        0 -1 111 1.0757911950349808e-02</internalNodes>
      <leafValues>
        -1.4793308079242706e-01 3.4053821116685867e-02</leafValues></_>
    <_>
      <internalNodes>
        0 -1 64 6.2197446823120117e-03</internalNodes>
      <leafValues>
        1.0964360833168030e-01 -4.6858191490173340e-02</leafValues></_>
    <_>
      <internalNodes>
        0 -1 37 2.1499378979206085e-01</internalNodes>
      <leafValues>
        7.0334449410438538e-03 -8.0325460433959961e-01</leafValues></_>
    <_>
      <internalNodes>
        0 -1 4 4.3299779295921326e-02</internalNodes>
      <leafValues>
        5.6767761707305908e-02 -9.6136026084423065e-02</leafValues></_>
    <_>
      <internalNodes>
        0 -1 309 9.9838197231292725e-02</internalNodes>
      <leafValues>
        9.1868005692958832e-03 -5.7863682508468628e-01</leafValues></_>
    <_>
      <internalNodes>
        0 -1 49 3.9341347292065620e-03</internalNodes>
      <leafValues>
        2.5278767943382263e-01 -1.8231529742479324e-02</leafValues></_>
    <_>
      <internalNodes>
        0 -1 220 1.1673675908241421e-04</internalNodes>
      <leafValues>
        -1.1811330318450928e+00 6.0022785328328609e-03</leafValues></_>
    <_>
      <internalNodes>
        0 -1 304 2.2769698873162270e-02</internalNodes>
      <leafValues>
        -7.2138614952564240e-02 7.0648059248924255e-02</leafValues></_>
    <_>
      <internalNodes>
        0 -1 17 7.7723592519760132e-02</internalNodes>
      <leafValues>
        1.4586906880140305e-02 -3.1376367807388306e-01</leafValues></_>
    <_>
      <internalNodes>
        0 -1 301 5.6035231798887253e-02</internalNodes>
      <leafValues>
        -4.5831836760044098e-02 1.0410332679748535e-01</leafValues></_>
    <_>
      <internalNodes>
        0 -1 19 2.3238256573677063e-02</internalNodes>
      <leafValues>
        -6.3734129071235657e-02 7.2875030338764191e-02</leafValues></_>
    <_>
      <internalNodes>
        0 -1 127 1.1219955049455166e-03</internalNodes>
      <leafValues>
        2.1829617023468018e-01 -2.0572056993842125e-02</leafValues></_>
    <_>
      <internalNodes>
        0 -1 47 7.1119917265605181e-05</internalNodes>
      <leafValues>
        -4.0745681524276733e-01 1.1732683517038822e-02</leafValues></_>
    <_>
      <internalNodes>
        0 -1 168 2.2042257711291313e-02</internalNodes>
      <leafValues>
        -5.5532362312078476e-02 7.6642401516437531e-02</leafValues></_>
    <_>
      <internalNodes>
        0 -1 204 1.5028917789459229e-01</internalNodes>
      <leafValues>
        7.4613913893699646e-03 -7.3233962059020996e-01</leafValues></_>
    <_>
      <internalNodes>
        0 -1 276 9.3375658616423607e-04</internalNodes>
      <leafValues>
        2.3578028380870819e-01 -1.8698807805776596e-02</leafValues></_>
    <_>
      <internalNodes>
        0 -1 38 1.4136198163032532e-01</internalNodes>
      <leafValues>
        8.1131393089890480e-03 -5.1423519849777222e-01</leafValues></_>
    <_>
      <internalNodes>
        0 -1 111 6.8270072340965271e-02</internalNodes>
      <leafValues>
        -3.4485030919313431e-02 1.2651821970939636e-01</leafValues></_>
    <_>
      <internalNodes>
        0 -1 13 2.2429954260587692e-03</internalNodes>
      <leafValues>
        3.7251836061477661e-01 -1.3111083768308163e-02</leafValues></_>
    <_>
      <internalNodes>
        0 -1 192 1.3193123042583466e-02</internalNodes>
      <leafValues>
        -9.9871940910816193e-02 4.0154445916414261e-02</leafValues></_>
    <_>
      <internalNodes>
        0 -1 85 8.1477507948875427e-02</internalNodes>
      <leafValues>
        2.3012826219201088e-02 -2.4507409334182739e-01</leafValues></_>
    <_>
      <internalNodes>
        0 -1 200 1.2005809694528580e-02</internalNodes>
      <leafValues>
        7.1149468421936035e-02 -6.3093572854995728e-02</leafValues></_>
    <_>
      <internalNodes>
        0 -1 267 2.2997979074716568e-02</internalNodes>
      <leafValues>
        -6.7527703940868378e-02 6.2631882727146149e-02</leafValues></_>
    <_>
      <internalNodes>
        0 -1 226 1.1382235586643219e-01</internalNodes>
      <leafValues>
        -1.1615591123700142e-02 4.6585276722908020e-01</leafValues></_>
    <_>
      <internalNodes>
        0 -1 227 1.8172251060605049e-02</internalNodes>
      <leafValues>
        6.1665832996368408e-02 -6.7002788186073303e-02</leafValues></_>
    <_>
      <internalNodes>
        0 -1 267 1.4729133248329163e-01</internalNodes>
      <leafValues>
        1.2556556612253189e-02 -3.9950788021087646e-01</leafValues></_>
    <_>
      <internalNodes>
        0 -1 31 3.9640683680772781e-03</internalNodes>
      <leafValues>
        1.7659357190132141e-01 -2.3751892149448395e-02</leafValues></_>
    <_>
      <internalNodes>
        0 -1 177 6.7665219306945801e-02</internalNodes>
      <leafValues>
        7.7737844549119473e-03 -4.1405522823333740e-01</leafValues></_>
    <_>
      <internalNodes>
        0 -1 50 5.6231852620840073e-02</internalNodes>
      <leafValues>
        -2.7255155146121979e-02 1.5382948517799377e-01</leafValues></_>
    <_>
      <internalNodes>
        0 -1 221 8.9613735675811768e-02</internalNodes>
      <leafValues>
        1.8567372113466263e-02 -3.1942561268806458e-01</leafValues></_>
    <_>
      <internalNodes>
        0 -1 229 1.7208808660507202e-01</internalNodes>
      <leafValues>
        7.4499216862022877e-03 -6.1222231388092041e-01</leafValues></_>
    <_>
      <internalNodes>
        0 -1 10 4.8633012920618057e-03</internalNodes>
      <leafValues>
        1.3130305707454681e-01 -3.2545290887355804e-02</leafValues></_>
    <_>
      <internalNodes>
        0 -1 109 2.1631153300404549e-02</internalNodes>
      <leafValues>
        -7.5452618300914764e-02 5.7040564715862274e-02</leafValues></_>
    <_>
      <internalNodes>
        0 -1 210 1.6999294981360435e-02</internalNodes>
      <leafValues>
        -7.3421895503997803e-02 5.8405436575412750e-02</leafValues></_>
    <_>
      <internalNodes>
        0 -1 317 8.5053578019142151e-02</internalNodes>
      <leafValues>
        1.2420022860169411e-02 -3.7036877870559692e-01</leafValues></_>
    <_>
      <internalNodes>
        0 -1 319 3.0213750898838043e-02</internalNodes>
      <leafValues>
        5.4644204676151276e-02 -8.8170453906059265e-02</leafValues></_>
    <_>
      <internalNodes>
        0 -1 6 4.4854313135147095e-02</internalNodes>
      <leafValues>
        -2.6805067434906960e-02 1.6583940386772156e-01</leafValues></_>
    <_>
      <internalNodes>
        0 -1 66 1.1755705624818802e-01</internalNodes>
      <leafValues>
        5.2637094631791115e-03 -1.1178064346313477e+00</leafValues></_>
    <_>
      <internalNodes>
        0 -1 21 1.5614432096481323e-01</internalNodes>
      <leafValues>
        -1.0757576674222946e-02 5.9569948911666870e-01</leafValues></_>
    <_>
      <internalNodes>
        0 -1 150 1.0913511365652084e-01</internalNodes>
      <leafValues>
        8.4046218544244766e-03 -5.7063114643096924e-01</leafValues></_>
    <_>
      <internalNodes>
        0 -1 323 1.1560170352458954e-01</internalNodes>
      <leafValues>
        9.9192280322313309e-03 -4.3725982308387756e-01</leafValues></_>
    <_>
      <internalNodes>
        0 -1 196 1.2808584142476320e-03</internalNodes>
      <leafValues>
        1.9690510630607605e-01 -2.1014979109168053e-02</leafValues></_>
    <_>
      <internalNodes>
        0 -1 179 8.1228157796431333e-05</internalNodes>
      <leafValues>
        -4.5820641517639160e-01 8.7293973192572594e-03</leafValues></_>
    <_>
      <internalNodes>
        0 -1 28 1.9085499644279480e-01</internalNodes>
      <leafValues>
        -4.3562515638768673e-03 1.2479034662246704e+00</leafValues></_>
    <_>
      <internalNodes>
        0 -1 163 1.0511893033981323e-01</internalNodes>
      <leafValues>
        8.5477083921432495e-03 -5.9947907924652100e-01</leafValues></_>
    <_>
      <internalNodes>
        0 -1 220 1.4263673685491085e-02</internalNodes>
      <leafValues>
        -1.2806557118892670e-01 3.0831554904580116e-02</leafValues></_>
    <_>
      <internalNodes>
        0 -1 147 1.4849704504013062e-01</internalNodes>
      <leafValues>
        1.0243248194456100e-02 -4.0054103732109070e-01</leafValues></_></weakClassifiers></stage14>
</opencv_storage>
